
#include <stdio.h>
#include <stdlib.h>
#include <math.h>
#include <string.h>

#define FRM_LEN  160
#define WIN_SIZE 480
#define FFT_LEN  512
#define MELS_NUM 40
#define SAMPLES_NUM 16000
#define FS 16000
#define FREQ_NUM (FFT_LEN / 2 + 1)

#define PI 3.141592653589793
#define CLASSES_NUM 12

#define STAGE_NUM 4

#define CHANNEL0 16
#define CHANNEL1 8
#define CHANNEL2 12
#define CHANNEL3 16
#define CHANNEL4 20
#define CHANNEL5 32


double cnn_head_0_weight[16][1][5][5] = { { { { 3.935822445678885e-15, 2.468777898176908e-15, 5.631427081415291e-16, 9.769122148259464e-16, 2.864250593228126e-15 },{ 4.7890747323484e-15, 2.5649409134039782e-15, 2.90092426110804e-16, 5.27035175907736e-16, 1.8837417706290193e-15 },{ 4.834224976568843e-15, 1.8888123216095204e-15, -6.384535192126522e-16, -5.254433363020491e-16, 2.9291039884720067e-16 },{ 4.17711121564906e-15, 5.813152176897189e-16, -2.089272621214381e-15, -1.6114773234151094e-15, -6.88604169497652e-17 },{ 4.371547205174811e-15, 1.152285621994621e-15, -1.3391373843897754e-15, -6.568591745795738e-16, 1.224668504864882e-15 } } },{ { { 1.7885617032559198e-13, 1.2503270174855224e-13, 3.680729495064011e-14, 1.428552405763426e-14, 1.989709192220558e-14 },{ 3.114521444566587e-13, 1.8304059440019116e-13, 4.14352695221349e-14, -4.731380353695594e-15, -1.2221380998140782e-14 },{ 3.032991609600022e-13, 1.2294172299122386e-13, -2.193014717846893e-14, -6.184414552733511e-14, -6.860781880764152e-14 },{ 2.937401569810122e-13, 1.1881131928986877e-13, -1.556793532790906e-14, -3.6158752316113596e-14, -3.045467998337263e-14 },{ 1.927629334364661e-13, 6.176451087776605e-14, -5.913872907006845e-14, -5.725852599133482e-14, -5.3585002544366284e-15 } } },{ { { -0.014327523298561573, -0.05455460771918297, -0.044247861951589584, -0.09239803999662399, -0.010551518760621548 },{ -0.019846433773636818, -0.01361008919775486, 0.08904732763767242, 0.036117177456617355, 0.07963615655899048 },{ -0.056771233677864075, -0.06687448173761368, 0.023872986435890198, -0.039575859904289246, -0.03976196423172951 },{ 0.03316435217857361, -0.03494280204176903, 0.022204551845788956, 0.04134654253721237, 0.07570634037256241 },{ 0.09674828499555588, 0.0020759296603500843, -0.027278518304228783, -0.10018889605998993, -0.15318244695663452 } } },{ { { 0.029603784903883934, 0.29727238416671753, 0.3836284279823303, 0.17075252532958984, -0.03177729249000549 },{ -0.15342630445957184, 0.0961625799536705, 0.28957808017730713, 0.18609341979026794, -0.09258691966533661 },{ -0.09234581142663956, -0.045841850340366364, 0.07023167610168457, 0.020488789305090904, -0.06032606586813927 },{ -0.21266166865825653, -0.12846633791923523, -0.0979284718632698, -0.0761212408542633, -0.0037953811697661877 },{ -0.08789185434579849, -0.06055053696036339, -0.022898996248841286, -0.0928826630115509, -0.10069983452558517 } } },{ { { -0.00020701046742033213, -0.00014632749662268907, -0.00011547992471605539, -0.0002108151384163648, -0.00038099795347079635 },{ -0.00021204371296335012, 2.37489803112112e-05, 0.0002164027828257531, 0.00023564352886751294, 7.165954593801871e-05 },{ -0.0003604225057642907, -0.00019876602164003998, -6.659154223598307e-06, 0.0002028402959695086, 0.000271413242444396 },{ -0.0002495654334779829, -0.00017138736438937485, -9.606689854990691e-05, 9.830497583607212e-05, 0.00029738651937805116 },{ 6.869637581985444e-05, -0.00014044503041077405, -0.00016797057469375432, -0.00014185986947268248, -9.130945545621216e-05 } } },{ { { 5.408485892115591e-16, 3.244554675199473e-16, 3.431457855141504e-17, 2.446460644659566e-16, 4.948417299836458e-16 },{ 1.0930199972246585e-15, 5.842365813852398e-16, 1.4190946476326212e-16, 1.79286064110279e-16, 3.1946594053480705e-16 },{ 1.0591161270822659e-15, 5.463346627922476e-16, 9.132003817669481e-17, 8.864085311219476e-17, 1.4088620925830953e-16 },{ 7.136390752867001e-16, 2.1399421850586923e-16, -2.9311000745517706e-16, -2.2853433313887734e-16, -7.410985731825943e-17 },{ 5.987065511023034e-16, 1.7969440016530458e-16, -2.8976255971740767e-16, -2.0018174487922196e-16, 2.1568698076373244e-17 } } },{ { { 3.175730601257101e-16, 1.5400617521706128e-15, 2.442005092538331e-15, 2.2908670979356147e-15, 2.1948207614970287e-15 },{ 2.377729479643596e-16, 1.2114668611072133e-15, 1.9585411326186785e-15, 1.5484303318103669e-15, 1.4873543858738851e-15 },{ -1.4946491924343168e-16, 3.0852820408691227e-16, 1.0271249632138918e-15, 3.442521362747176e-16, 4.465586285286641e-16 },{ -2.7043636482527794e-16, 9.303901875125351e-17, 7.792178483707857e-16, 1.638272893064144e-16, 2.4731133304383107e-16 },{ 4.4123378237552956e-16, 7.630967467417275e-16, 1.3861280194463655e-15, 5.479536074522466e-16, 3.402569994998743e-16 } } },{ { { 0.12788131833076477, -0.012809627689421177, 0.014232462272047997, 0.04342275112867355, -0.28889307379722595 },{ 0.48665931820869446, 0.18529118597507477, 0.10425213724374771, 0.025960849598050117, -0.4308912754058838 },{ 0.6830354928970337, 0.16311125457286835, 0.05107412487268448, -0.028666414320468903, -0.492756724357605 },{ 0.4549786150455475, 0.05543329566717148, -0.0213738102465868, -0.0406000055372715, -0.37818828225135803 },{ 0.10290713608264923, 0.013820795342326164, 0.003715713042765856, -0.04688568413257599, -0.18853583931922913 } } },{ { { 3.3529384824149133e-10, -2.4182197910782577e-10, -8.680688390327873e-10, -1.5513190732008297e-09, -1.5111173423676405e-09 },{ 1.3668504106334467e-09, 8.293141173787433e-10, 1.777172714545472e-10, -6.750197623084375e-10, -8.354562597290283e-10 },{ 7.283685876657842e-10, 4.8934269830658295e-11, -6.195693957877779e-10, -1.2869703081008765e-09, -1.4309629037256855e-09 },{ 6.995078405402921e-10, 9.163897418673628e-11, -4.177575507746667e-10, -8.739014512038068e-10, -7.345729025054482e-10 },{ 6.091629284332711e-11, -8.166561871192357e-11, -4.3168130181570064e-10, -6.532737684139533e-10, -6.771941896133171e-10 } } },{ { { -6.37868577402223e-12, -1.880499228557042e-11, -2.4824696118197487e-11, -2.272656021706787e-11, -2.983408312062785e-11 },{ -1.9575721252329537e-11, -2.7661751361707232e-11, -2.974614998763059e-11, -2.0267272235474643e-11, -1.2884289121717352e-11 },{ -2.0077448384392405e-11, -1.0033638850326376e-11, -5.619591597616491e-12, 2.279043490385768e-12, 8.234394069384088e-13 },{ -1.2959416526014955e-12, 2.0180374732392536e-11, 2.5242417531212702e-11, 2.4580967469822745e-11, 1.055002981677211e-12 },{ -7.578539358565894e-12, 1.0731152945420153e-11, 1.5074975989737283e-11, 1.0626893462428733e-11, -1.9383133986750067e-11 } } },{ { { -0.042841315269470215, -0.013250675983726978, 0.012318307533860207, 0.0008152601076290011, -0.1776789426803589 },{ -0.20405714213848114, -0.13626332581043243, -0.11172795295715332, -0.07791198045015335, -0.13316035270690918 },{ -0.09433915466070175, 0.01621348224580288, 0.03793039917945862, 0.07216481864452362, -0.02530790865421295 },{ 0.1673097014427185, 0.2989672124385834, 0.343417763710022, 0.2154095470905304, -0.06111426651477814 },{ -0.03981366008520126, 0.23323585093021393, 0.27548152208328247, 0.11900642514228821, -0.18551330268383026 } } },{ { { 6.382905288977768e-15, 4.450165415207166e-15, 3.212999680359376e-15, 2.5644864802277763e-15, 3.2117401423668087e-15 },{ 1.0235918829117757e-14, 7.156007930046292e-15, 4.597945982965203e-15, 2.7883670290659813e-15, 2.243608165192982e-15 },{ 8.199039219097554e-15, 5.123216948062486e-15, 8.960170743522533e-16, -1.842829655760163e-15, -2.137354446465271e-15 },{ 8.282693887034284e-15, 4.567688695539859e-15, 7.57236390477471e-16, -1.883097178556159e-15, -2.2518754185164207e-15 },{ 8.163781472668094e-15, 5.488448661072594e-15, 2.2643058387756144e-15, 1.3570902477068303e-16, 7.172735877842499e-16 } } },{ { { -1.5271273473078028e-16, -8.125591695221933e-17, -1.3840386836417872e-17, 4.32787745543216e-17, 1.0897036514779211e-16 },{ -1.2951618160484963e-16, -5.575117257524111e-17, 2.8126297700250173e-18, 3.1359121779767174e-17, 1.3463330616255987e-16 },{ -1.2013685343100476e-16, -4.9881542789137295e-18, 4.2752482543945963e-17, 5.665696181576628e-17, 4.29815420904517e-17 },{ -1.6132419114199218e-17, 1.233508405400224e-16, 1.914111819315467e-16, 1.5047695156183315e-16, 6.158170401533139e-17 },{ 3.355736501097481e-18, 1.6593213971056173e-16, 2.676751432963473e-16, 1.8096983326052255e-16, 4.0657558307149265e-17 } } },{ { { 0.009485617280006409, -0.040176257491111755, -0.009345103986561298, -0.049626242369413376, -0.07101994007825851 },{ -0.18903948366641998, -0.06995029747486115, 0.17744801938533783, 0.26918482780456543, 0.24538654088974 },{ -0.3479791283607483, -0.14540725946426392, 0.10243157297372818, 0.36328959465026855, 0.5389737486839294 },{ -0.20290419459342957, -0.10193037241697311, -0.015238955616950989, 0.12560150027275085, 0.3861905336380005 },{ 0.12340108305215836, -0.04255644977092743, -0.06273153424263, -0.038324709981679916, 0.01636088266968727 } } },{ { { -6.739297314650727e-11, -2.773830470870209e-11, -1.473490079950679e-11, -1.3483048011408982e-11, -2.1614958087279312e-11 },{ -7.714878735853858e-11, -3.097050740863416e-11, -1.9076708962506572e-11, -1.5638507849802252e-11, -1.9782356308617466e-11 },{ -5.952416337606792e-11, -1.0149711800189198e-11, 1.854549933760774e-12, 5.166702135572798e-12, -6.477719700697868e-14 },{ -7.097101378805704e-11, -1.9359200006952015e-11, -1.397011738062115e-12, 3.082632673429009e-12, -1.0012557623284568e-11 },{ -5.870284119913194e-11, -1.2744370662953752e-11, 6.7873553999397984e-12, 1.5104925990550022e-11, 5.835845261897843e-12 } } },{ { { 3.9341173154165026e-16, 2.5799506548666797e-16, -2.0321379195814733e-17, 2.1155380739698873e-17, 1.7027849075605016e-16 },{ 5.486854439186743e-16, 3.6549413440507936e-16, 1.1031743208405717e-16, 1.5643251962331695e-16, 2.4627684111743755e-16 },{ 4.858499458529494e-16, 2.7878519800944915e-16, 2.723569425500056e-17, 3.5311463538439445e-17, 7.874443779383073e-17 },{ 4.768633497990549e-16, 2.724712026623788e-16, 3.418267963965978e-17, 7.445367328550587e-17, 9.857891862876205e-17 },{ 5.168703570242108e-16, 2.6256711110793027e-16, 9.304159293731977e-17, 1.3946581441510287e-16, 1.6567952536893294e-16 } } } };
double cnn_head_1_weight[] = { 1.4732786504367643e-17, 1.1879226443668733e-13, 0.23271265625953674, 0.2524961233139038, 9.894886170513928e-05, -3.9604477978030455e-17, 7.311064828458599e-16, 0.45440906286239624, 7.148162062264873e-10, 6.370548619877292e-12, 0.3405463993549347, 2.8951281205290974e-15, 2.038521272368545e-17, 0.4258497357368469, -1.937544048813411e-11, 8.082548524867124e-17 };
double cnn_head_1_bias[] = { -2.220505129798384e-15, -3.864151023897505e-13, 0.09993594884872437, 0.04008663073182106, -0.00040958073805086315, -1.7524062151930267e-16, -3.3695768970328855e-15, 0.4073164165019989, -3.4197960019355378e-09, -2.581096100739977e-11, 0.04927484691143036, -1.424425322431224e-14, -1.3750169059420796e-16, 0.3223015069961548, -7.279005176386022e-11, -4.2501204264442565e-16 };
double cnn_head_1_running_mean[] = { -1.2373366491558874e-13, -6.30931331485618e-12, 1.0317493677139282, -0.5706251859664917, 0.005414211191236973, -2.5132866843463955e-14, -8.366343642179919e-14, -2.3429999351501465, 3.365318335113443e-08, 6.134559527026795e-10, -2.246476888656616, -3.2161556404175506e-13, -4.314742211116622e-15, -3.8682260513305664, 1.9774109016879038e-09, -2.0543415330410292e-14 };
double cnn_head_1_running_var[] = { 1.6464816694653278e-26, 4.432046810839262e-23, 1.1553586721420288, 5.1571364402771, 3.311289401608519e-05, 6.754358611517505e-28, 7.364500343840175e-27, 22.677114486694336, 1.2722990733131227e-15, 4.776663014642856e-19, 8.228543281555176, 1.08754188634612e-25, 2.0373180587434714e-29, 21.750696182250977, 4.149962651636702e-18, 4.2906786932607285e-28 };

double BCBlocks_0_0_f2_0_block_0_weight[8][16][1][1] = { { { { 2.5326962749261384e-15 } },{ { 1.4697589662254068e-13 } },{ { 0.19857199490070343 } },{ { 0.09450094401836395 } },{ { -6.996687443461269e-05 } },{ { 5.95159600635676e-16 } },{ { 1.5821805713519513e-15 } },{ { -0.3200313150882721 } },{ { -5.932623836635287e-10 } },{ { -3.993890634879094e-11 } },{ { 0.005725782364606857 } },{ { 3.998396157624349e-15 } },{ { -2.6004093460441782e-17 } },{ { 0.029197396710515022 } },{ { 3.9058051931606386e-11 } },{ { 3.36736227645273e-16 } } },{ { { 2.1803032520558005e-15 } },{ { 4.1473148835536114e-14 } },{ { 0.09831821918487549 } },{ { -0.05230795219540596 } },{ { 0.00015600683400407434 } },{ { -2.4704885870930064e-16 } },{ { 1.3292021114349561e-15 } },{ { 0.18180327117443085 } },{ { 2.1992878629362167e-09 } },{ { 3.821902863632154e-11 } },{ { 0.27929896116256714 } },{ { 6.146345927468587e-15 } },{ { 2.0228262481642904e-16 } },{ { 0.16901500523090363 } },{ { 2.0259219649099158e-11 } },{ { -1.504981340029594e-17 } } },{ { { 5.396067330317659e-16 } },{ { 7.216007170051872e-14 } },{ { -0.1542055457830429 } },{ { 0.10063958913087845 } },{ { -0.00023697873984929174 } },{ { 4.585274886234981e-17 } },{ { -1.182156371228442e-16 } },{ { 0.32475778460502625 } },{ { -8.972900755743751e-10 } },{ { -1.6098308450174237e-11 } },{ { 0.06932248175144196 } },{ { -3.534225649479459e-16 } },{ { -9.877433839411648e-17 } },{ { -0.3226895034313202 } },{ { -2.2522386733392352e-11 } },{ { -2.908565887955703e-17 } } },{ { { -2.1604161890036904e-15 } },{ { -1.1350928606334437e-13 } },{ { 0.11967837065458298 } },{ { 0.09577301889657974 } },{ { -3.3936710678972304e-05 } },{ { 1.0548865607043801e-16 } },{ { -1.5898235613932637e-15 } },{ { 0.41225507855415344 } },{ { 1.0336926870024854e-09 } },{ { -7.097803681604953e-12 } },{ { -0.06237673759460449 } },{ { -3.581492470216413e-15 } },{ { 1.2389344455207758e-16 } },{ { -0.32323771715164185 } },{ { 5.67481166224848e-11 } },{ { 1.4328094345376484e-16 } } },{ { { -2.241870265343453e-15 } },{ { -5.731549403923536e-14 } },{ { -6.892445867379138e-07 } },{ { 2.5445856408623513e-06 } },{ { 5.826615279147518e-07 } },{ { -3.237860997333796e-16 } },{ { -1.6584702878123044e-15 } },{ { 6.959348866075743e-07 } },{ { -3.320820562979776e-10 } },{ { 2.3065842638669842e-11 } },{ { 1.6187098026421154e-06 } },{ { -6.987893065839995e-15 } },{ { -8.133280504451736e-17 } },{ { 1.7118383084380184e-06 } },{ { -6.448665386404873e-12 } },{ { -3.473156426866996e-16 } } },{ { { 4.138735593880316e-16 } },{ { -1.41381806435803e-13 } },{ { -0.06895560026168823 } },{ { 0.2466231882572174 } },{ { 0.00034140984644182026 } },{ { -2.7453899537508374e-16 } },{ { -1.7463325919145193e-16 } },{ { -0.3142124116420746 } },{ { 6.473639957427224e-10 } },{ { -9.653891401562031e-12 } },{ { -0.13278208673000336 } },{ { -2.019203938235137e-15 } },{ { -1.5400093949465607e-16 } },{ { 0.46521875262260437 } },{ { 7.2394906909523105e-12 } },{ { 4.6582381719625685e-17 } } },{ { { -8.240976243832588e-16 } },{ { -2.3611706123291554e-13 } },{ { -0.17328335344791412 } },{ { -0.194939523935318 } },{ { 0.0001865433296188712 } },{ { -3.670843328844309e-16 } },{ { -2.554727178367749e-15 } },{ { -0.34304508566856384 } },{ { -1.8465838858006123e-09 } },{ { 1.7003185318054115e-11 } },{ { 0.2703726589679718 } },{ { -8.252257452140595e-15 } },{ { -2.378727919730172e-17 } },{ { 0.3860040605068207 } },{ { -1.4283719172725196e-11 } },{ { -4.602317520005983e-16 } } },{ { { 2.8076476165278573e-15 } },{ { 2.380781661225073e-13 } },{ { -0.059551604092121124 } },{ { -0.21760106086730957 } },{ { 5.8964909840142354e-05 } },{ { 1.64775780918882e-16 } },{ { -1.8223351377359736e-16 } },{ { 0.08995935320854187 } },{ { 2.3095569900988266e-09 } },{ { 6.108528613490982e-12 } },{ { 0.4228777289390564 } },{ { 6.063884305438066e-15 } },{ { -1.4826903114463926e-17 } },{ { -0.12741604447364807 } },{ { 9.755181384907274e-11 } },{ { -5.797778396555625e-17 } } } };
double BCBlocks_0_0_f2_0_block_1_weight[] = { 0.1406354010105133, 0.3209937810897827, 0.266190767288208, 0.23571722209453583, 1.1056265236675245e-07, 0.17588379979133606, 0.06363882124423981, 0.12445585429668427 };
double BCBlocks_0_0_f2_0_block_1_bias[] = { 0.28327617049217224, -0.19395014643669128, -0.10019311308860779, 0.1808166652917862, -3.535494215611834e-06, 0.2215956747531891, 0.32638856768608093, 0.18844342231750488 };
double BCBlocks_0_0_f2_0_block_1_running_mean[] = { -0.09310725331306458, 0.19868922233581543, 0.023840779438614845, 0.08291804045438766, 1.385490691063751e-06, 0.02900058589875698, -0.014093552716076374, 0.026350658386945724 };
double BCBlocks_0_0_f2_0_block_1_running_var[] = { 0.015852652490139008, 0.015605034306645393, 0.020313311368227005, 0.02861490659415722, 1.3816162840532553e-12, 0.03572065755724907, 0.036868613213300705, 0.01171764824539423 };

double BCBlocks_0_0_f2_1_block_0_weight[8][8][3][1] = { { { { -0.014586142264306545 },{ -0.22957849502563477 },{ -0.04568484425544739 } } },{ { { 0.03803246468305588 },{ -0.17878936231136322 },{ -0.250874400138855 } } },{ { { -0.1544671207666397 },{ 0.012326170690357685 },{ -0.12136083096265793 } } },{ { { 0.1742059588432312 },{ 0.018068881705403328 },{ 0.08984073996543884 } } },{ { { -9.163489380625833e-07 },{ -9.145467174676014e-07 },{ -6.365598324009625e-07 } } },{ { { -0.19718027114868164 },{ -0.1835084855556488 },{ 0.6315500736236572 } } },{ { { 0.15166762471199036 },{ 0.5853832364082336 },{ -0.5097187757492065 } } },{ { { -0.13150838017463684 },{ -0.3337979018688202 },{ 0.16817344725131989 } } } };
double BCBlocks_0_0_f2_1_block_1_ssnorm_weight[] = { 0.2769847512245178, -0.012392796576023102, 0.13462956249713898, 0.004145001992583275, 0.13914507627487183, -0.05277391895651817, 0.13671927154064178, -0.02598508447408676, -0.1248164176940918, 0.21497878432273865, 0.09175793826580048, 0.10062692314386368, 0.27352115511894226, -0.14057092368602753, -0.04734118655323982, 0.12033101171255112, -0.13607628643512726, 0.07854950428009033, -0.09444067627191544, -0.22651952505111694, -1.0364150284658535e-06, 3.921761049241468e-07, 1.2477139534894377e-06, 3.545854951880756e-07, 9.086127761293028e-07, 0.2951466739177704, 0.2189784049987793, 0.17675748467445374, 0.1966872364282608, 0.25262877345085144, 0.34417474269866943, 0.281022846698761, 0.309226393699646, 0.21425935626029968, -0.029285119846463203, -0.0769820585846901, 0.08760197460651398, -0.11374500393867493, -0.13747775554656982, -0.0009393420186825097 };
double BCBlocks_0_0_f2_1_block_1_ssnorm_bias[] = { 0.08104003965854645, -0.035167280584573746, -0.021276524290442467, -0.004752190783619881, 0.023806823417544365, -0.16820679605007172, 0.04267222434282303, -0.03830192610621452, -0.1395554542541504, 0.0731533020734787, 0.14069175720214844, 0.20968729257583618, 0.06269313395023346, -0.014212531968951225, -0.043629713356494904, -0.04939334839582443, 0.022623514756560326, 0.07945460826158524, 0.034173984080553055, 0.08475621044635773, -6.248125373531366e-06, -2.600625975901494e-06, -2.606554289741325e-06, -3.7723307286796626e-06, -2.43955287260178e-06, 0.035493604838848114, 0.17284435033798218, 0.15652845799922943, 0.08648038655519485, -0.08560295403003693, 0.05583864450454712, 0.1965789794921875, 0.008509992621839046, 0.12652668356895447, 0.06537023186683655, 0.09679882973432541, 0.3511599004268646, 0.20315243303775787, 0.08649890869855881, -0.0006601426284760237 };
double BCBlocks_0_0_f2_1_block_1_ssnorm_running_mean[] = { -0.07683800160884857, -0.0795854777097702, -0.08466033637523651, -0.08608709275722504, -0.08442606776952744, -0.04760148003697395, -0.027823494747281075, -0.01658337004482746, -0.016043363139033318, -0.01075102761387825, -0.014057016931474209, -0.016301235184073448, -0.013617860153317451, -0.011540484614670277, -0.008675391785800457, 0.05066802352666855, 0.059989869594573975, 0.059540197253227234, 0.057338960468769073, 0.05090432986617088, -5.605193857299268e-45, -5.605193857299268e-45, -5.605193857299268e-45, -5.605193857299268e-45, -5.605193857299268e-45, 0.06587934494018555, 0.05813979730010033, 0.05210202559828758, 0.05418049544095993, 0.01869269087910652, 0.06016088277101517, 0.07632119208574295, 0.07351797074079514, 0.07423283159732819, 0.11400813609361649, -0.04977011680603027, -0.059484902769327164, -0.054311998188495636, -0.058158572763204575, -0.06279561668634415 };
double BCBlocks_0_0_f2_1_block_1_ssnorm_running_var[] = { 0.0014078171225264668, 0.0015177528839558363, 0.0013083902886137366, 0.0012876567197963595, 0.0011188595090061426, 0.007084470707923174, 0.004176574293524027, 0.002058775629848242, 0.0018098269356414676, 0.0011144476011395454, 0.001200661063194275, 0.001679848413914442, 0.0014242023462429643, 0.0013221430126577616, 0.001021970296278596, 0.002522337017580867, 0.0029975418001413345, 0.0026766674127429724, 0.0025273135397583246, 0.0020580862183123827, 5.605193857299268e-45, 5.605193857299268e-45, 5.605193857299268e-45, 5.605193857299268e-45, 5.605193857299268e-45, 0.007162108086049557, 0.004411781206727028, 0.0031937616877257824, 0.0026027560234069824, 0.005304161924868822, 0.0017791056307032704, 0.0007156658102758229, 0.0005575174000114202, 0.00045954741653986275, 0.006721972953528166, 0.003472151467576623, 0.0019447981612756848, 0.0013287283945828676, 0.001200482016429305, 0.0015460496069863439 };

double BCBlocks_0_0_f1_0_block_0_weight[8][8][1][3] = { { { { -3.7878578496020054e-08, -1.2046960762290837e-08, 2.639027663065008e-09 } } },{ { { -0.08975653350353241, -0.07268576323986053, 0.004248999524861574 } } },{ { { -0.024163680151104927, 0.05416109785437584, 0.07506297528743744 } } },{ { { -0.1704738736152649, 0.19738835096359253, -0.09768106043338776 } } },{ { { 2.8619085696846014e-06, -1.1953685543630854e-06, -4.1272994621976977e-07 } } },{ { { 1.2704797524215388e-15, 1.462550614200319e-15, -4.472814652700273e-15 } } },{ { { -0.06224847584962845, -0.02248305082321167, -0.011447681114077568 } } },{ { { 0.058647118508815765, -0.010911104269325733, -0.11469421535730362 } } } };
double BCBlocks_0_0_f1_0_block_1_weight[] = { 3.2853975540092506e-08, -0.16667112708091736, 0.11709906905889511, -0.2180904597043991, 3.202541620339616e-06, 1.3874091567790876e-15, -0.11654888093471527, 0.11214461177587509 };
double BCBlocks_0_0_f1_0_block_1_bias[] = { 9.651797654441907e-07, 0.0017960929544642568, -0.005323605611920357, -0.023102346807718277, -2.037130434473511e-05, -2.721750824719038e-09, -0.05411062762141228, 0.03088735230267048 };
double BCBlocks_0_0_f1_0_block_1_running_mean[] = { -4.493837524321975e-10, 0.007247616071254015, 0.007604042533785105, -0.00246898690238595, -4.344576781667442e-12, -1.3510916662534938e-16, -0.008532373234629631, -0.009693034924566746 };
double BCBlocks_0_0_f1_0_block_1_running_var[] = { 1.766210767738128e-17, 1.8302147509530187e-05, 3.211163493688218e-05, 3.78697004634887e-05, 1.026328449468459e-24, 9.565723988149762e-32, 8.589005301473662e-05, 1.0219173418590799e-05 };

double BCBlocks_0_0_f1_1_weight[8][8][1][1] = { { { { 3.0699986552917835e-08 } },{ { -0.0008914995123632252 } },{ { 0.11331494897603989 } },{ { -0.11993025243282318 } },{ { -1.916104793053819e-06 } },{ { -1.0890881946279407e-10 } },{ { -0.08591963350772858 } },{ { -0.05961860343813896 } } },{ { { -5.420062976213558e-08 } },{ { -0.29513829946517944 } },{ { 0.053056903183460236 } },{ { 0.00037271881592459977 } },{ { 1.0747069154604105e-06 } },{ { 1.5931057861795495e-10 } },{ { -0.06702807545661926 } },{ { 0.026736252009868622 } } },{ { { 1.645419729356945e-07 } },{ { 0.03310028091073036 } },{ { 0.006577682215720415 } },{ { -0.08759305626153946 } },{ { -3.446063601586502e-06 } },{ { -4.389976715479804e-10 } },{ { 0.015880845487117767 } },{ { 0.04606759920716286 } } },{ { { -5.679298169525282e-07 } },{ { -0.027668962255120277 } },{ { -0.04872427135705948 } },{ { 0.2422342151403427 } },{ { 1.1934364920307416e-05 } },{ { 1.621888290337381e-09 } },{ { -0.019775738939642906 } },{ { -0.0917116105556488 } } },{ { { -2.0150858759393486e-08 } },{ { -2.949301176613517e-07 } },{ { -1.6870507124622236e-06 } },{ { -7.733283950983605e-07 } },{ { -4.241778128744045e-08 } },{ { 2.5150086874203836e-11 } },{ { -1.85128271823487e-07 } },{ { 1.6318996358677396e-06 } } },{ { { -5.47966976682801e-07 } },{ { -0.0393531434237957 } },{ { 0.08359861373901367 } },{ { 0.013879824429750443 } },{ { 1.1825313777080737e-05 } },{ { 1.5154967281105769e-09 } },{ { 0.019161492586135864 } },{ { -0.049631811678409576 } } },{ { { 1.0324210961698554e-06 } },{ { -0.00617004930973053 } },{ { -0.18545188009738922 } },{ { 0.052416615188121796 } },{ { -2.139730531780515e-05 } },{ { -2.915386376756146e-09 } },{ { -0.0996851846575737 } },{ { -0.02698947675526142 } } },{ { { -5.72621786432137e-07 } },{ { 0.013264190405607224 } },{ { -0.03912283480167389 } },{ { -0.010146438144147396 } },{ { 1.2119897291995585e-05 } },{ { 1.6065633268169677e-09 } },{ { -0.0867854431271553 } },{ { -0.07099031656980515 } } } };
double BCBlocks_0_1_f2_0_block_0_weight[8][8][3][1] = { { { { -0.14724299311637878 },{ 0.1956784576177597 },{ 0.10391030460596085 } } },{ { { -0.06124255806207657 },{ -0.16990970075130463 },{ 0.1352389007806778 } } },{ { { -0.11233638226985931 },{ -0.19016245007514954 },{ -0.03721524402499199 } } },{ { { 0.020697595551609993 },{ 0.13467945158481598 },{ 0.1333782970905304 } } },{ { { -1.1063136753364233e-06 },{ -1.5946078519846196e-06 },{ 1.1412660114729078e-06 } } },{ { { -0.22844310104846954 },{ 0.35545429587364197 },{ 0.005661246832460165 } } },{ { { -0.14176276326179504 },{ 0.30423450469970703 },{ 0.09662792086601257 } } },{ { { -0.023716233670711517 },{ -0.3972656726837158 },{ -0.04308280348777771 } } } };
double BCBlocks_0_1_f2_0_block_1_ssnorm_weight[] = { 0.10737258195877075, 0.2481888085603714, 0.14042063057422638, -5.607865750789642e-05, 0.15963312983512878, 0.3163341283798218, -0.054187458008527756, 0.07198278605937958, 0.1977778971195221, -0.1760054975748062, 0.3014184832572937, 0.22434371709823608, 0.13817749917507172, -0.06846347451210022, 0.08735906332731247, 0.14859043061733246, 0.19515067338943481, -0.16772925853729248, 0.024858485907316208, 0.20329907536506653, -1.147115199273685e-06, 2.243061771878274e-06, 1.2661868140639854e-06, 1.6311979322836123e-07, 8.886714795153239e-07, 0.18700633943080902, 0.16430848836898804, 0.16519439220428467, 0.15319021046161652, 0.11855385452508926, 0.20274488627910614, 0.14525838196277618, 0.07959277182817459, 0.008221257477998734, 0.10267240554094315, -0.14779093861579895, 0.3429379463195801, -0.12971502542495728, -0.10916048288345337, -0.00314121856354177 };
double BCBlocks_0_1_f2_0_block_1_ssnorm_bias[] = { 0.055051662027835846, -0.13240188360214233, -0.08465943485498428, 0.013742109760642052, 0.02866254560649395, 0.0128114502876997, -0.05229409039020538, 0.09681198745965958, -0.004567492287606001, -0.03183509409427643, 0.0689065232872963, 0.06658904999494553, 0.10221156477928162, -0.09788240492343903, -0.028147142380475998, -0.09724448621273041, -0.024922272190451622, -0.0520540252327919, -0.010281945578753948, 0.09063953906297684, 0.08166061341762543, 0.0471004918217659, 0.011050758883357048, -0.062007416039705276, -0.04443787783384323, 0.41285234689712524, 0.09108851850032806, 0.04604664817452431, -0.026391109451651573, -0.09562196582555771, 0.11081917583942413, 0.04338792711496353, 0.09837695211172104, 0.2705400586128235, 0.009330014698207378, -0.004698595032095909, -0.024315418675541878, 0.11677183955907822, 0.021260444074869156, -0.042949266731739044 };
double BCBlocks_0_1_f2_0_block_1_ssnorm_running_mean[] = { 0.02664656937122345, -0.00470348447561264, 0.007079091854393482, 0.0005339643685147166, 0.012133690528571606, 0.0024524633772671223, -0.008579406887292862, -0.0011374686146155, 0.0015459742862731218, -0.013528442941606045, -0.04762275516986847, -0.07130301743745804, -0.04437953606247902, -0.013566284440457821, -0.002832067431882024, 0.009407025761902332, 0.01736469566822052, 0.021890802308917046, 0.017236877232789993, 0.032725270837545395, 5.605193857299268e-45, -5.605193857299268e-45, -5.605193857299268e-45, 5.605193857299268e-45, -5.605193857299268e-45, 0.02277642861008644, 0.029145624488592148, 0.021537985652685165, 0.013213918544352055, -0.0002763265511021018, 0.055665113031864166, 0.056199200451374054, 0.026051726192235947, 0.04069899022579193, 0.010254910215735435, -0.04853356257081032, -0.16057729721069336, -0.09495191276073456, -0.046999379992485046, -0.0016302862204611301 };
double BCBlocks_0_1_f2_0_block_1_ssnorm_running_var[] = { 0.001482468331232667, 0.0003355039516463876, 0.0002106091851601377, 6.267435674089938e-05, 0.0002844769333023578, 2.8932334316777997e-05, 8.200894080800936e-05, 2.5880601242533885e-05, 0.00023455590417142957, 0.00014576941612176597, 0.0002709689433686435, 0.00045871397014707327, 0.00037824781611561775, 0.0014146118192002177, 0.00020638690330088139, 0.0005210544331930578, 0.0002148241619579494, 0.000457701098639518, 0.00022631915635429323, 0.0006550975376740098, 5.605193857299268e-45, 5.605193857299268e-45, 5.605193857299268e-45, 5.605193857299268e-45, 5.605193857299268e-45, 0.0056225890293717384, 0.00407274067401886, 0.0026840311475098133, 0.002481605391949415, 0.0011797575280070305, 0.004484076984226704, 0.00606023333966732, 0.00458980817347765, 0.002909192582592368, 0.000305774447042495, 0.0009957823203876615, 0.0012948622461408377, 0.0022615822963416576, 0.0025351180229336023, 6.393061994458549e-06 };

double BCBlocks_0_1_f1_0_block_0_weight[8][8][1][3] = { { { { 0.0925830602645874, 0.0011304686777293682, 0.10920048505067825 } } },{ { { -3.84846454969676e-15, 8.863427298968357e-15, 2.0601584471030034e-14 } } },{ { { -0.1707354485988617, 0.2020672857761383, -0.10223706066608429 } } },{ { { -1.4607738302445551e-16, -1.456527283503055e-16, -9.311301502013005e-17 } } },{ { { 1.8379947563929022e-10, 1.560774426367928e-11, 3.0602081979580475e-10 } } },{ { { 0.03624312952160835, -0.016272393986582756, -0.19789284467697144 } } },{ { { 0.14491359889507294, 0.13007864356040955, -0.19436298310756683 } } },{ { { 8.93132291892142e-16, -2.780977778331931e-16, -1.941220314698953e-16 } } } };
double BCBlocks_0_1_f1_0_block_1_weight[] = { -0.3290267586708069, 1.892376128031798e-14, 0.356729120016098, 2.4081263157470006e-16, -2.852729441560342e-10, -0.32452166080474854, 0.3344675600528717, 5.878460005317272e-16 };
double BCBlocks_0_1_f1_0_block_1_bias[] = { 0.09714650362730026, -5.068081350145803e-07, -0.01250256597995758, 2.0579894055572368e-07, -0.0006467580096796155, -0.025558479130268097, -0.10603164881467819, 6.544712505274219e-07 };
double BCBlocks_0_1_f1_0_block_1_running_mean[] = { -0.00490873446688056, 1.234633900428888e-16, -0.001377609558403492, 7.2997721256488e-18, 3.3405138464420725e-12, -0.015204637311398983, 0.008542284369468689, 6.930074504216188e-18 };
double BCBlocks_0_1_f1_0_block_1_running_var[] = { 5.894547211937606e-05, 1.2825493484985671e-30, 0.00014772532449569553, 6.465269898222949e-34, 5.514696093104349e-26, 4.5946970203658566e-05, 3.142460991512053e-05, 1.8925339662093823e-33 };

double BCBlocks_0_1_f1_1_weight[8][8][1][1] = { { { { -0.11528632044792175 } },{ { 1.9449480248567852e-07 } },{ { 0.002607875969260931 } },{ { -7.897859433114718e-08 } },{ { 0.000248222379013896 } },{ { -0.19423195719718933 } },{ { -0.10462545603513718 } },{ { -2.511646925995592e-07 } } },{ { { -0.06852380931377411 } },{ { -6.4666236809785005e-09 } },{ { 0.028945744037628174 } },{ { 2.625893946728297e-09 } },{ { -8.248105586972088e-06 } },{ { -0.06431223452091217 } },{ { -0.039821114391088486 } },{ { 8.350649061128479e-09 } } },{ { { -0.030148811638355255 } },{ { 2.865906623128467e-08 } },{ { -0.21220162510871887 } },{ { -1.1637529162555893e-08 } },{ { 3.657144043245353e-05 } },{ { 0.2127273976802826 } },{ { 0.14967834949493408 } },{ { -3.700926853866804e-08 } } },{ { { 0.05530135706067085 } },{ { -3.5445310686554876e-08 } },{ { -0.03148462250828743 } },{ { 1.439325725272056e-08 } },{ { -4.524219548329711e-05 } },{ { -0.019088374450802803 } },{ { -0.14813140034675598 } },{ { 4.5772598156190725e-08 } } },{ { { 0.31658831238746643 } },{ { 1.2242425384556554e-07 } },{ { 0.10824354737997055 } },{ { -4.9712333805018716e-08 } },{ { 0.00015624365187250078 } },{ { -0.009733644314110279 } },{ { 0.15566368401050568 } },{ { -1.5809419551260362e-07 } } },{ { { 0.016082793474197388 } },{ { -4.1954143625844154e-07 } },{ { 0.014496919699013233 } },{ { 1.7036173005635646e-07 } },{ { -0.000535439932718873 } },{ { -0.04317641630768776 } },{ { -0.023361608386039734 } },{ { 5.417801389739907e-07 } } },{ { { 0.040382448583841324 } },{ { -2.1294005136951455e-07 } },{ { 0.07269831746816635 } },{ { 8.646712501558795e-08 } },{ { -0.00027183550992049277 } },{ { -0.028961611911654472 } },{ { -0.1281927078962326 } },{ { 2.749803229562531e-07 } } },{ { { 0.16453257203102112 } },{ { -7.640731602975848e-09 } },{ { -0.028937024995684624 } },{ { 3.1026858859917184e-09 } },{ { -9.764989954419434e-06 } },{ { -0.2054222822189331 } },{ { 0.08877722918987274 } },{ { 9.867052952472477e-09 } } } };
double BCBlocks_1_0_f2_0_block_0_weight[12][8][1][1] = { { { { -9.838594731802078e-16 } },{ { 3.9452391227117476e-16 } },{ { 6.254606161369225e-16 } },{ { 2.280734678062322e-16 } },{ { -1.1667885465872888e-16 } },{ { -7.01784796250317e-16 } },{ { 2.415220640196729e-15 } },{ { 7.117437331881002e-16 } } },{ { { -0.06525861471891403 } },{ { 0.1083756759762764 } },{ { -0.08555774390697479 } },{ { -0.0059989821165800095 } },{ { -0.1488325148820877 } },{ { -0.29496273398399353 } },{ { 0.34894970059394836 } },{ { -0.01844780147075653 } } },{ { { -0.34182319045066833 } },{ { 0.05322951450943947 } },{ { -0.11692919582128525 } },{ { 0.1872868686914444 } },{ { -0.1619974672794342 } },{ { 0.2487678974866867 } },{ { 0.06150073558092117 } },{ { -0.21501266956329346 } } },{ { { 0.20922964811325073 } },{ { -0.07798315584659576 } },{ { 0.30546268820762634 } },{ { -0.3029129207134247 } },{ { -0.07296974211931229 } },{ { 0.14525337517261505 } },{ { -0.16333536803722382 } },{ { 0.05718070641160011 } } },{ { { -0.033249933272600174 } },{ { 0.048715732991695404 } },{ { -0.2136070877313614 } },{ { -0.1576903611421585 } },{ { -0.05382954329252243 } },{ { 0.3607240915298462 } },{ { -0.22632628679275513 } },{ { 0.16371981799602509 } } },{ { { -0.18252483010292053 } },{ { -0.026446877047419548 } },{ { 0.021992061287164688 } },{ { -0.1460849791765213 } },{ { -0.06062931567430496 } },{ { -0.1773131787776947 } },{ { 0.16277122497558594 } },{ { -0.16344909369945526 } } },{ { { 0.05069384723901749 } },{ { -0.12407026439905167 } },{ { -0.2212427705526352 } },{ { -0.07168002426624298 } },{ { 0.07771918177604675 } },{ { 0.09775705635547638 } },{ { 0.08465379476547241 } },{ { 0.3655986189842224 } } },{ { { 6.108217956957797e-17 } },{ { -1.4365702608234575e-16 } },{ { -7.236415550119281e-17 } },{ { -9.567280814373665e-17 } },{ { -5.409821424845395e-17 } },{ { 9.706745450883576e-17 } },{ { -1.6696964919182984e-16 } },{ { -1.0490408753154679e-17 } } },{ { { -0.03337186574935913 } },{ { 0.11296145617961884 } },{ { 0.015437951311469078 } },{ { -0.014282366260886192 } },{ { 0.08888058364391327 } },{ { -0.10707752406597137 } },{ { -0.3370159864425659 } },{ { 0.18010954558849335 } } },{ { { 0.08366916328668594 } },{ { -0.09753339737653732 } },{ { -0.2069597691297531 } },{ { -0.10328471660614014 } },{ { 0.23077264428138733 } },{ { 0.10973149538040161 } },{ { 0.1876254379749298 } },{ { 0.1743222177028656 } } },{ { { 6.696387709363832e-17 } },{ { -1.3720164240753292e-16 } },{ { -1.7875145397166353e-16 } },{ { 3.5786001173993356e-16 } },{ { -8.796244457240409e-16 } },{ { 2.2991031169191235e-16 } },{ { -4.848573423527755e-17 } },{ { -1.4135321557982226e-16 } } },{ { { 0.2246733009815216 } },{ { 0.36315709352493286 } },{ { 0.0042989314533770084 } },{ { 0.13362546265125275 } },{ { -0.021442750468850136 } },{ { 0.12808436155319214 } },{ { 0.09673183411359787 } },{ { 0.09161920845508575 } } } };
double BCBlocks_1_0_f2_0_block_1_weight[] = { -3.147960096685777e-16, 0.253365159034729, 0.1997501701116562, 0.05659133195877075, 0.2445450872182846, -0.162408247590065, 0.08474129438400269, 1.4189284174167226e-17, -0.18942013382911682, 0.24016179144382477, 3.5391660353187686e-17, 0.07323958724737167 };
double BCBlocks_1_0_f2_0_block_1_bias[] = { -2.5536021068555586e-15, -0.12052848935127258, 0.0919174924492836, 0.1402076631784439, -0.2858220338821411, 0.036737412214279175, 0.15828149020671844, -2.2366556128828e-16, 0.06141619011759758, -0.14502514898777008, -9.001999348040319e-16, 0.1249949261546135 };
double BCBlocks_1_0_f2_0_block_1_running_mean[] = { 6.749879031123023e-16, -0.0011834234464913607, 0.0057302676141262054, 0.027192506939172745, 0.011686715297400951, -0.06688831746578217, 0.07601889222860336, -5.303044650037865e-17, -0.07212649285793304, 0.08075781166553497, -1.782039365067698e-17, 0.14209602773189545 };
double BCBlocks_1_0_f2_0_block_1_running_var[] = { 6.002637452191514e-31, 0.01981407217681408, 0.01264851912856102, 0.015984605997800827, 0.01792718470096588, 0.008710529655218124, 0.011446241289377213, 3.351721205304159e-33, 0.010817562229931355, 0.010226208716630936, 1.302832568174195e-32, 0.008169728331267834 };

double BCBlocks_1_0_f2_1_block_0_weight[12][12][3][1] = { { { { -1.86870198596647e-16 },{ 1.4445912922570413e-15 },{ 1.3234750040412146e-15 } } },{ { { 0.21465682983398438 },{ 0.2830164432525635 },{ 0.11582274734973907 } } },{ { { 0.09421925991773605 },{ 0.2165643870830536 },{ 0.16855627298355103 } } },{ { { 0.06384757161140442 },{ 0.19908668100833893 },{ 0.1870177686214447 } } },{ { { 0.19119639694690704 },{ 0.27292221784591675 },{ 0.18423202633857727 } } },{ { { -0.1461338996887207 },{ -0.21251580119132996 },{ -0.03893924877047539 } } },{ { { 0.24164673686027527 },{ 0.3064247667789459 },{ 0.07871317118406296 } } },{ { { -6.079500231323426e-17 },{ -1.1227616268735823e-16 },{ -2.798719280458866e-17 } } },{ { { -0.14885257184505463 },{ -0.2708391845226288 },{ -0.10935056954622269 } } },{ { { -0.13691803812980652 },{ -0.1616058051586151 },{ -0.08949171751737595 } } },{ { { -8.993386214106825e-17 },{ -4.3368992165882555e-16 },{ -3.8173559412198654e-16 } } },{ { { -0.2518368661403656 },{ 0.15178783237934113 },{ 0.2648460268974304 } } } };
double BCBlocks_1_0_f2_1_block_1_ssnorm_weight[] = { -1.2054435039401696e-15, 1.0354885665350808e-15, -9.194311825967303e-16, -1.6172250507671607e-16, -8.215264029323092e-16, -0.038552142679691315, 0.14628483355045319, 0.22030991315841675, 0.10180550813674927, 0.0369170717895031, 0.20629747211933136, 0.21927624940872192, 0.1609422117471695, 0.3758157789707184, 0.10605645924806595, 0.1192534938454628, 0.2898683249950409, 0.29835981130599976, -0.08606220036745071, 0.08712785691022873, 0.1373409926891327, 0.15503127872943878, 0.1521996557712555, 0.0337849035859108, -0.0017773208674043417, 0.25954312086105347, 0.061759740114212036, 0.027089694514870644, -0.11754805594682693, -0.10307569801807404, 0.17693594098091125, 0.23947888612747192, 0.14349839091300964, 0.01783493347465992, -0.06748636066913605, 6.620805900689147e-17, 8.910608595847418e-17, 1.07012435255324e-16, 6.726751855289429e-18, 4.532580503365148e-17, 0.25769585371017456, -0.12551894783973694, -0.18473811447620392, -0.20823895931243896, -0.10974980890750885, 0.15067392587661743, 0.17715612053871155, 0.15797686576843262, 0.18208463490009308, 0.017535390332341194, -3.6078018429537236e-16, -2.1109463943896054e-16, 5.707708221667053e-16, 3.5424074583543434e-16, 2.8145729579046085e-16, 0.13118235766887665, 0.32352447509765625, -0.18491928279399872, -0.04109758138656616, -0.21047553420066833 };
double BCBlocks_1_0_f2_1_block_1_ssnorm_bias[] = { 0.17415180802345276, 0.1385650783777237, 0.006258217617869377, 0.10097641497850418, 0.07867296040058136, -0.012771667912602425, 0.0712282806634903, 0.1402941197156906, 0.08790136128664017, -0.11658225208520889, 0.21105076372623444, -0.011684236116707325, 0.03771241009235382, -0.025280041620135307, 0.057894788682460785, 0.03935617953538895, 0.11743016541004181, 0.10938118398189545, -0.06052505597472191, -0.024089563637971878, 0.15148736536502838, 0.06243859976530075, -0.023828621953725815, 0.16914185881614685, 0.009549389593303204, 0.2287122756242752, 0.13106563687324524, 0.008960413746535778, 0.0057574789971113205, 0.07003333419561386, -0.13382495939731598, 0.31215178966522217, 0.2983521819114685, -0.0942072868347168, -0.050503864884376526, 0.1522901952266693, 0.25970739126205444, -0.02482074312865734, 0.05310199782252312, 0.043641526252031326, -0.11598577350378036, 0.09610208123922348, 0.1716931313276291, 0.15994395315647125, 0.05884889140725136, 0.08830161392688751, 0.12184150516986847, 0.1592240333557129, 0.23051369190216064, -0.02559174783527851, -0.07029621303081512, 0.12941764295101166, 0.11124329268932343, -0.04014316201210022, -0.08586688339710236, 0.23341704905033112, 0.1805884689092636, 0.07562106102705002, 0.031853821128606796, -0.07297194004058838 };
double BCBlocks_1_0_f2_1_block_1_ssnorm_running_mean[] = { 5.605193857299268e-45, 5.605193857299268e-45, 5.605193857299268e-45, -5.605193857299268e-45, 5.605193857299268e-45, 0.01590350829064846, 0.027071600779891014, 0.01930827461183071, 0.0523507222533226, 0.016012806445360184, 0.07021776586771011, 0.0567866787314415, 0.03362295776605606, 0.0677647590637207, 0.07292282581329346, 0.07627900689840317, 0.0686945766210556, 0.07181693613529205, 0.04968847706913948, 0.044219207018613815, 0.03139934316277504, 0.017676930874586105, 0.012979843653738499, 0.006851731799542904, 0.001707857707515359, -0.05185507982969284, -0.037747934460639954, -0.035000696778297424, -0.010523826815187931, -0.021247148513793945, 0.08503953367471695, 0.1142026036977768, 0.11525439471006393, 0.10714414715766907, 0.0673331469297409, -5.605193857299268e-45, -5.605193857299268e-45, -5.605193857299268e-45, -5.605193857299268e-45, -5.605193857299268e-45, -0.07480140030384064, -0.054874666035175323, -0.028675882145762444, -0.08122719079256058, -0.02675662189722061, -0.03334401175379753, -0.022509027272462845, -0.013681340962648392, -0.013492986559867859, -0.0026541531551629305, -5.605193857299268e-45, -5.605193857299268e-45, -5.605193857299268e-45, -5.605193857299268e-45, -5.605193857299268e-45, 0.05734512209892273, 0.0023214626125991344, 0.019664235413074493, 0.014835037291049957, 0.01916366070508957 };
double BCBlocks_1_0_f2_1_block_1_ssnorm_running_var[] = { 5.605193857299268e-45, 5.605193857299268e-45, 5.605193857299268e-45, 5.605193857299268e-45, 5.605193857299268e-45, 0.001074720174074173, 0.0022445633076131344, 0.0019669539760798216, 0.001548424712382257, 0.0004772018291987479, 0.004638143815100193, 0.00408946443349123, 0.00182228849735111, 0.0022036905866116285, 0.003055462148040533, 0.0003401782887522131, 0.00035546193248592317, 0.00018905835167970508, 0.00016784101899247617, 0.00023727270308881998, 0.0040313140489161015, 0.0018826016457751393, 0.001241503981873393, 0.0006992911803536117, 0.00014401163207367063, 0.002384589519351721, 0.0012986905639991164, 0.0011183790629729629, 0.0003446071350481361, 0.0008795728208497167, 0.0024233825970441103, 0.001884755794890225, 0.0011455194326117635, 0.0010578661458566785, 0.0003751050971914083, 5.605193857299268e-45, 5.605193857299268e-45, 5.605193857299268e-45, 5.605193857299268e-45, 5.605193857299268e-45, 0.005347816273570061, 0.005806103348731995, 0.0033939084969460964, 0.002627308713272214, 0.00048070985940285027, 0.0025966286193579435, 0.001892673084512353, 0.0010080283973366022, 0.0007759638247080147, 9.376827074447647e-05, 5.605193857299268e-45, 5.605193857299268e-45, 5.605193857299268e-45, 5.605193857299268e-45, 5.605193857299268e-45, 0.0011362027144059539, 0.0012301147216930985, 0.0005258545861579478, 0.00043929944513365626, 0.000454403692856431 };

double BCBlocks_1_0_f1_0_block_0_weight[12][12][1][3] = { { { { -0.2098345160484314, 2.96512070008248e-07, 0.0171921718865633 } } },{ { { 0.19633427262306213, -0.1554526835680008, 0.07286521792411804 } } },{ { { -0.04015931114554405, -0.07840129733085632, -0.1484944075345993 } } },{ { { -0.08371865004301071, 0.12042795121669769, -0.08801186829805374 } } },{ { { 0.1750333458185196, -0.17351378500461578, 0.12452676147222519 } } },{ { { 0.08058913797140121, 0.07782135903835297, -0.21022860705852509 } } },{ { { -0.13473178446292877, 0.03348816558718681, -0.05165306478738785 } } },{ { { 0.029150718823075294, 7.64411396403375e-08, -0.21466141939163208 } } },{ { { -0.27071115374565125, -0.017886202782392502, 0.09094644337892532 } } },{ { { -0.029666556045413017, -0.12103206664323807, -0.025874502956867218 } } },{ { { 7.03042746056108e-16, -4.461646523290725e-16, 9.20524278615162e-16 } } },{ { { -0.056296296417713165, 0.1401590257883072, 0.016825102269649506 } } } };
double BCBlocks_1_0_f1_0_block_1_weight[] = { 0.28414055705070496, 0.18676628172397614, 0.391490638256073, 0.1728246510028839, -0.28253352642059326, -0.24819166958332062, 0.1996103823184967, 0.29781219363212585, 0.3296010494232178, 0.20715615153312683, 1.0298152457334899e-15, 0.1486556977033615 };
double BCBlocks_1_0_f1_0_block_1_bias[] = { 0.04497836157679558, 0.04690714552998543, -0.15759488940238953, -0.04664316773414612, 0.058374520391225815, 0.012332729995250702, 0.05494947358965874, 0.0654921755194664, -0.09527730196714401, -0.057077400386333466, -3.5730263903133164e-07, 0.01968989707529545 };
double BCBlocks_1_0_f1_0_block_1_running_mean[] = { -0.01883077062666416, 0.003919208887964487, -0.014465623535215855, -0.0015422821743413806, 0.008906899020075798, -0.004928845912218094, -0.0100546358153224, -0.017598945647478104, -0.013669617474079132, -0.020155301317572594, 1.0159455444433437e-17, 0.00913841649889946 };
double BCBlocks_1_0_f1_0_block_1_running_var[] = { 8.585626346757635e-06, 6.910358933964744e-05, 0.0012515867128968239, 7.446340896422043e-05, 6.899300933582708e-05, 7.629761967109516e-05, 7.953726162668318e-05, 8.579559107602108e-06, 0.0003756425285246223, 0.00024411064805462956, 2.0095766128457817e-36, 1.982103640330024e-05 };

double BCBlocks_1_0_f1_1_weight[12][12][1][1] = { { { { -0.0013085430255159736 } },{ { -0.029689157381653786 } },{ { 0.03021307662129402 } },{ { 0.011869077570736408 } },{ { -0.05408753827214241 } },{ { 0.01788465678691864 } },{ { -0.1212986558675766 } },{ { -0.01804877445101738 } },{ { -0.17849230766296387 } },{ { -0.13431847095489502 } },{ { 3.53272930908588e-08 } },{ { 0.008441940881311893 } } },{ { { -0.009789109230041504 } },{ { 0.1629054993391037 } },{ { 0.09755270928144455 } },{ { 0.009106389246881008 } },{ { 0.030976807698607445 } },{ { -0.07028656452894211 } },{ { -0.022576265037059784 } },{ { -0.00955068040639162 } },{ { -0.0010563824325799942 } },{ { -0.10850046575069427 } },{ { -2.402215102392802e-07 } },{ { -0.05608415976166725 } } },{ { { 0.12509864568710327 } },{ { -0.1192093938589096 } },{ { -0.13594460487365723 } },{ { 0.05063087120652199 } },{ { 0.02803785726428032 } },{ { -0.017503445968031883 } },{ { -0.15005607903003693 } },{ { -0.22754237055778503 } },{ { 0.002224633237347007 } },{ { -0.12665022909641266 } },{ { 8.230840364831238e-08 } },{ { 0.050835225731134415 } } },{ { { -0.19270451366901398 } },{ { 0.05269067734479904 } },{ { -0.053435735404491425 } },{ { -0.06840579211711884 } },{ { 0.03105277381837368 } },{ { -0.09599006921052933 } },{ { 0.03969288244843483 } },{ { -0.08982541412115097 } },{ { -0.0067498404532670975 } },{ { -0.17920440435409546 } },{ { 1.8498003129252538e-08 } },{ { -0.035642944276332855 } } },{ { { 0.028477724641561508 } },{ { -0.01152186281979084 } },{ { -0.0348806157708168 } },{ { 0.05565284565091133 } },{ { -0.2616208791732788 } },{ { -0.03931308165192604 } },{ { -0.0782473012804985 } },{ { -0.05909738317131996 } },{ { -0.11209031194448471 } },{ { -0.13610905408859253 } },{ { 1.3095490203340887e-07 } },{ { -0.0272831954061985 } } },{ { { -0.0259026400744915 } },{ { 0.016583867371082306 } },{ { 0.03968922048807144 } },{ { 0.10623408108949661 } },{ { -0.07042814791202545 } },{ { -0.024720417335629463 } },{ { -0.01957676373422146 } },{ { -0.042383648455142975 } },{ { -0.050824590027332306 } },{ { 0.049831461161375046 } },{ { 1.9809590412478428e-07 } },{ { -0.1081060916185379 } } },{ { { 0.1385132074356079 } },{ { -0.07869759947061539 } },{ { -0.027999598532915115 } },{ { -0.01222034078091383 } },{ { 0.04460102692246437 } },{ { 0.0769600123167038 } },{ { 0.06071344017982483 } },{ { -0.0066749961115419865 } },{ { 0.07969006896018982 } },{ { -0.043460115790367126 } },{ { -5.655082802036304e-08 } },{ { -0.08953336626291275 } } },{ { { -0.020593944936990738 } },{ { -0.13195520639419556 } },{ { -0.17077842354774475 } },{ { -0.011861098930239677 } },{ { 0.1395791620016098 } },{ { -0.14767920970916748 } },{ { -0.13037827610969543 } },{ { -0.06520169228315353 } },{ { 0.027286222204566002 } },{ { -0.021791895851492882 } },{ { -2.999507975331994e-09 } },{ { -0.03342101722955704 } } },{ { { -0.059617314487695694 } },{ { 0.1720609813928604 } },{ { 0.052163660526275635 } },{ { 0.06912842392921448 } },{ { 0.13847489655017853 } },{ { -0.0672975480556488 } },{ { 0.06077292189002037 } },{ { 0.04097681865096092 } },{ { -0.011611003428697586 } },{ { 0.017900360748171806 } },{ { 2.448890654704883e-07 } },{ { -0.08246932178735733 } } },{ { { 0.013438942842185497 } },{ { -0.11606425791978836 } },{ { -0.05037662014365196 } },{ { -0.08029106259346008 } },{ { 0.02162262238562107 } },{ { 0.0250607430934906 } },{ { -0.1425340324640274 } },{ { 0.05348581448197365 } },{ { 0.04034268110990524 } },{ { 0.0017228603828698397 } },{ { -1.1223315254937916e-07 } },{ { 0.03022557683289051 } } },{ { { -0.002233734354376793 } },{ { 0.07463225722312927 } },{ { -0.10311603546142578 } },{ { 0.08087851852178574 } },{ { -0.011487350799143314 } },{ { -0.11022504419088364 } },{ { -0.03951631113886833 } },{ { -0.11283579468727112 } },{ { 0.16038194298744202 } },{ { -0.040686119347810745 } },{ { 9.953550517138865e-08 } },{ { 0.07347371429204941 } } },{ { { 0.02194192260503769 } },{ { 0.043703895062208176 } },{ { -0.0004382214683573693 } },{ { 0.004200051072984934 } },{ { -0.12612232565879822 } },{ { -0.0035002222284674644 } },{ { 0.05020485818386078 } },{ { 0.03994297981262207 } },{ { -0.022253990173339844 } },{ { 0.012498628348112106 } },{ { -5.224942256631948e-08 } },{ { -0.06221739947795868 } } } };
double BCBlocks_1_1_f2_0_block_0_weight[12][12][3][1] = { { { { 0.09461735188961029 },{ 0.05807982757687569 },{ 0.04752160608768463 } } },{ { { 0.3447587788105011 },{ 0.009434256702661514 },{ 0.012804836966097355 } } },{ { { 0.09996965527534485 },{ -0.050314728170633316 },{ 0.23955339193344116 } } },{ { { -0.0070250690914690495 },{ 0.10484495759010315 },{ 0.17348572611808777 } } },{ { { 0.1473568230867386 },{ 0.15835943818092346 },{ -0.01345057599246502 } } },{ { { 0.21502940356731415 },{ 0.185965895652771 },{ -0.0530744306743145 } } },{ { { 0.0483921617269516 },{ 0.10385178029537201 },{ -0.2811066210269928 } } },{ { { 0.0065770577639341354 },{ 0.15786483883857727 },{ -0.08262856304645538 } } },{ { { 0.24446287751197815 },{ 0.06793837249279022 },{ -0.12935687601566315 } } },{ { { 0.17074665427207947 },{ 0.0632018893957138 },{ 0.09927114844322205 } } },{ { { -0.17254158854484558 },{ 0.09648159891366959 },{ -0.06958802789449692 } } },{ { { 0.10658272355794907 },{ -0.009582900442183018 },{ -0.20303064584732056 } } } };
double BCBlocks_1_1_f2_0_block_1_ssnorm_weight[] = { 0.08668499439954758, 0.09730435162782669, -0.08829045295715332, 0.07234901934862137, -0.15248455107212067, -0.08969740569591522, 0.168034166097641, 0.11275868862867355, 0.2876363694667816, 0.08996448665857315, 0.04199962690472603, 0.1137465089559555, 0.06403635442256927, -0.12433751672506332, 0.2947081923484802, 0.07427236437797546, 0.07201885432004929, -0.002874858910217881, 0.11249534785747528, 0.14974264800548553, 0.024086004123091698, 0.07649090141057968, 0.18452636897563934, -0.13794411718845367, 0.04130764305591583, -0.3255248963832855, 0.1998823583126068, 0.13561652600765228, -0.042634934186935425, 0.0492171011865139, 0.06864900141954422, 0.01856190524995327, 0.20413100719451904, 0.09006774425506592, -0.07108218222856522, 0.016164574772119522, 0.16188094019889832, 0.02110307104885578, -0.01737145520746708, 0.04152067005634308, -0.014069933444261551, 0.15008313953876495, 0.11757218092679977, 0.024622447788715363, -0.1318887621164322, 0.16103018820285797, 0.111406110227108, 0.1634889543056488, 0.06674499064683914, -0.11345468461513519, -0.2659297585487366, -0.18409471213817596, 0.019599659368395805, 0.03240187466144562, -0.005061884876340628, 0.07310152798891068, 0.010247775353491306, -0.08766172081232071, 0.06891775876283646, 0.006515165325254202 };
double BCBlocks_1_1_f2_0_block_1_ssnorm_bias[] = { 0.1021251529455185, -0.020217454060912132, -0.0439065583050251, -0.03609761595726013, -0.08913976699113846, -0.05904151499271393, 0.04392079636454582, -0.02832208387553692, -0.037589624524116516, -0.05676938593387604, -0.045043736696243286, -0.0075582535937428474, 0.025698846206068993, 0.11104574799537659, 0.13313989341259003, 0.0204322412610054, -0.03642593324184418, 0.006977740675210953, -0.11002699285745621, 0.04672039672732353, 0.03865399956703186, 0.026666492223739624, 0.03738877549767494, 0.12869004905223846, -0.04728790745139122, 0.2967347204685211, -0.05240558460354805, -0.08273390680551529, 0.008074134588241577, -0.036738261580467224, 0.1861671507358551, 0.007188532967120409, 0.15640616416931152, 0.011536182835698128, -0.05774155259132385, 0.09772178530693054, 0.17555348575115204, -0.09920921921730042, -0.060227759182453156, -0.03952953591942787, -0.12156285345554352, -0.061998218297958374, 0.14034737646579742, 0.08762182295322418, -0.08394389599561691, -0.029873063787817955, -0.005316112190485001, 0.11447613686323166, 0.09826299548149109, -0.019009148702025414, 0.1652562916278839, 0.026666145771741867, 0.026144294068217278, -0.019120313227176666, 0.12324712425470352, 0.12694227695465088, 0.05028366297483444, 0.05164054408669472, -0.057441577315330505, 0.10209424048662186 };
double BCBlocks_1_1_f2_0_block_1_ssnorm_running_mean[] = { 0.02525472827255726, 0.025792550295591354, 0.010152406059205532, 0.014948492869734764, 0.014404205605387688, 0.0023758383467793465, 0.017873795703053474, 0.04242989420890808, 0.03608909621834755, 0.020001456141471863, 0.037118155509233475, 0.028336849063634872, 0.022272257134318352, 0.02575272135436535, 0.014993018470704556, 0.027333088219165802, 0.046284228563308716, 0.028507636860013008, 0.0028866492211818695, 0.0033217815216630697, 0.03206691890954971, 0.024867523461580276, 0.010769275017082691, 0.03750712424516678, 0.01443248800933361, 0.06268072873353958, 0.06034976989030838, 0.015720894560217857, 0.011744528077542782, 0.020608583465218544, -0.05125231668353081, -0.0469805970788002, 0.006965454667806625, 0.006366651505231857, -0.0011238276492804289, 0.00733588682487607, 0.03119106963276863, -0.000922990555409342, 0.004500191193073988, 0.005444257520139217, 0.00031730803311802447, 0.006221150979399681, 0.027809318155050278, 0.02741142176091671, 0.04580136016011238, 0.031390853226184845, 0.0481882207095623, 0.0628737360239029, 0.06653507053852081, 0.02122264727950096, -0.004327270667999983, -0.006793151143938303, -0.013360420241951942, -0.009204648435115814, -0.0001847478561103344, -0.022744283080101013, -0.034163523465394974, 0.008815414272248745, -0.004586390685290098, 0.005532737821340561 };
double BCBlocks_1_1_f2_0_block_1_ssnorm_running_var[] = { 7.040003401925787e-05, 4.5769080315949395e-05, 2.6010644432972185e-05, 3.274452319601551e-05, 2.7687010515364818e-05, 1.929217978613451e-05, 0.0015832098433747888, 0.004658194724470377, 0.0026272046379745007, 0.0009363573626615107, 0.00224656262435019, 0.0017922555562108755, 0.002936649601906538, 0.00284978817217052, 0.0009331441833637655, 0.0014132665237411857, 0.0030679511837661266, 0.001873327768407762, 4.625777728506364e-05, 6.334558565868065e-05, 0.0009340341202914715, 0.001454787328839302, 0.0009657482150942087, 0.00043468119110912085, 0.00017500249668955803, 0.002929356414824724, 0.0010620377724990249, 0.000289026036625728, 0.0006794662331230938, 0.0010434613795951009, 0.003723525209352374, 0.0025890707038342953, 0.002593883080407977, 8.147921471390873e-05, 4.256969259586185e-05, 2.267452873638831e-05, 0.0001345643977401778, 1.0377691069152206e-05, 6.096902325225528e-06, 1.6643629351165146e-05, 0.0004370067617855966, 0.0006342087872326374, 0.0018125515198335052, 0.0021774093620479107, 0.0018497725250199437, 0.0004505825345404446, 0.0005397321656346321, 0.000498562294524163, 0.0005751740536652505, 0.000610502262134105, 2.2574142349185422e-05, 0.00011360575444996357, 4.487939804675989e-05, 9.882501035463065e-05, 1.5980941725501907e-06, 0.0017775454325601459, 0.0015170515980571508, 0.000630730704870075, 0.0004548692668322474, 0.0001262323057744652 };

double BCBlocks_1_1_f1_0_block_0_weight[12][12][1][3] = { { { { -1.2040006891936403e-16, -8.585938881931375e-17, -1.8416161222445436e-16 } } },{ { { -0.07802993059158325, -0.10592837631702423, -0.046883050352334976 } } },{ { { -0.25169530510902405, 0.12504003942012787, 0.07595858722925186 } } },{ { { 0.1485990285873413, -0.06875327974557877, -0.09813057631254196 } } },{ { { -0.08924059569835663, 0.0077211493626236916, 0.10376965999603271 } } },{ { { -0.17059053480625153, -0.07395154982805252, 0.058321449905633926 } } },{ { { 0.0290907621383667, 0.10576634854078293, 0.17403247952461243 } } },{ { { -2.5950011068504085e-16, 6.019151648460619e-16, -9.688727074862007e-16 } } },{ { { -0.114839106798172, 0.015172104351222515, 0.13991545140743256 } } },{ { { 0.16357509791851044, 0.014858207665383816, -0.026142453774809837 } } },{ { { -3.1012951987369653e-16, -3.8140331897864644e-16, -1.3670160180107726e-16 } } },{ { { 0.039052024483680725, 0.13097010552883148, 0.08334119617938995 } } } };
double BCBlocks_1_1_f1_0_block_1_weight[] = { 2.299017884228806e-16, 0.3942413032054901, 0.3802759647369385, 0.28001391887664795, 0.15650297701358795, 0.2976033687591553, 0.3163113296031952, -1.0338997444842685e-15, 0.22478054463863373, 0.2820888161659241, 4.526069202280927e-16, 0.25738072395324707 };
double BCBlocks_1_1_f1_0_block_1_bias[] = { -5.099044450562751e-12, 0.06585972011089325, 0.004080384969711304, 0.04936753958463669, 0.023799963295459747, 0.036810945719480515, -0.019673490896821022, -4.4782403479937116e-11, 0.015169646590948105, 0.07912010699510574, -3.909808674734672e-12, 0.011797028593719006 };
double BCBlocks_1_1_f1_0_block_1_running_mean[] = { 6.7090183437272106e-18, 0.006176441442221403, -0.0019295299425721169, 0.0003589690022636205, 0.0008589908247813582, -0.004832088947296143, 0.01864510402083397, -9.456672869841034e-18, -0.00027810028404928744, 0.004726356826722622, -5.3066743185657475e-17, 0.013723037205636501 };
double BCBlocks_1_1_f1_0_block_1_running_var[] = { 1.2207392962722038e-36, 0.00013167582801543176, 0.00012542826880235225, 4.538646317087114e-05, 1.700504253676627e-05, 7.670008926652372e-05, 1.0997895515174605e-05, 2.7031534930039894e-34, 1.8720778825809248e-05, 0.0001301534939557314, 1.0238382456163126e-34, 1.6587999198236503e-05 };

double BCBlocks_1_1_f1_1_weight[12][12][1][1] = { { { { -6.703702670014453e-14 } },{ { -0.13519541919231415 } },{ { -0.11561893671751022 } },{ { -0.08339409530162811 } },{ { -0.016304505988955498 } },{ { 0.01360932644456625 } },{ { -0.1332070529460907 } },{ { -5.889046845661272e-13 } },{ { 0.03346504271030426 } },{ { -0.09107424318790436 } },{ { -5.157531777415063e-14 } },{ { 0.015067251399159431 } } },{ { { 3.5677251083998662e-12 } },{ { -0.026580724865198135 } },{ { 0.05323620140552521 } },{ { -0.0684315487742424 } },{ { 0.007168976124376059 } },{ { -0.04241795092821121 } },{ { -0.014027438126504421 } },{ { 3.133360584883782e-11 } },{ { -0.03029525838792324 } },{ { -0.03061395324766636 } },{ { 2.735613168283746e-12 } },{ { -0.042059000581502914 } } },{ { { -7.443558031235142e-13 } },{ { -0.11449878662824631 } },{ { -0.03333885222673416 } },{ { -0.07492416352033615 } },{ { 0.08395343273878098 } },{ { 0.0664643868803978 } },{ { -0.02256437949836254 } },{ { -6.537204805256991e-12 } },{ { 0.014348792843520641 } },{ { 0.1783398538827896 } },{ { -5.706971895926005e-13 } },{ { 0.03848710656166077 } } },{ { { 3.187730569960412e-13 } },{ { -0.1220669075846672 } },{ { 0.013858238235116005 } },{ { 0.09819872677326202 } },{ { -0.0678817629814148 } },{ { -0.029450252652168274 } },{ { 0.026580238714814186 } },{ { 2.799969023997706e-12 } },{ { -0.11937953531742096 } },{ { 0.07423289120197296 } },{ { 2.444830091413025e-13 } },{ { 0.07218702137470245 } } },{ { { -1.6068588517062499e-12 } },{ { -0.10567007213830948 } },{ { 0.02897571213543415 } },{ { -0.10269663482904434 } },{ { -0.013237353414297104 } },{ { -0.10129601508378983 } },{ { -0.04515234753489494 } },{ { -1.411192170064357e-11 } },{ { -0.019749989733099937 } },{ { 0.056680306792259216 } },{ { -1.2320080936337185e-12 } },{ { -0.0011110793566331267 } } },{ { { -1.9596243031050342e-12 } },{ { 0.07319784164428711 } },{ { -0.14017446339130402 } },{ { -0.02328380197286606 } },{ { 0.050003547221422195 } },{ { -0.12474500387907028 } },{ { -0.13910570740699768 } },{ { -1.7210155175972908e-11 } },{ { -0.020587347447872162 } },{ { 0.017176451161503792 } },{ { -1.502540604957081e-12 } },{ { -0.21248075366020203 } } },{ { { -3.498644516458649e-12 } },{ { 0.07582005858421326 } },{ { -0.004263860639184713 } },{ { 0.03922427445650101 } },{ { -0.040897611528635025 } },{ { -0.2143114060163498 } },{ { -0.17354753613471985 } },{ { -3.072723672725708e-11 } },{ { -0.14299477636814117 } },{ { -0.039155226200819016 } },{ { -2.682850903240608e-12 } },{ { -0.11948781460523605 } } },{ { { 1.2845247868847887e-13 } },{ { -0.09438607841730118 } },{ { 0.2920853793621063 } },{ { -0.14196337759494781 } },{ { 0.08069095760583878 } },{ { -0.06045213341712952 } },{ { 0.0724116638302803 } },{ { 1.128338199783696e-12 } },{ { 0.07455894351005554 } },{ { 0.05098668113350868 } },{ { 9.855584095141631e-14 } },{ { 0.037715792655944824 } } },{ { { 1.27107214185386e-13 } },{ { 0.09592390060424805 } },{ { -0.03337227180600166 } },{ { -0.009016746655106544 } },{ { 0.028538940474390984 } },{ { -0.10184124857187271 } },{ { -0.034151338040828705 } },{ { 1.116156104173649e-12 } },{ { -0.0992087572813034 } },{ { 0.013046188279986382 } },{ { 9.741650709845992e-14 } },{ { 0.05911606177687645 } } },{ { { 2.2279118654100483e-12 } },{ { -0.16536101698875427 } },{ { 0.17589527368545532 } },{ { 0.02699604257941246 } },{ { -0.0007422170019708574 } },{ { 0.20826564729213715 } },{ { 0.09690672904253006 } },{ { 1.9566900183454194e-11 } },{ { 0.03045947663486004 } },{ { 0.14760014414787292 } },{ { 1.7083751947810644e-12 } },{ { 0.0339263416826725 } } },{ { { 8.850088088589725e-13 } },{ { -0.07264986634254456 } },{ { 0.09972752630710602 } },{ { 0.15057478845119476 } },{ { -0.021986177191138268 } },{ { -0.009366258047521114 } },{ { 0.04372673109173775 } },{ { 7.772587261312136e-12 } },{ { 0.08288796991109848 } },{ { 0.17807239294052124 } },{ { 6.784977310894669e-13 } },{ { 0.008597834035754204 } } },{ { { -2.0126645575851976e-12 } },{ { 0.0755070373415947 } },{ { 0.060382891446352005 } },{ { 0.050044141709804535 } },{ { -0.11991310864686966 } },{ { -0.12195666134357452 } },{ { -0.1639886200428009 } },{ { -1.7676429764357238e-11 } },{ { -0.08946692943572998 } },{ { 0.04322905093431473 } },{ { -1.5432849225990863e-12 } },{ { -0.16006816923618317 } } } };
double BCBlocks_2_0_f2_0_block_0_weight[16][12][1][1] = { { { { 0.07808729261159897 } },{ { 0.020097283646464348 } },{ { -0.0560997799038887 } },{ { -0.05581626296043396 } },{ { -0.03577568382024765 } },{ { 0.01759437285363674 } },{ { -0.24239392578601837 } },{ { -0.014842774718999863 } },{ { -0.22255361080169678 } },{ { 0.19956403970718384 } },{ { -0.025422686710953712 } },{ { 0.07412984222173691 } } },{ { { -0.03145362064242363 } },{ { -0.11908499151468277 } },{ { -0.19726061820983887 } },{ { 0.012400573119521141 } },{ { -0.09718887507915497 } },{ { 0.04039011150598526 } },{ { -0.1507786214351654 } },{ { -0.14651010930538177 } },{ { -0.11198225617408752 } },{ { 0.04791288450360298 } },{ { -0.16081325709819794 } },{ { 0.01666264422237873 } } },{ { { -0.022993454709649086 } },{ { -0.12629877030849457 } },{ { 0.014993630349636078 } },{ { 0.07988142967224121 } },{ { 0.2711451053619385 } },{ { 0.08708679676055908 } },{ { -0.1361803561449051 } },{ { 0.16042153537273407 } },{ { 0.1295856088399887 } },{ { 0.1377457231283188 } },{ { 0.007372697815299034 } },{ { -0.11326562613248825 } } },{ { { -0.12928690016269684 } },{ { -0.05552912503480911 } },{ { -0.021859196946024895 } },{ { 0.14748872816562653 } },{ { 0.03070669062435627 } },{ { 0.00261244410648942 } },{ { 0.3094424903392792 } },{ { 0.07800362259149551 } },{ { 0.04902984946966171 } },{ { -0.20493492484092712 } },{ { 0.08508649468421936 } },{ { -0.003969971090555191 } } },{ { { -0.18782822787761688 } },{ { 0.015574628487229347 } },{ { 0.2848518192768097 } },{ { 0.20629693567752838 } },{ { 0.0034174120519310236 } },{ { 0.026190580800175667 } },{ { 0.13066257536411285 } },{ { 0.30106276273727417 } },{ { -0.03175169602036476 } },{ { 0.15013575553894043 } },{ { 0.15109126269817352 } },{ { -0.11122336983680725 } } },{ { { -0.12052174657583237 } },{ { 0.17320959270000458 } },{ { -0.29133206605911255 } },{ { -0.04142314940690994 } },{ { -0.17395807802677155 } },{ { 0.03412798419594765 } },{ { 0.007904810830950737 } },{ { -0.06237072870135307 } },{ { 0.3166889250278473 } },{ { 0.020971903577446938 } },{ { -0.013601080514490604 } },{ { 0.11438550800085068 } } },{ { { 0.027060875669121742 } },{ { 0.17893631756305695 } },{ { 0.18330879509449005 } },{ { -0.18205535411834717 } },{ { -0.0399966686964035 } },{ { 0.07099183648824692 } },{ { -0.06463276594877243 } },{ { 0.04484351724386215 } },{ { -0.08500763773918152 } },{ { -0.32501479983329773 } },{ { -0.019630268216133118 } },{ { -0.10454362630844116 } } },{ { { 0.15387453138828278 } },{ { 0.042550209909677505 } },{ { -0.10344606637954712 } },{ { -0.19350267946720123 } },{ { -0.03517631068825722 } },{ { -0.13912585377693176 } },{ { -0.05190201848745346 } },{ { 0.1457061767578125 } },{ { -0.01925533264875412 } },{ { -0.2301637828350067 } },{ { 0.10621391981840134 } },{ { 0.1785547435283661 } } },{ { { 0.07408946752548218 } },{ { -0.1288815438747406 } },{ { -0.26197949051856995 } },{ { 0.012269031256437302 } },{ { -0.0973040908575058 } },{ { -0.05793870612978935 } },{ { 0.0016994973411783576 } },{ { 0.11639551818370819 } },{ { -0.19214163720607758 } },{ { 0.06345686316490173 } },{ { -0.18402357399463654 } },{ { 0.0011538247345015407 } } },{ { { -0.06495776027441025 } },{ { -0.08175665885210037 } },{ { -0.014429323375225067 } },{ { 0.0383649505674839 } },{ { 0.29735466837882996 } },{ { -0.09570010751485825 } },{ { 0.06502046436071396 } },{ { -0.23513492941856384 } },{ { -0.20520371198654175 } },{ { -0.16987287998199463 } },{ { -0.25635358691215515 } },{ { -0.028259525075554848 } } },{ { { -0.0763624981045723 } },{ { -0.20698952674865723 } },{ { 0.2515720725059509 } },{ { -0.31743377447128296 } },{ { 0.06832394003868103 } },{ { -0.11814747005701065 } },{ { -0.02182331494987011 } },{ { -0.04709460213780403 } },{ { 0.031843580305576324 } },{ { 0.07580304145812988 } },{ { 0.07443253695964813 } },{ { 0.014723696745932102 } } },{ { { -0.020959952846169472 } },{ { 0.15936626493930817 } },{ { -0.07887942343950272 } },{ { -0.07211192697286606 } },{ { -0.23093648254871368 } },{ { 0.4381321966648102 } },{ { 0.07721222937107086 } },{ { -0.06772095710039139 } },{ { 0.06269804388284683 } },{ { -0.02609245479106903 } },{ { -0.15286856889724731 } },{ { 0.007775218691676855 } } },{ { { -0.14596134424209595 } },{ { 0.13007406890392303 } },{ { -0.18426291644573212 } },{ { 0.22925235331058502 } },{ { 0.1470266878604889 } },{ { -0.09688515216112137 } },{ { -0.10203923285007477 } },{ { -0.056422192603349686 } },{ { -0.06065211072564125 } },{ { -0.01299427729099989 } },{ { 0.21306566894054413 } },{ { 0.03718559443950653 } } },{ { { -0.16975188255310059 } },{ { -0.03156126290559769 } },{ { -0.1694151610136032 } },{ { -0.03591669350862503 } },{ { -0.09996207058429718 } },{ { -0.1067490205168724 } },{ { 0.17019981145858765 } },{ { -0.06238583102822304 } },{ { -0.1154908835887909 } },{ { -0.18425481021404266 } },{ { -0.009851455688476562 } },{ { -0.06471765041351318 } } },{ { { 0.011957294307649136 } },{ { -0.24018003046512604 } },{ { -0.037334032356739044 } },{ { -0.08069770783185959 } },{ { 0.08609885722398758 } },{ { 0.07522071152925491 } },{ { 0.22176477313041687 } },{ { -0.13578015565872192 } },{ { 0.11556176096200943 } },{ { -0.12006998807191849 } },{ { -0.020999444648623466 } },{ { 0.23085983097553253 } } },{ { { 0.00612671347334981 } },{ { -0.12929941713809967 } },{ { 0.04872176796197891 } },{ { 0.048644788563251495 } },{ { 0.06425464898347855 } },{ { 0.10048198699951172 } },{ { 0.27695637941360474 } },{ { 0.13630861043930054 } },{ { -0.015916384756565094 } },{ { -0.0715848058462143 } },{ { -0.01852983795106411 } },{ { 0.4107343256473541 } } } };
double BCBlocks_2_0_f2_0_block_1_weight[] = { -0.06541905552148819, 0.1629762351512909, -0.04634980484843254, 0.16927775740623474, 0.03803996741771698, -0.04342237859964371, 0.10989101976156235, 0.1812041997909546, 0.18284714221954346, 0.16068007051944733, -0.10508432984352112, -0.2978965938091278, 0.15350289642810822, -0.11475037038326263, 0.8921127319335938, 0.19022531807422638 };
double BCBlocks_2_0_f2_0_block_1_bias[] = { 0.08193276077508926, 0.03996864706277847, 0.24653881788253784, 0.1620239019393921, 0.07984485477209091, 0.24766619503498077, 0.12655510008335114, 0.09269975125789642, 0.24893230199813843, 0.05974694713950157, 0.1273818016052246, 0.46939608454704285, 0.04779866710305214, 0.015299647115170956, 0.20206822454929352, -0.03614092990756035 };
double BCBlocks_2_0_f2_0_block_1_running_mean[] = { -0.03661796450614929, -0.12690819799900055, 0.07108832895755768, 0.04738491401076317, 0.15580111742019653, -0.0034704015124589205, -0.08062092214822769, -0.03925618529319763, -0.08852390944957733, -0.11778271198272705, -0.0013485507806763053, 0.021496443077921867, -0.012321773916482925, -0.1271498203277588, 0.05112385377287865, 0.16873276233673096 };
double BCBlocks_2_0_f2_0_block_1_running_var[] = { 0.008234241977334023, 0.010005390271544456, 0.006371344439685345, 0.009554765187203884, 0.012068125419318676, 0.014022196643054485, 0.011058985255658627, 0.00771764712408185, 0.011752975173294544, 0.011322866193950176, 0.013644303195178509, 0.013918102718889713, 0.007375294342637062, 0.007255000527948141, 0.008448751643300056, 0.02020353265106678 };

double BCBlocks_2_0_f2_1_block_0_weight[16][16][3][1] = { { { { 0.13051864504814148 },{ -0.3404594361782074 },{ -0.0009176028543151915 } } },{ { { -0.02351248823106289 },{ -0.12247183918952942 },{ -0.14366428554058075 } } },{ { { 0.07502271980047226 },{ 0.23473790287971497 },{ 0.01832801289856434 } } },{ { { 0.2997986376285553 },{ -0.1202934980392456 },{ -0.05562222748994827 } } },{ { { -0.04871209338307381 },{ 0.1477496176958084 },{ 0.25846919417381287 } } },{ { { 0.07685613632202148 },{ 0.35529837012290955 },{ 0.0761912614107132 } } },{ { { 0.20721298456192017 },{ 0.20300579071044922 },{ -0.002355935052037239 } } },{ { { 0.15049539506435394 },{ -0.23805516958236694 },{ 0.07471489161252975 } } },{ { { 0.06117160990834236 },{ -0.17471732199192047 },{ -0.18555158376693726 } } },{ { { -0.06536907702684402 },{ 0.22965990006923676 },{ 0.16032661497592926 } } },{ { { -0.11013257503509521 },{ -0.06722043454647064 },{ -0.19608820974826813 } } },{ { { 0.1651151180267334 },{ 0.06653791666030884 },{ -0.3421841859817505 } } },{ { { 0.13153502345085144 },{ 0.05415964499115944 },{ 0.1718750149011612 } } },{ { { -0.16606882214546204 },{ -0.11632836610078812 },{ -0.041157085448503494 } } },{ { { -0.04057059437036514 },{ -0.3182503283023834 },{ -0.042358264327049255 } } },{ { { -0.3778367340564728 },{ 0.0728025808930397 },{ 0.1491476148366928 } } } };
double BCBlocks_2_0_f2_1_block_1_ssnorm_weight[] = { 0.048117171972990036, -0.19035428762435913, -0.13853678107261658, 0.08052626252174377, -0.0650285929441452, 0.12729424238204956, -0.07750421017408371, -0.08153056353330612, -0.11230624467134476, -0.07527877390384674, 0.03323432430624962, -0.10771350562572479, 0.04607464745640755, 0.17628048360347748, 0.03179267793893814, -0.02996019273996353, 0.13088306784629822, -0.09704583883285522, -0.08298338204622269, -0.033687323331832886, 0.059083741158246994, 0.16957415640354156, 0.18182037770748138, 0.15495458245277405, -0.005192516837269068, -0.051859039813280106, -0.01419849880039692, 0.11867208033800125, 0.07053808122873306, -0.021004747599363327, 0.13978230953216553, 0.08868765085935593, -0.09998603910207748, -0.1932711899280548, 0.10296373814344406, -0.17386801540851593, -0.07845177501440048, -0.09465652704238892, 0.00433941837400198, -0.08405909687280655, 0.2573908567428589, 0.09733107686042786, -0.17562326788902283, 0.08600395917892456, 0.1625092476606369, 0.07089266926050186, 0.14585646986961365, -0.014810066670179367, -0.08385659009218216, -0.0919317752122879, -0.11049981415271759, -0.13056400418281555, -0.07957682758569717, 0.07022720575332642, 0.032954417169094086, -0.017651626840233803, 0.09324151277542114, 0.09646696597337723, -0.1136564388871193, 0.02374451234936714, 0.1229783296585083, 0.05491053685545921, 0.11394263058900833, 0.017626235261559486, 0.14083559811115265, 0.16993966698646545, -0.10162685811519623, -0.11653874069452286, -0.04326872155070305, -0.02849515713751316, -0.029641469940543175, 0.017283271998167038, -0.18735215067863464, 0.04186153784394264, 0.032747138291597366, 0.07805163413286209, 0.21166497468948364, 0.10341063141822815, -0.08065878599882126, -0.04422295093536377 };
double BCBlocks_2_0_f2_1_block_1_ssnorm_bias[] = { -0.07292711734771729, 0.00737492460757494, 0.25807181000709534, 0.08408993482589722, -0.09489759802818298, 0.08808250725269318, -0.033689945936203, 0.07173552364110947, -0.09203068166971207, -0.026969991624355316, -0.09624607115983963, 0.26064538955688477, -0.051232971251010895, -0.045752160251140594, 0.0989229753613472, 0.011091157793998718, 0.1972656399011612, 0.11041977256536484, 0.1148253008723259, -0.1251978725194931, 0.049816083163022995, 0.028827112168073654, 0.13411273062229156, 0.03917549178004265, -0.05608144402503967, -0.1689683496952057, -0.15456902980804443, 0.3156471252441406, 0.21437425911426544, -0.058825209736824036, -0.11563412845134735, 0.1157517209649086, -0.05769968405365944, -0.14317579567432404, -0.024688666686415672, 0.11675868928432465, 0.10497492551803589, -0.11908897757530212, -0.07224276661872864, 0.15734347701072693, -0.24779090285301208, 0.0027215415611863136, 0.07241711765527725, 0.032609861344099045, 0.09305965900421143, 0.11195299029350281, -0.0171712227165699, 0.05288242548704147, 0.11059235781431198, 0.1586908996105194, 0.12336171418428421, 0.19894564151763916, 0.008658361621201038, 0.0009773989440873265, -0.0641138106584549, -0.11178410053253174, 0.2063501477241516, 0.1330328732728958, 0.22331030666828156, 0.04813695326447487, 0.0067691318690776825, -0.12370191514492035, 0.17639541625976562, 0.027582379058003426, 0.19913901388645172, -0.06341341137886047, 0.11375027149915695, 0.027907945215702057, -0.0599014014005661, -0.022862400859594345, 0.10216598212718964, -0.0365324392914772, 0.21901780366897583, 0.061965543776750565, 0.09603157639503479, -0.011807321570813656, 0.29484090209007263, 0.1657065600156784, -0.03559934347867966, -0.08013422787189484 };
double BCBlocks_2_0_f2_1_block_1_ssnorm_running_mean[] = { -0.0214404184371233, -0.027918312698602676, -0.031127968803048134, 0.0005202148458920419, -0.016691390424966812, -0.01903303526341915, -0.012320253998041153, -0.015442817471921444, -0.02584703639149666, -0.042857494205236435, 0.05808354541659355, 0.08081120252609253, 0.08451443165540695, 0.07109735906124115, 0.08718673139810562, -0.030644524842500687, -0.0037408319767564535, 0.0460587739944458, 0.09626052528619766, -0.014425860717892647, 0.03303271159529686, 0.04265883192420006, 0.028652476146817207, 0.022752465680241585, 0.019377151504158974, 0.11537793278694153, 0.1311083734035492, 0.10990889370441437, 0.12376115471124649, 0.13325926661491394, 0.04200911149382591, 0.05526459589600563, 0.034839846193790436, 0.02789933606982231, 0.07120184600353241, -0.002963520120829344, 0.035419877618551254, 0.04887266084551811, 0.0014138745609670877, -0.026314208284020424, -0.10124484449625015, -0.11020232737064362, -0.06338894367218018, -0.05942390859127045, -0.08690322935581207, 0.022007416933774948, 0.02494085021317005, 0.03255697339773178, 0.05642285570502281, 0.04533062130212784, -0.0389847457408905, -0.06225099042057991, -0.05539190024137497, -0.03160809725522995, -0.035815052688121796, -0.1541028767824173, -0.1141841784119606, -0.03073912300169468, -0.0899038091301918, -0.04168917238712311, 0.012644140049815178, 0.041415587067604065, 0.04258193075656891, 0.02172541618347168, 0.026743168011307716, -0.0144519517198205, -0.024732546880841255, -0.009422209113836288, -0.016994858160614967, -0.019949980080127716, -0.3710496723651886, -0.19182346761226654, -0.21877935528755188, -0.06993134319782257, -0.0531386062502861, 0.03158016875386238, -0.016657942906022072, -0.052596766501665115, -0.019968116655945778, 0.00038888718700036407 };
double BCBlocks_2_0_f2_1_block_1_ssnorm_running_var[] = { 4.4163349230075255e-05, 0.000389361783163622, 0.0006528752273879945, 0.00015189808618742973, 0.00013006773951929063, 0.00014818714407738298, 0.000123529665870592, 0.00013464046060107648, 0.0002061897102976218, 0.0002593427198007703, 6.862764712423086e-05, 0.0001642861752770841, 0.00017554913938511163, 9.123706695390865e-05, 3.221833685529418e-05, 0.00014810684660915285, 0.0013719965936616063, 0.001740358886308968, 0.0023263797629624605, 0.00018907140474766493, 0.00016300444258376956, 0.0001384806673740968, 7.746610208414495e-05, 6.606054375879467e-05, 0.0001284241006942466, 0.0001909892598632723, 0.0002958602854050696, 0.0003512827679514885, 0.00017303430649917573, 0.0003959316818509251, 0.00014329428086057305, 0.0010932000586763024, 0.0009380689589306712, 0.0011250270763412118, 0.0010921856155619025, 0.00046445082989521325, 0.0011735915904864669, 0.0003639687492977828, 7.625558646395802e-05, 0.0004914342425763607, 0.0011026490246877074, 0.0018046871991828084, 0.0012126656947657466, 0.0006807284662500024, 0.0007067685946822166, 0.0005216195713728666, 0.0013148458674550056, 0.002603438450023532, 0.000853740144520998, 0.0002344124804949388, 0.0004433981084730476, 0.0010482489597052336, 0.0008778155897744, 0.00031523173674941063, 0.0003367608005646616, 0.008434219285845757, 0.004939773119986057, 0.005956069566309452, 0.0026245557237416506, 0.0018611472332850099, 0.0002868197625502944, 0.0012922873720526695, 0.0012908456847071648, 0.00035450674477033317, 0.0004150749300606549, 0.00012249615974724293, 0.0004929066635668278, 0.0005044613499194384, 0.00041136067011393607, 0.0005261323531158268, 0.030332516878843307, 0.0952962338924408, 0.051145799458026886, 0.00941847451031208, 0.005699640605598688, 0.0003997682360932231, 0.0024680776987224817, 0.00259235012345016, 0.0014403292443603277, 4.283308953745291e-06 };

double BCBlocks_2_0_f1_0_block_0_weight[16][16][1][3] = { { { { -0.01782488077878952, 0.1888604462146759, -0.1006787121295929 } } },{ { { -0.027496911585330963, 0.010791538283228874, -0.15181969106197357 } } },{ { { 0.13399457931518555, 0.026335399597883224, 0.03398485854268074 } } },{ { { -0.1864883303642273, -0.05213388800621033, 0.13150474429130554 } } },{ { { 0.09964955598115921, 0.08792828768491745, -0.05981561169028282 } } },{ { { -0.13071288168430328, 0.06323260813951492, 0.1376497745513916 } } },{ { { -0.20584526658058167, -0.00902041606605053, 0.03425626456737518 } } },{ { { 0.15179018676280975, -0.12119511514902115, 0.10577067732810974 } } },{ { { 0.03207622841000557, 0.06472796201705933, 0.15277211368083954 } } },{ { { -0.07799766957759857, -0.02162378840148449, 0.14971263706684113 } } },{ { { 0.17876970767974854, -0.03525611758232117, -0.025571534410119057 } } },{ { { -0.09900564700365067, 0.047690268605947495, 0.009265332482755184 } } },{ { { 0.1252979189157486, -0.024183742702007294, 0.14971284568309784 } } },{ { { 0.17776282131671906, -0.12970398366451263, -0.07677445560693741 } } },{ { { 0.14968223869800568, -0.10691439360380173, -0.018857887014746666 } } },{ { { -0.0307992585003376, 0.0006873620441183448, -0.17113006114959717 } } } };
double BCBlocks_2_0_f1_0_block_1_weight[] = { 0.16219137609004974, -0.11484027653932571, 0.16920387744903564, 0.28379538655281067, 0.16282574832439423, -0.21239562332630157, 0.18361613154411316, -0.22936858236789703, 0.21766415238380432, 0.2073010504245758, 0.2065368890762329, -0.15361632406711578, 0.24533577263355255, 0.2925812602043152, 0.18232758343219757, 0.1956416368484497 };
double BCBlocks_2_0_f1_0_block_1_bias[] = { -0.03313922509551048, -0.000584784836973995, 0.046488404273986816, -0.039564888924360275, -0.023776527494192123, -0.0006008810014463961, 0.07138309627771378, 0.02114221081137657, 0.0651765763759613, 0.012395047582685947, -0.037953633815050125, -0.023445282131433487, 0.04474446550011635, -0.08454522490501404, -0.02385270781815052, -0.00951288640499115 };
double BCBlocks_2_0_f1_0_block_1_running_mean[] = { 0.0027594920247793198, -0.0001686662872089073, 0.006420491728931665, -0.0064253490418195724, 0.004867779091000557, 0.0018627996323630214, 0.007953580468893051, 0.0047464435920119286, -0.0023729614913463593, 0.003935414832085371, 0.006080630701035261, -0.003837002906948328, 0.014001904055476189, -0.00013173265324439853, 0.0016154355835169554, -0.012866568751633167 };
double BCBlocks_2_0_f1_0_block_1_running_var[] = { 6.0479760577436537e-05, 5.741764834965579e-05, 3.0491819416056387e-05, 7.480030762962997e-05, 0.00016419148596469313, 3.769237082451582e-05, 0.00011749092664103955, 6.741679680999368e-05, 0.00021402971469797194, 4.601179534802213e-05, 6.664705142611638e-05, 1.9054221411352046e-05, 0.000168236147146672, 6.332172051770613e-05, 3.2083524274639785e-05, 4.663267463911325e-05 };

double BCBlocks_2_0_f1_1_weight[16][16][1][1] = { { { { 0.00645196158438921 } },{ { 0.019348381087183952 } },{ { 0.06812696903944016 } },{ { -0.029788026586174965 } },{ { -0.06511544436216354 } },{ { 0.05113133043050766 } },{ { 0.05459092557430267 } },{ { -0.00977801252156496 } },{ { -0.15258455276489258 } },{ { 0.01997610367834568 } },{ { -0.05879535898566246 } },{ { -0.020508509129285812 } },{ { -0.035871706902980804 } },{ { -0.023736538365483284 } },{ { 0.02733714133501053 } },{ { 0.05758379027247429 } } },{ { { 0.013021759688854218 } },{ { -0.05572415888309479 } },{ { -0.11524282395839691 } },{ { -0.01627655327320099 } },{ { 0.04051835834980011 } },{ { 0.0013788307551294565 } },{ { -0.013910508714616299 } },{ { 0.03159690275788307 } },{ { 0.00995937455445528 } },{ { -0.06150537729263306 } },{ { -0.07846195995807648 } },{ { -0.024184273555874825 } },{ { 0.09501733630895615 } },{ { -0.03326098620891571 } },{ { -0.027892665937542915 } },{ { -0.03865453228354454 } } },{ { { -0.07821398228406906 } },{ { -0.08346423506736755 } },{ { 0.11053692549467087 } },{ { -0.030842650681734085 } },{ { -0.004215795546770096 } },{ { -0.05033458024263382 } },{ { 0.04181415215134621 } },{ { 0.04473317414522171 } },{ { -0.019893398508429527 } },{ { -0.08773183077573776 } },{ { 0.002025865251198411 } },{ { -0.03244442492723465 } },{ { -0.08661679923534393 } },{ { -0.044731903821229935 } },{ { 0.017151150852441788 } },{ { -0.10326838493347168 } } },{ { { -0.06711702793836594 } },{ { -0.010062060318887234 } },{ { -0.12503363192081451 } },{ { 0.09811967611312866 } },{ { 0.026697680354118347 } },{ { -0.011990928091108799 } },{ { -0.1735829859972 } },{ { -0.04112733155488968 } },{ { -0.045733749866485596 } },{ { -0.010821684263646603 } },{ { -0.02213919162750244 } },{ { -0.04880348592996597 } },{ { -0.02888384275138378 } },{ { -0.13321268558502197 } },{ { 0.012629501521587372 } },{ { 0.06981243938207626 } } },{ { { -0.0631428137421608 } },{ { -0.027600163593888283 } },{ { -0.0448821522295475 } },{ { 0.03950466215610504 } },{ { -0.0690593272447586 } },{ { -0.11026163399219513 } },{ { 0.030007267370820045 } },{ { 0.12216759473085403 } },{ { 0.10580236464738846 } },{ { -0.0758262649178505 } },{ { -0.11974763125181198 } },{ { -0.031755562871694565 } },{ { -0.04431788995862007 } },{ { -0.05943892523646355 } },{ { 0.07914744317531586 } },{ { -0.1130102276802063 } } },{ { { 0.00010521869262447581 } },{ { -0.03766185790300369 } },{ { 0.04892929643392563 } },{ { 0.05196734517812729 } },{ { -0.07118970900774002 } },{ { 0.1234048530459404 } },{ { -0.13970498740673065 } },{ { 0.07050710171461105 } },{ { -0.0517217256128788 } },{ { 0.08288312703371048 } },{ { -0.05857668071985245 } },{ { -0.04968004673719406 } },{ { 0.07909612357616425 } },{ { -0.02657800354063511 } },{ { 0.12455621361732483 } },{ { -0.11396527290344238 } } },{ { { -0.018358584493398666 } },{ { -0.018463948741555214 } },{ { -0.04236585646867752 } },{ { 0.014482381753623486 } },{ { 0.046693138778209686 } },{ { -0.13276061415672302 } },{ { -0.05909183248877525 } },{ { -0.10153014957904816 } },{ { -0.03895662724971771 } },{ { 0.07954901456832886 } },{ { -0.1289522647857666 } },{ { 0.0054404595866799355 } },{ { -0.04003779590129852 } },{ { -0.061718203127384186 } },{ { -0.013992061838507652 } },{ { -0.010010459460318089 } } },{ { { 0.03707120940089226 } },{ { 0.065688356757164 } },{ { -0.03708931431174278 } },{ { -0.040053367614746094 } },{ { -0.09491220861673355 } },{ { -0.03177082538604736 } },{ { 0.07037104666233063 } },{ { -0.055466942489147186 } },{ { 0.1481158435344696 } },{ { 0.09791594743728638 } },{ { -0.01559360884130001 } },{ { 0.018959777429699898 } },{ { -0.00200765416957438 } },{ { 0.10441885888576508 } },{ { 0.011471946723759174 } },{ { 0.03797642141580582 } } },{ { { 0.013132180087268353 } },{ { -0.05550459027290344 } },{ { 0.05854758992791176 } },{ { -0.0522659607231617 } },{ { 0.08064297586679459 } },{ { 0.019728435203433037 } },{ { -0.019359450787305832 } },{ { -0.03149016946554184 } },{ { -0.07279331982135773 } },{ { 0.09108366817235947 } },{ { 0.09469108283519745 } },{ { -0.00138547841925174 } },{ { -0.06910538673400879 } },{ { 0.11280469596385956 } },{ { 0.015302108600735664 } },{ { 0.01922357827425003 } } },{ { { 0.11042623221874237 } },{ { -0.002293600467965007 } },{ { 0.09214027971029282 } },{ { -0.2342490255832672 } },{ { -0.06522791087627411 } },{ { -0.10282142460346222 } },{ { -0.09234590828418732 } },{ { 0.15484434366226196 } },{ { -0.11385779827833176 } },{ { -0.019319649785757065 } },{ { 0.022817548364400864 } },{ { -0.07807925343513489 } },{ { -0.12138095498085022 } },{ { -0.06984760612249374 } },{ { -0.03067009337246418 } },{ { -0.025152144953608513 } } },{ { { 0.03877372294664383 } },{ { 0.06392817199230194 } },{ { 0.00541202025488019 } },{ { -0.02463897503912449 } },{ { -0.08214040100574493 } },{ { -0.03257535398006439 } },{ { -0.010825668461620808 } },{ { -0.08191576600074768 } },{ { -0.008528048172593117 } },{ { -0.05172703415155411 } },{ { 0.07014833390712738 } },{ { 0.018172357231378555 } },{ { -0.07032373547554016 } },{ { -0.050168391317129135 } },{ { 0.02144172415137291 } },{ { 0.049631569534540176 } } },{ { { -0.18754470348358154 } },{ { 0.06917514652013779 } },{ { 0.03654863312840462 } },{ { -0.06105588376522064 } },{ { 0.01188622321933508 } },{ { -0.08003738522529602 } },{ { 0.10575220733880997 } },{ { -0.03954983130097389 } },{ { -0.009359974414110184 } },{ { 0.0317496582865715 } },{ { -0.10499761253595352 } },{ { 0.0913514718413353 } },{ { -0.021797973662614822 } },{ { -0.02999800629913807 } },{ { -0.04432167857885361 } },{ { 0.0900319367647171 } } },{ { { -0.06537055224180222 } },{ { -0.014622990973293781 } },{ { 0.07713767886161804 } },{ { -0.0784645527601242 } },{ { -0.07121050357818604 } },{ { -0.001637041219510138 } },{ { 0.08856458216905594 } },{ { 0.07263098657131195 } },{ { 0.025816701352596283 } },{ { 0.020718874409794807 } },{ { 0.07386884838342667 } },{ { -0.037499479949474335 } },{ { -0.21296484768390656 } },{ { -0.09359706193208694 } },{ { -0.178540900349617 } },{ { 0.03384549543261528 } } },{ { { 0.12152499705553055 } },{ { -0.06965550780296326 } },{ { -0.07278557866811752 } },{ { -0.023487845435738564 } },{ { 0.004598439671099186 } },{ { 0.03610073775053024 } },{ { -0.025514870882034302 } },{ { -0.03887977823615074 } },{ { -0.036703165620565414 } },{ { 0.08766241371631622 } },{ { -0.015724148601293564 } },{ { 0.051243603229522705 } },{ { 0.007697768043726683 } },{ { 0.15770579874515533 } },{ { 0.060294173657894135 } },{ { 0.047892458736896515 } } },{ { { 0.07267457246780396 } },{ { -0.08465820550918579 } },{ { -0.039566732943058014 } },{ { -0.05750500410795212 } },{ { 0.004231589380651712 } },{ { 0.017931440845131874 } },{ { 0.11071054637432098 } },{ { -0.03603597357869148 } },{ { -0.08162074536085129 } },{ { -0.05756893754005432 } },{ { -0.010805713012814522 } },{ { 0.05598205327987671 } },{ { -0.17297664284706116 } },{ { 0.047487713396549225 } },{ { -0.012825529091060162 } },{ { 0.014071139506995678 } } },{ { { -0.10835317522287369 } },{ { -0.019274136051535606 } },{ { 0.07608536630868912 } },{ { 0.04806915670633316 } },{ { 0.09155210852622986 } },{ { -0.02854999713599682 } },{ { 0.017135659232735634 } },{ { 0.021797548979520798 } },{ { -0.13014981150627136 } },{ { 0.043999724090099335 } },{ { -0.14993779361248016 } },{ { 0.07343784719705582 } },{ { -0.021861782297492027 } },{ { 0.06701181828975677 } },{ { 0.044779352843761444 } },{ { -0.025501994416117668 } } } };
double BCBlocks_2_1_f2_0_block_0_weight[16][16][3][1] = { { { { -0.09421328455209732 },{ -0.0997113436460495 },{ 0.14507722854614258 } } },{ { { 0.12739481031894684 },{ 0.1293361485004425 },{ -0.05991164222359657 } } },{ { { 0.1102157011628151 },{ 0.07743410766124725 },{ -0.10744432359933853 } } },{ { { -0.14743639528751373 },{ -0.002881857566535473 },{ -0.08583226054906845 } } },{ { { 0.20495763421058655 },{ -0.000437317619798705 },{ 0.021471235901117325 } } },{ { { 0.17028193175792694 },{ -0.027239399030804634 },{ 0.06915523111820221 } } },{ { { -0.07602696865797043 },{ 0.16553504765033722 },{ 0.04062961786985397 } } },{ { { 0.08914247900247574 },{ 0.05600788816809654 },{ 0.11303766816854477 } } },{ { { 0.229828879237175 },{ 0.11810681968927383 },{ -0.07534503936767578 } } },{ { { -0.16940046846866608 },{ -0.007903936319053173 },{ -0.17866167426109314 } } },{ { { 0.15613478422164917 },{ -0.03560713678598404 },{ 0.06542468070983887 } } },{ { { -0.09695644676685333 },{ -0.2314683496952057 },{ 0.09834962338209152 } } },{ { { -0.08851481229066849 },{ 0.11670160293579102 },{ 0.07526884973049164 } } },{ { { -0.12495525926351547 },{ -0.020784741267561913 },{ 0.06007717549800873 } } },{ { { 0.06792034208774567 },{ 0.07251694053411484 },{ 0.09767705947160721 } } },{ { { -0.21157944202423096 },{ -0.0343904122710228 },{ 0.045699190348386765 } } } };
double BCBlocks_2_1_f2_0_block_1_ssnorm_weight[] = { 0.026962844654917717, -0.016445331275463104, 0.1402169167995453, 0.1418341100215912, 0.12881551682949066, -0.037936750799417496, -0.07410809397697449, -0.17857834696769714, 0.07311850786209106, -0.07899349182844162, 0.0033640607725828886, 0.11004733294248581, 0.04101361706852913, -0.14488664269447327, -0.011682008393108845, -0.10572049766778946, -0.02392491325736046, -0.025502150878310204, 0.1415429562330246, 0.06606187671422958, 0.002396718366071582, 0.02670573629438877, -0.13239428400993347, 0.10925763100385666, 0.003417352447286248, -0.057150837033987045, 0.08386752754449844, -0.005526055581867695, -0.21854381263256073, 0.12555378675460815, -0.134207621216774, 0.05284701660275459, -0.1490308940410614, -0.012824361212551594, -0.014571753330528736, -0.11387845128774643, -0.0596536248922348, -0.04794400930404663, -0.05152719467878342, 0.10577963292598724, 0.18575116991996765, 0.2635185420513153, -0.06730019301176071, 0.0202654879540205, -0.016224855557084084, 0.16180351376533508, -0.020886637270450592, -0.08410824835300446, 0.08580445498228073, 0.11007602512836456, 0.05304074287414551, -0.00664459029212594, 0.10851845890283585, 0.1439838856458664, -0.0774143636226654, -0.15102916955947876, -0.01628090813755989, -0.13747866451740265, -0.03831658139824867, 0.08528450131416321, 0.061554376035928726, -0.013507436029613018, -0.23379218578338623, 0.08001934736967087, 0.10380865633487701, 0.1516587734222412, 0.005295188631862402, -0.09105382859706879, -0.0011352627770975232, 0.05318479239940643, 0.07261599600315094, -0.0688905417919159, -0.029090942814946175, -0.04494652897119522, 0.14385706186294556, -0.059333428740501404, -0.00650927796959877, 0.25586962699890137, -0.08462102711200714, 0.011779196560382843 };
double BCBlocks_2_1_f2_0_block_1_ssnorm_bias[] = { 0.08487333357334137, -0.0016917673638090491, 0.10337354242801666, 0.08201268315315247, -0.014096260070800781, 0.09632957726716995, 0.06842603534460068, 0.022465549409389496, 0.21812133491039276, -0.13296614587306976, 0.0387507900595665, 0.11079763621091843, -0.05750151723623276, -0.06262470781803131, 0.12448669224977493, 0.005801100749522448, -0.030176958069205284, 0.023492977023124695, -0.08320087939500809, 0.015192274004220963, 0.056329015642404556, -0.002056796569377184, -0.09310264140367508, 0.1483634114265442, -0.11282694339752197, 0.12410254031419754, 0.24210798740386963, -0.12671367824077606, -0.1234000101685524, 0.328235387802124, -0.013521755114197731, -0.004417260177433491, 0.09927035123109818, 0.07940033078193665, -0.06790294498205185, -0.116232730448246, -0.010879605077207088, 0.007840652018785477, 0.09547793865203857, 0.09674091637134552, 0.019347088411450386, 0.04709827899932861, 0.03705822303891182, 0.03380514308810234, -0.03584427013993263, -0.03423158451914787, -0.057878125458955765, -0.10881433635950089, 0.14910149574279785, 0.08901814371347427, 0.05601521581411362, 0.05703152343630791, 0.08270908147096634, 0.04068118333816528, 0.02445046231150627, -0.0845165029168129, 0.08316288888454437, -0.060455068945884705, 0.0647708922624588, -0.11245120316743851, 0.1017126813530922, 0.11520572751760483, 0.0020459755323827267, -0.11495896428823471, 0.1317289173603058, -0.051756374537944794, -0.13487114012241364, 0.03053724579513073, -0.0895133912563324, -0.08765431493520737, 0.028839915990829468, -0.005801969673484564, -0.006874541752040386, -0.08549419790506363, 0.06643913686275482, -0.06805140525102615, 0.0160593930631876, -0.05781376361846924, 0.1773288995027542, 0.1701788604259491 };
double BCBlocks_2_1_f2_0_block_1_ssnorm_running_mean[] = { 0.010558003559708595, 0.02974916435778141, -0.018968094140291214, -0.03299283981323242, -0.009168213233351707, 0.013050487264990807, 0.011252504773437977, 0.011942227371037006, 0.010186636820435524, 0.0031189939472824335, -0.028223905712366104, 0.020063554868102074, 0.025030149146914482, -0.0075867073610424995, 0.012138420715928078, -0.016426460817456245, -0.01261060032993555, -0.03833036497235298, -0.016686497256159782, -0.01697082445025444, 0.0015419176779687405, 0.015867501497268677, 0.016427289694547653, 0.030839215964078903, 0.014475472271442413, 6.122206173131417e-07, 0.02204517088830471, 0.006291431374847889, 0.04844694584608078, 0.036841586232185364, 0.006735606584697962, 0.018092652782797813, -0.0073046511970460415, 0.0006374982767738402, 0.004408619832247496, 0.0202361810952425, 0.019173050299286842, 0.010458038188517094, 0.019342999905347824, 0.009293479844927788, 0.0015209063421934843, 0.004257767461240292, 0.018510082736611366, 0.023787537589669228, 0.0235060453414917, -0.008129076100885868, -0.027913184836506844, -0.026654386892914772, -0.03747481852769852, -0.019549110904335976, 0.008471962064504623, 0.014454929158091545, 0.03132030740380287, 0.004000404383987188, 0.003925299737602472, 0.021098094061017036, -0.035233814269304276, -0.031562961637973785, -0.06340156495571136, -0.035941146314144135, 0.006065958645194769, 0.009435776621103287, 0.02395981177687645, 0.0038873841986060143, 0.020645633339881897, 0.005922638811171055, -0.0022933699656277895, -0.013721157796680927, -0.00492243142798543, -0.0008539141854271293, 0.0067975022830069065, 0.026875078678131104, 0.020997487008571625, 0.027123108506202698, 0.010369517840445042, 0.013088138774037361, -0.00799012091010809, -0.06933832913637161, -0.03618700057268143, -0.004302518907934427 };
double BCBlocks_2_1_f2_0_block_1_ssnorm_running_var[] = { 0.00042819688678719103, 0.0004138590593356639, 0.0005651643732562661, 0.00023396937467623502, 3.503688640194014e-05, 0.0001733586104819551, 0.00015674205496907234, 0.00013252835196908563, 9.416417742613703e-05, 2.1438199837575667e-05, 0.00012821333075407892, 7.280784484464675e-05, 0.0002662775805220008, 9.585623047314584e-05, 0.0001781485480023548, 0.00012942636385560036, 6.17771438555792e-05, 0.0004557617357932031, 0.00012034890823997557, 0.00011269379319855943, 7.758105311950203e-06, 0.0001814422575989738, 0.0008118008263409138, 0.001082856091670692, 0.000648868503049016, 1.3464309667199359e-09, 6.145240331534296e-05, 2.7018679247703403e-05, 0.0003704628034029156, 0.00012318347580730915, 9.569908434059471e-05, 0.00016246113227680326, 6.320560351014137e-05, 1.1790393728006165e-05, 0.00015000415442045778, 0.0002456445072311908, 0.0003233711759094149, 6.070618474041112e-05, 9.503831824986264e-05, 2.322735235793516e-05, 0.00012434343807399273, 0.0013352229725569487, 0.0002723265206441283, 0.00048112860531546175, 0.0007710527861490846, 0.0005010250024497509, 0.00026885655825026333, 0.0008750366978347301, 0.0003816508105956018, 0.00021201165509410203, 3.622287113103084e-05, 0.00023037934442982078, 0.0003215639153495431, 9.273136674892157e-05, 2.1146750441403128e-05, 8.570514910388738e-05, 0.0006682356470264494, 0.00014617640408687294, 0.0006600340129807591, 0.00015198263281490654, 0.00014516798546537757, 7.693302177358419e-05, 0.0001628833415452391, 0.0001764043263392523, 0.00023908559523988515, 4.2882591515081e-05, 4.8029258323367685e-05, 0.00019313696247991174, 0.00018159749743063003, 1.257234180229716e-05, 1.1282939340162557e-05, 0.0004240341659169644, 0.0002189114602515474, 0.00023793774016667157, 2.2424439521273598e-05, 9.396620589541271e-05, 0.00011061331315431744, 0.0016084874514490366, 0.000432391680078581, 0.00018274861213285476 };

double BCBlocks_2_1_f1_0_block_0_weight[16][16][1][3] = { { { { -3.6753716736726005e-10, -5.740505848450539e-10, -3.8937569835084673e-10 } } },{ { { 0.16702866554260254, -0.09988171607255936, 0.07782010734081268 } } },{ { { -0.010326994583010674, 0.01126576866954565, -0.1645265519618988 } } },{ { { -0.00415284838527441, 0.029408065602183342, -0.18436196446418762 } } },{ { { 0.07972826063632965, 0.09579732269048691, -0.11800781637430191 } } },{ { { -0.14563263952732086, -0.008764257654547691, 0.0501476489007473 } } },{ { { 0.11958301067352295, -0.013560107909142971, 0.15275849401950836 } } },{ { { -0.1669342815876007, -0.04778524115681648, 0.15413859486579895 } } },{ { { -0.070583775639534, -0.1516634076833725, 0.19668950140476227 } } },{ { { -0.14468587934970856, 0.11565791815519333, -0.17809376120567322 } } },{ { { 0.022383784875273705, -0.11925618350505829, 0.13913662731647491 } } },{ { { -0.06441698223352432, -0.1463298499584198, 0.04323834180831909 } } },{ { { 0.17231027781963348, -0.03720119595527649, -0.12219294160604477 } } },{ { { -0.18719357252120972, 0.0967109426856041, -0.0002761929063126445 } } },{ { { 0.012258215807378292, 0.03874907270073891, 0.140414759516716 } } },{ { { 0.11432379484176636, -0.0839117243885994, -0.12992066144943237 } } } };
double BCBlocks_2_1_f1_0_block_1_weight[] = { -7.79523501304169e-10, 0.2308681160211563, 0.1881762146949768, -0.2021028995513916, 0.21445424854755402, 0.19861716032028198, 0.25107142329216003, -0.208231121301651, 0.3315349817276001, -0.2482202798128128, 0.18984876573085785, -0.22189749777317047, 0.28325048089027405, -0.25451791286468506, 0.20396006107330322, -0.1651749610900879 };
