/* BC-ResNet 权重数据 — 由 export_weights.py 自动生成 */
#include "kws_weights.h"

const float head_conv_w[400] = {
    -1.670977846e-02f, 2.783315815e-02f, 1.736400191e-05f, 1.554484200e-02f, -9.667661041e-02f, 1.048599109e-01f, 3.870400414e-02f, -2.566947602e-02f,
    8.360342681e-02f, -2.371374667e-01f, 2.196017951e-01f, 4.543323815e-02f, -9.646704793e-02f, -3.144172207e-02f, -1.009480804e-01f, 3.329249024e-01f,
    1.874938458e-01f, 1.231998205e-01f, 3.017011285e-02f, -3.490292281e-02f, 8.394471556e-02f, 1.635868251e-01f, 5.665277690e-02f, -1.124819741e-01f,
    -1.453555524e-01f, -1.435704082e-01f, -5.019683391e-02f, -3.479401767e-02f, -3.592748567e-02f, -6.289260089e-02f, -9.059333801e-02f, -7.244592905e-02f,
    -7.344263792e-02f, 1.510302871e-01f, -5.395641923e-02f, -1.300173104e-01f, -1.738984883e-02f, -9.512629360e-02f, -1.101360563e-02f, -5.565107614e-02f,
    5.305599421e-03f, -9.486593306e-02f, -4.515661392e-03f, 8.779463917e-02f, 1.199917868e-01f, -5.309348181e-02f, -6.206118315e-02f, -3.363067051e-03f,
    -8.659451455e-02f, -4.116815049e-03f, 3.476673365e-02f, -1.337782145e-01f, -6.609528325e-03f, -1.004146338e-01f, -4.480299726e-02f, -8.689645678e-02f,
    9.787401557e-02f, -4.940699786e-02f, -1.260427665e-02f, -9.753330052e-02f, -2.811296843e-02f, -9.185951948e-02f, -2.501753569e-01f, -8.927972615e-02f,
    -7.031074166e-02f, -2.076776624e-01f, 5.439746007e-02f, 1.813628338e-02f, 8.320713043e-02f, 4.009960219e-02f, -2.222196013e-01f, 8.257249743e-02f,
    6.501997262e-02f, -1.091362089e-01f, -1.330612898e-01f, 2.918666787e-02f, 7.212621719e-02f, -6.223017350e-02f, -4.166281596e-02f, -2.342001349e-02f,
    8.005036414e-02f, 3.307070117e-03f, -2.023297399e-01f, 1.023412868e-01f, 8.202004433e-02f, 2.645231783e-02f, -1.272165626e-01f, -1.112350971e-01f,
    -1.674618572e-02f, 9.438039851e-04f, -4.922041669e-02f, -2.511939779e-02f, -2.246504426e-01f, 8.358992636e-02f, 5.165908113e-02f, -3.338199854e-02f,
    -6.961965561e-02f, -9.666264057e-02f, -1.483423859e-01f, 1.036837772e-01f, -2.036063746e-02f, 8.023435250e-03f, 1.251721103e-02f, -5.532774329e-02f,
    -3.579691052e-02f, -1.300169248e-02f, 1.778952591e-02f, 7.712139934e-02f, -1.560516953e-01f, -4.562884569e-02f, 3.304582089e-02f, 1.416994538e-02f,
    8.762560901e-04f, -3.975539934e-03f, 3.378966823e-02f, 1.806794405e-01f, -1.046668440e-01f, 5.477378517e-02f, -2.025551395e-03f, -1.631344706e-01f,
    -1.133522987e-01f, -1.403005868e-01f, -1.734067649e-01f, -1.710814983e-01f, -4.576281086e-02f, -6.234048679e-02f, 1.454736590e-01f, 9.955477715e-02f,
    3.643242642e-02f, -1.069886684e-01f, 1.454665884e-02f, 5.812092498e-02f, -1.580285653e-02f, 1.061710995e-02f, -5.075440183e-02f, 1.101558730e-01f,
    2.274425775e-01f, 1.234257314e-02f, -9.409344941e-02f, -1.788522303e-02f, -2.521977201e-02f, 2.766188979e-01f, 5.297344923e-02f, 5.660516024e-02f,
    -1.759087592e-01f, -1.487723291e-01f, 1.794640571e-01f, 4.604745191e-03f, -5.458341539e-02f, -9.233400971e-02f, 4.909342900e-02f, 1.267760098e-01f,
    1.903179437e-01f, 1.342682689e-01f, 3.501750156e-02f, 1.136206314e-01f, 2.289082259e-01f, 2.674242556e-01f, 1.169614941e-01f, -3.365747258e-02f,
    -7.962228358e-02f, 1.358018219e-01f, 3.524997085e-02f, 9.893022478e-02f, 6.437399238e-02f, -6.740161031e-02f, 4.184746370e-02f, 1.794410683e-02f,
    1.136418283e-01f, -1.276870072e-01f, -2.029629350e-01f, -1.420451850e-01f, 1.752248853e-01f, -9.915982187e-02f, -5.625861883e-02f, -1.592521518e-01f,
    5.095023662e-02f, 1.840537190e-01f, 5.036067218e-03f, -3.832735866e-02f, -1.250643935e-02f, 1.837470978e-01f, 1.710653305e-01f, 7.837899774e-02f,
    -1.240091622e-01f, 6.386595219e-02f, 3.377658129e-02f, 8.530107886e-02f, 1.586910784e-01f, -2.143386006e-01f, -6.543117017e-02f, -4.178953171e-02f,
    6.074893102e-02f, 1.228746250e-01f, -1.824515313e-01f, 2.380839735e-02f, 4.535437003e-02f, 1.308693551e-02f, 1.223156601e-02f, -3.225710243e-02f,
    6.058494747e-02f, -4.134608060e-02f, 1.951917410e-01f, 1.350101829e-01f, 1.867197454e-02f, -1.032351777e-01f, 2.633306384e-02f, 1.097856537e-01f,
    9.110937268e-02f, 1.868166476e-01f, 5.659710616e-03f, 1.998681575e-01f, 5.785650387e-02f, 1.329026073e-01f, 1.661578715e-01f, 5.577107891e-02f,
    2.209367603e-01f, 3.723065928e-02f, 8.515203744e-02f, 9.642152116e-03f, -4.697536305e-02f, -1.491784584e-02f, -6.813234091e-02f, 1.542116404e-01f,
    -7.772365212e-02f, -7.075417787e-02f, 4.294163361e-02f, 9.640733153e-02f, -1.292260140e-01f, -3.034902364e-02f, 1.002485752e-01f, -4.933033511e-02f,
    4.818691313e-02f, 2.838016674e-02f, -4.218887538e-02f, 4.279362038e-02f, -1.387141552e-02f, 1.981289536e-01f, 1.883922964e-01f, -9.991846234e-02f,
    5.052119121e-02f, 2.255171835e-01f, 1.490885764e-01f, 6.084217131e-02f, -2.777425945e-01f, -4.444808140e-02f, 8.893422037e-02f, 1.182530671e-01f,
    -1.618432626e-02f, -1.696073413e-01f, 1.079440564e-01f, 5.067793652e-02f, -9.117480367e-02f, 5.069722608e-02f, -1.820850745e-02f, 1.080024093e-01f,
    -1.055771634e-01f, -5.779084191e-02f, -3.706153482e-02f, 1.270106286e-01f, 1.940179989e-02f, -1.919131577e-01f, -1.071285158e-01f, -7.345559448e-02f,
    2.082124949e-01f, 9.005749971e-02f, -2.004125714e-01f, -7.081398368e-02f, -1.683030427e-01f, 1.597376317e-01f, -5.596412346e-03f, -5.441931263e-02f,
    -9.927464277e-02f, -2.151509747e-02f, -2.551813796e-02f, -6.725614518e-02f, -5.163963512e-02f, -2.652315050e-02f, 1.004518345e-01f, 1.300134510e-01f,
    2.924310789e-02f, -9.900265187e-02f, -9.460493922e-03f, 1.287572682e-01f, 1.458005160e-01f, -4.652683064e-02f, -1.743748933e-01f, 8.177523501e-03f,
    -1.304188650e-02f, 1.294225007e-01f, 3.649846464e-02f, 7.947993279e-02f, -1.072370410e-01f, -2.366760187e-02f, -4.505374935e-03f, 1.006525680e-01f,
    2.521971986e-02f, 6.115494296e-02f, 3.169043735e-02f, 1.326479297e-02f, -1.171640009e-01f, -8.694050461e-02f, -5.119340122e-02f, 9.743970819e-03f,
    -1.739753038e-02f, -1.969840229e-01f, -8.616170287e-02f, -7.930914313e-02f, 6.014275178e-02f, 4.374803230e-02f, 1.052691042e-02f, 1.298922598e-01f,
    3.604621440e-02f, -6.828171015e-02f, 3.595160320e-02f, 1.196378563e-02f, 3.124864995e-01f, 1.915835440e-01f, 9.187375754e-02f, -5.556067079e-02f,
    -8.473424613e-02f, 1.714321971e-01f, 1.995183676e-01f, 1.433191895e-01f, -1.192376018e-01f, 1.068669707e-01f, 1.906183958e-01f, 1.340378523e-01f,
    3.395327181e-02f, -4.176117852e-02f, -5.996751413e-02f, 2.903123200e-01f, 4.101513326e-02f, -1.565068727e-03f, -5.368703604e-02f, 1.533839554e-01f,
    1.089837328e-01f, -3.749038652e-02f, -7.973237336e-02f, -1.068724543e-01f, 1.554008126e-01f, -5.895945430e-02f, 1.050918102e-01f, -6.545705348e-02f,
    -2.273186445e-01f, -6.004260853e-02f, 1.524156034e-01f, 1.255144477e-01f, -7.803988457e-02f, 4.146442190e-02f, 1.256542653e-01f, 5.188998207e-02f,
    1.367504448e-01f, 1.960849389e-02f, -9.499437176e-03f, -4.069872200e-02f, 1.119464338e-01f, 1.986475848e-02f, -1.227134094e-01f, -1.580770165e-01f,
    6.589221954e-02f, 9.673573822e-02f, 1.346296966e-01f, 9.492009878e-03f, -7.658841461e-02f, -5.277716368e-02f, -9.228099883e-02f, 3.252839297e-02f,
    4.531852901e-02f, 2.586458437e-02f, -6.272352487e-02f, 6.641580164e-02f, 5.175116658e-02f, 9.494604915e-02f, 5.836531892e-02f, -1.353325546e-01f,
    3.564999998e-02f, 1.922345310e-01f, -8.950176835e-02f, -2.524673566e-02f, -3.245471045e-02f, 7.690983266e-02f, 5.814891681e-02f, 2.043998241e-01f,
    -1.483744085e-01f, 4.736410081e-02f, 1.097504124e-01f, 2.183968127e-01f, 2.290240675e-01f, -1.132205203e-01f, -1.323170811e-01f, -4.687118903e-02f,
    1.314428896e-01f, 1.304020435e-01f, 1.873619556e-01f, -1.793230623e-01f, -1.215623915e-01f, -3.571509197e-02f, 7.442206144e-02f, -1.863986999e-02f
};

const float head_bn_w[16] = {
    1.007133126e+00f, 9.497375488e-01f, 9.573953748e-01f, 1.081903100e+00f, 1.013792157e+00f, 9.628901482e-01f, 9.690294862e-01f, 1.003306508e+00f,
    8.508461118e-01f, 1.212399721e+00f, 1.123597264e+00f, 9.896929264e-01f, 8.628977537e-01f, 1.023073792e+00f, 1.025120735e+00f, 1.024721026e+00f
};

const float head_bn_b[16] = {
    -7.941505313e-02f, -3.711533919e-02f, -1.777116768e-02f, -1.199042201e-01f, -3.194781765e-02f, -1.389620602e-01f, 9.341066331e-02f, 7.235053927e-02f,
    2.359622270e-01f, 2.390785068e-01f, -1.063755434e-02f, 6.432628632e-02f, 5.077754706e-02f, 1.938348264e-01f, 1.466160119e-01f, 1.969366074e-01f
};

const float head_bn_mean[16] = {
    -2.653104067e+00f, 3.505393744e+00f, 5.126784801e+00f, 2.568871975e+00f, 3.251240969e+00f, -1.932281613e+00f, -4.631433964e+00f, -1.757990241e+00f,
    -6.627787590e+00f, -2.214724541e+00f, 1.836321235e+00f, -1.519919634e+00f, -2.207880020e+00f, -3.067489624e+00f, -2.200600863e+00f, -2.741137505e+00f
};

const float head_bn_var[16] = {
    9.774968147e+00f, 1.178211021e+01f, 2.362193108e+01f, 6.381129265e+00f, 1.055866241e+01f, 5.010668278e+00f, 2.415155983e+01f, 3.990600348e+00f,
    4.096455002e+01f, 5.895740032e+00f, 3.967762947e+00f, 2.896921873e+00f, 5.864999771e+00f, 1.135274124e+01f, 4.670859814e+00f, 8.597067833e+00f
};

const float stage0_block0_main_conv1x1_w[128] = {
    6.493617892e-01f, -2.145658731e-01f, 2.633234859e-01f, -6.917648911e-01f, 7.945091277e-02f, -8.703745157e-02f, -4.687412679e-01f, -1.568031162e-01f,
    -1.266730130e-01f, 3.662905693e-01f, -1.450848341e+00f, 2.435635775e-02f, -3.856751323e-01f, 1.912594736e-01f, 3.928549886e-01f, -5.749775171e-01f,
    2.990229726e-01f, -9.328196645e-01f, 7.465773961e-04f, -4.539617300e-01f, -2.528112233e-01f, 1.776434481e-01f, -2.015265077e-01f, 8.743517846e-02f,
    -1.103256866e-01f, 6.411301494e-01f, -7.387177646e-02f, 1.050456539e-01f, 1.233446598e+00f, 2.593008280e-01f, 4.246869683e-02f, -4.614875615e-01f,
    -6.827556491e-01f, 9.728082269e-02f, 5.910836458e-01f, -1.888503730e-01f, -2.996458411e-01f, -3.597037792e-01f, -8.327841014e-02f, -1.718497127e-01f,
    -4.883762598e-01f, -1.116420627e+00f, -2.133163363e-01f, 1.076304391e-01f, 1.642873287e-01f, 7.836569846e-02f, -1.871334463e-01f, 3.405734524e-02f,
    1.834965870e-02f, 2.569449842e-01f, -2.079543322e-01f, -2.049509585e-01f, -1.151970103e-01f, -1.692839414e-01f, 2.539377511e-01f, 8.348619342e-01f,
    3.549638987e-01f, 5.349123478e-02f, -2.454890460e-01f, -3.742827475e-01f, 4.194074273e-01f, 4.979732633e-01f, 2.444382310e-01f, 1.962518692e-01f,
    -1.418618858e-01f, 5.164495111e-01f, 1.434542686e-01f, -5.794963837e-01f, 1.195055842e-01f, -5.383231044e-01f, -5.268321037e-01f, -8.062696457e-02f,
    5.653991178e-02f, 4.829030856e-02f, -1.294129848e+00f, 5.689797997e-01f, 8.507986069e-01f, -6.217861176e-01f, -8.462812006e-02f, -4.117965400e-01f,
    2.960289419e-01f, 1.598769307e+00f, -8.727704734e-02f, 4.279692471e-01f, 1.042172432e+00f, 5.730347037e-01f, -9.992077947e-02f, -3.568948060e-02f,
    -3.951529041e-02f, 4.683407843e-01f, 4.097875953e-01f, -7.231848240e-01f, 7.633340955e-01f, -3.839832917e-02f, 2.572108805e-02f, -1.316239964e-02f,
    -2.420282364e-01f, 2.146755755e-01f, -6.390815973e-01f, 1.426062584e-01f, -3.424473405e-01f, 7.286038250e-02f, -3.442073166e-01f, -1.604988575e-01f,
    5.874402523e-01f, -7.347380519e-01f, 5.683054328e-01f, -1.027933061e-01f, 3.521488905e-01f, 3.911392093e-01f, -1.336525202e+00f, -1.203759789e+00f,
    -1.051744819e+00f, 7.225374579e-01f, 3.485328555e-01f, 6.277253032e-01f, 7.136372924e-01f, -6.670694351e-01f, 4.452014863e-01f, 7.485284209e-01f,
    -1.710735410e-01f, 5.204513669e-01f, 4.772636592e-01f, -2.069856375e-01f, -1.854781806e-01f, -9.587570429e-01f, 6.092956662e-01f, -8.319520354e-01f
};

const float stage0_block0_main_bn1_w[8] = {
    7.788851261e-01f, 7.224142551e-01f, 8.283838034e-01f, 6.129372120e-01f, 6.395594478e-01f, 1.018036008e+00f, 9.304790497e-01f, 7.498089671e-01f
};

const float stage0_block0_main_bn1_b[8] = {
    2.350822836e-01f, 2.647883892e-01f, 1.911813170e-01f, 2.821120024e-01f, 2.839415669e-01f, -7.580517977e-02f, -1.298016161e-01f, -2.017811537e-01f
};

const float stage0_block0_main_bn1_mean[8] = {
    -8.747474551e-01f, 2.080319971e-01f, -1.313085079e+00f, 8.778451085e-01f, -9.256013036e-01f, 1.724276185e+00f, -1.428955436e+00f, 5.206325054e-01f
};

const float stage0_block0_main_bn1_var[8] = {
    2.084091902e+00f, 3.247448921e+00f, 2.573316813e+00f, 2.261625290e+00f, 1.105892301e+00f, 3.265775681e+00f, 3.045923233e+00f, 4.573325634e+00f
};

const float stage0_block0_main_dwconv_w[24] = {
    2.614189088e-01f, 3.026981354e-01f, 2.348410785e-01f, 9.343004227e-01f, 2.620032728e-01f, -1.037378833e-01f, 4.478934109e-01f, -1.578827053e-01f,
    -4.335292801e-02f, 2.466215342e-01f, 5.888044089e-02f, -4.209112227e-01f, 1.233839616e-02f, 2.750555873e-01f, 2.174850106e-01f, -3.048023880e-01f,
    8.276493102e-02f, -1.466549337e-01f, -2.586252093e-01f, -1.295129061e-01f, -4.083255231e-01f, 1.978306919e-01f, -5.670214295e-01f, -4.926835001e-02f
};

const float stage0_block0_main_bn2_w[8] = {
    1.033578157e+00f, 6.840628386e-01f, 7.625519037e-01f, 5.938274264e-01f, 6.848592162e-01f, 9.861931801e-01f, 3.784293532e-01f, 7.181721330e-01f
};

const float stage0_block0_main_bn2_b[8] = {
    8.746530116e-02f, 3.024888337e-01f, 1.801715344e-01f, 3.405157626e-01f, 2.457089424e-01f, 1.112937331e-01f, 4.001159072e-01f, 1.999855489e-01f
};

const float stage0_block0_main_bn2_mean[8] = {
    3.450491726e-01f, 4.629770815e-01f, 9.800931066e-02f, -3.666894510e-02f, 2.106995136e-01f, -1.294393837e-01f, -2.251646370e-01f, -9.305468202e-02f
};

const float stage0_block0_main_bn2_var[8] = {
    7.045324147e-02f, 3.037351072e-01f, 1.233218051e-02f, 1.481805276e-02f, 2.648092434e-02f, 7.127143443e-02f, 5.642386898e-02f, 3.969383985e-02f
};

const float stage0_block0_expand_bn_w[40] = {
    1.018022537e+00f, 1.013093591e+00f, 1.241955042e+00f, 1.209895015e+00f, 9.496479034e-01f, 1.181089282e+00f, 1.335500836e+00f, 8.795205355e-01f,
    9.785785079e-01f, 1.180114508e+00f, 9.735223055e-01f, 9.650484324e-01f, 9.824835658e-01f, 9.566585422e-01f, 9.933946133e-01f, 9.962906241e-01f,
    1.175876617e+00f, 7.838768363e-01f, 8.719021082e-01f, 9.428164363e-01f, 7.016579509e-01f, 8.330645561e-01f, 8.996218443e-01f, 9.192708731e-01f,
    1.348186255e+00f, 9.769520164e-01f, 8.014837503e-01f, 8.366663456e-01f, 1.152543426e+00f, 1.014167786e+00f, 9.856820107e-01f, 1.091611147e+00f,
    1.040496945e+00f, 9.869503379e-01f, 9.070795178e-01f, 1.050250173e+00f, 8.776024580e-01f, 9.186100960e-01f, 8.750822544e-01f, 9.589763880e-01f
};

const float stage0_block0_expand_bn_b[40] = {
    1.997583508e-01f, 2.246300131e-01f, 2.055506855e-01f, 1.418858320e-01f, -2.893733084e-01f, 9.154736996e-02f, 3.506469429e-01f, 1.734786481e-02f,
    2.535696626e-01f, 2.241052091e-01f, -3.493897617e-02f, 6.683724374e-02f, -7.700564712e-02f, 7.570771873e-02f, 1.532869339e-01f, 8.599028736e-02f,
    3.437066376e-01f, -9.857008606e-02f, -2.518145926e-02f, 2.292445749e-01f, -1.969666332e-01f, 7.446379401e-03f, 1.746835560e-01f, 1.478247344e-01f,
    1.475404203e-01f, 4.567443579e-02f, -1.893475801e-01f, -1.103009805e-01f, 1.873863488e-01f, 2.194668166e-02f, 2.342811972e-02f, 1.071786359e-01f,
    1.123236716e-01f, 7.952567935e-02f, -3.831000254e-02f, 1.386683583e-01f, -1.261627972e-01f, -5.147498846e-02f, -6.936275214e-02f, -5.127524212e-02f
};

const float stage0_block0_expand_bn_mean[40] = {
    4.258352816e-01f, 5.056467652e-01f, 5.095366836e-01f, 5.225377083e-01f, 4.428614378e-01f, 3.303360045e-01f, 4.547743499e-01f, 4.584788382e-01f,
    4.121687710e-01f, 4.220119715e-01f, 3.575827777e-01f, 4.064977765e-01f, 4.616869092e-01f, 4.673591852e-01f, 5.110775828e-01f, 3.896797597e-01f,
    4.579508901e-01f, 4.314678907e-01f, 4.194994569e-01f, 5.534848571e-01f, 3.866902590e-01f, 4.157817364e-01f, 3.952952027e-01f, 4.903975725e-01f,
    4.276753962e-01f, 4.273356497e-01f, 4.405337572e-01f, 4.077555537e-01f, 4.230942428e-01f, 4.148179591e-01f, 4.504302442e-01f, 4.184138775e-01f,
    4.159329534e-01f, 4.079622924e-01f, 4.521225393e-01f, 4.091256857e-01f, 3.963369429e-01f, 3.898641467e-01f, 3.870147169e-01f, 4.720262885e-01f
};

const float stage0_block0_expand_bn_var[40] = {
    3.752882183e-01f, 4.251141846e-01f, 4.357940257e-01f, 4.386924505e-01f, 3.888010681e-01f, 3.090649843e-01f, 3.866374791e-01f, 4.036787152e-01f,
    3.335610628e-01f, 3.428268135e-01f, 2.253420949e-01f, 2.309625894e-01f, 2.479591668e-01f, 2.292657048e-01f, 2.577947974e-01f, 1.087644026e-01f,
    1.264238507e-01f, 1.036595628e-01f, 1.062603295e-01f, 2.165552378e-01f, 2.350188643e-01f, 2.584522069e-01f, 2.385484278e-01f, 2.942373157e-01f,
    2.278326005e-01f, 5.944352224e-02f, 6.062693521e-02f, 6.516334414e-02f, 6.247749925e-02f, 6.485971063e-02f, 9.356260300e-02f, 1.019903570e-01f,
    9.987103194e-02f, 9.935892373e-02f, 8.556420356e-02f, 4.796034470e-02f, 5.119748786e-02f, 5.286872759e-02f, 5.393115059e-02f, 6.965606660e-02f
};

const float stage0_block0_br_dwconv_w[24] = {
    2.616307139e-01f, 2.512279153e-01f, -6.122357845e-01f, -5.261525139e-02f, 9.953451902e-02f, 1.052679494e-01f, 7.347771525e-02f, -1.109741554e-01f,
    3.980774283e-01f, 1.125596464e-02f, -4.117180407e-01f, -1.825391352e-01f, -7.788866758e-02f, -4.155813530e-02f, -2.055767775e-01f, -1.984732151e-01f,
    1.856083125e-01f, 3.486732841e-01f, -1.135479286e-02f, 1.179319024e-01f, 2.674115896e-01f, -2.156697363e-01f, -2.685771585e-01f, -2.584494352e-01f
};

const float stage0_block0_br_bn_w[8] = {
    8.874004483e-01f, 1.011723995e+00f, 9.637144208e-01f, 7.589505315e-01f, 6.209505796e-01f, 5.954018235e-01f, 9.451521039e-01f, 9.363487363e-01f
};

const float stage0_block0_br_bn_b[8] = {
    -4.811575636e-02f, -1.248167679e-01f, 8.090201020e-02f, -2.040586323e-01f, -3.831215948e-02f, -6.071081385e-02f, -1.254298538e-01f, -4.357757568e-01f
};

const float stage0_block0_br_bn_mean[8] = {
    -2.314461023e-02f, 7.600773871e-02f, 1.666873544e-01f, -2.370895892e-01f, -1.351853460e-01f, 1.395233572e-01f, 1.843883842e-01f, -2.711458802e-01f
};

const float stage0_block0_br_bn_var[8] = {
    8.107452840e-02f, 9.267744608e-03f, 1.969210990e-02f, 7.473184727e-03f, 1.281722356e-02f, 6.552451290e-03f, 2.707261406e-02f, 1.068478823e-02f
};

const float stage0_block0_br_proj_w[64] = {
    1.968160085e-02f, -2.611264586e-01f, -5.765921995e-02f, -2.093245834e-01f, 7.860500216e-01f, 6.506269574e-01f, -6.445651054e-01f, 1.119714975e+00f,
    7.198724747e-01f, 1.339963377e-01f, 1.371963415e-02f, 2.768565714e-01f, -3.486235142e-01f, 1.154374853e-01f, -2.673740685e-01f, -4.517257214e-02f,
    -2.094545215e-01f, -5.599772930e-01f, 2.018268555e-01f, -4.974086583e-01f, 3.274222612e-01f, 5.732221603e-01f, -1.949007213e-01f, -3.949093521e-01f,
    2.614367306e-01f, 1.125136137e+00f, 5.423483625e-02f, -3.986758590e-01f, 7.630554587e-02f, 3.386431932e-01f, 7.186542153e-01f, -4.845101237e-01f,
    9.519439191e-02f, 7.039448619e-01f, 9.887264371e-01f, 2.907753587e-01f, -4.405246377e-01f, 1.068795398e-01f, -1.172288358e-01f, 2.016546130e-01f,
    -7.081860304e-01f, -3.621965647e-01f, -1.699618101e-01f, -4.971125424e-01f, -7.435139269e-02f, -2.329227179e-01f, -7.999502122e-02f, 3.416905999e-01f,
    -5.460709929e-01f, -4.233186543e-01f, 7.590661049e-01f, -4.358983636e-01f, 7.674205899e-01f, -1.377743036e-01f, -3.323244154e-01f, -1.635766961e-02f,
    1.731691957e-01f, 1.655217260e-01f, -9.737918377e-01f, 2.654354870e-01f, -8.708540201e-01f, -4.660849273e-01f, 8.981546164e-01f, 6.529473066e-01f
};

const float stage0_block1_main_conv1x1_w[64] = {
    -4.340752959e-01f, -8.517755866e-01f, 6.915071607e-01f, -2.660391629e-01f, -1.046697497e-01f, -7.513427138e-01f, 1.055261791e-01f, -6.643287092e-02f,
    -1.394736469e-01f, 4.349499345e-01f, -7.487885356e-01f, -1.647654176e-01f, 2.248236537e-02f, 4.638064802e-01f, 6.042647362e-01f, -4.045202583e-02f,
    5.273609161e-01f, -6.874348521e-01f, -4.652364179e-02f, -1.721491665e-01f, -3.560282663e-02f, -5.707959831e-02f, -1.459862739e-01f, 3.047632277e-01f,
    -4.929690063e-01f, 9.421789050e-01f, 1.827767193e-01f, -1.953025758e-01f, -1.209560484e-01f, -1.932741553e-01f, 1.140147001e-01f, -1.121886224e-01f,
    -5.029587746e-01f, -4.547173381e-01f, -7.366557419e-02f, -1.522202343e-01f, 1.814757735e-01f, 6.224572659e-01f, 5.089131594e-01f, 2.588880956e-01f,
    4.924397171e-01f, 2.099470049e-01f, -9.524844885e-01f, 1.088481024e-01f, 9.795971215e-02f, -5.220080614e-01f, 9.591797739e-02f, 3.901895285e-01f,
    4.034973085e-01f, -1.961243004e-01f, 1.050565615e-01f, -1.119153738e+00f, -6.357675195e-01f, 9.718891382e-01f, -2.329705507e-01f, 3.805996478e-01f,
    3.358414173e-01f, 6.208150387e-01f, -8.152291179e-02f, -2.509927750e-01f, -9.291272759e-01f, 9.510528296e-02f, -9.883388132e-02f, -4.424946904e-01f
};

const float stage0_block1_main_bn1_w[8] = {
    1.233007789e+00f, 1.525501251e+00f, 1.105526447e+00f, 1.109567046e+00f, 9.691115618e-01f, 8.830511570e-01f, 1.086875796e+00f, 9.690780044e-01f
};

const float stage0_block1_main_bn1_b[8] = {
    -9.008663706e-03f, -3.430783749e-02f, 3.861077130e-02f, -5.289037246e-03f, 1.208887920e-01f, 1.134021431e-01f, 4.286897928e-02f, 8.525534719e-02f
};

const float stage0_block1_main_bn1_mean[8] = {
    -1.348042250e+00f, -7.356790826e-03f, -2.214289457e-01f, -1.072530225e-01f, -5.849986672e-01f, 7.688202262e-01f, -1.858812690e+00f, -8.615788817e-01f
};

const float stage0_block1_main_bn1_var[8] = {
    1.313089490e+00f, 4.966853857e-01f, 5.065969825e-01f, 6.676136255e-01f, 4.431346655e-01f, 7.220146656e-01f, 1.249414802e+00f, 1.188570499e+00f
};

const float stage0_block1_main_dwconv_w[24] = {
    2.454558015e-02f, -3.783748746e-01f, -4.802771509e-01f, 1.559793111e-02f, -6.005474553e-02f, 5.567157269e-01f, 1.910485141e-02f, 2.531147599e-01f,
    -8.300198242e-03f, -1.682096869e-01f, 8.381601423e-02f, -4.051674306e-01f, 4.670674801e-01f, 1.557907462e-01f, 6.329535842e-01f, 4.016409218e-01f,
    2.371612340e-01f, -1.875483058e-02f, -3.335087746e-02f, -4.175616205e-01f, 1.141261235e-01f, -2.704743110e-02f, 5.417851210e-01f, -2.661227584e-01f
};

const float stage0_block1_main_bn2_w[8] = {
    1.133586287e+00f, 1.231953144e+00f, 1.061952710e+00f, 7.374702096e-01f, 5.974156260e-01f, 1.093009591e+00f, 6.024249196e-01f, 1.134971023e+00f
};

const float stage0_block1_main_bn2_b[8] = {
    5.087199435e-02f, 1.011795271e-02f, -1.553092385e-03f, 2.194010317e-01f, 3.536778092e-01f, 4.303253815e-02f, 2.480222434e-01f, 6.490951777e-02f
};

const float stage0_block1_main_bn2_mean[8] = {
    -3.674035668e-01f, 2.861585021e-01f, 1.046285704e-01f, -1.742356569e-01f, 4.522701502e-01f, 2.403129637e-01f, -1.402076632e-01f, 9.868036956e-02f
};

const float stage0_block1_main_bn2_var[8] = {
    1.404717714e-01f, 2.535369098e-01f, 1.870384999e-02f, 1.554548889e-01f, 1.692402512e-01f, 1.251854151e-01f, 3.413049877e-02f, 5.119772628e-02f
};

const float stage0_block1_expand_bn_w[40] = {
    9.100111723e-01f, 9.192675352e-01f, 9.497144222e-01f, 7.087211013e-01f, 1.144993544e+00f, 8.473370075e-01f, 9.906783700e-01f, 1.355417371e+00f,
    1.302108407e+00f, 1.080690503e+00f, 1.124253154e+00f, 7.329171300e-01f, 8.849908113e-01f, 1.139170289e+00f, 9.674888849e-01f, 9.476736188e-01f,
    1.050038099e+00f, 6.321954727e-01f, 9.116130471e-01f, 6.162217259e-01f, 9.573075771e-01f, 6.657127142e-01f, 1.108311653e+00f, 7.528793216e-01f,
    8.554338813e-01f, 1.015329957e+00f, 1.041718602e+00f, 1.134304285e+00f, 9.952732325e-01f, 1.302435994e+00f, 7.691249251e-01f, 1.067346811e+00f,
    7.875516415e-01f, 7.980028987e-01f, 9.305237532e-01f, 1.080428004e+00f, 1.167948365e+00f, 1.234760046e+00f, 1.058011174e+00f, 1.153860569e+00f
};

const float stage0_block1_expand_bn_b[40] = {
    -7.706820965e-02f, -1.363046765e-01f, 1.707470603e-02f, -2.575874925e-01f, 1.526799798e-01f, -1.809487045e-01f, 3.772828877e-01f, 1.986492872e-01f,
    1.354748458e-01f, -2.300604135e-01f, -1.163389236e-01f, -2.587495744e-02f, -8.568582684e-02f, 9.010140598e-02f, 4.845022783e-02f, -1.464122534e-02f,
    -1.676479131e-01f, -3.107893765e-01f, 2.997279540e-02f, -1.751543880e-01f, -1.252359748e-01f, -2.414692938e-02f, 1.342225820e-01f, 1.228319481e-01f,
    3.447383642e-02f, 4.319351912e-02f, 7.491318882e-02f, 3.595665097e-01f, 1.172117144e-01f, -8.534529060e-02f, -2.358417660e-01f, 1.720434427e-01f,
    -1.213023737e-01f, -7.873030752e-02f, -3.548666462e-02f, 2.780991495e-01f, 1.805704981e-01f, 1.913853437e-01f, -6.419216096e-02f, 1.719018258e-02f
};

const float stage0_block1_expand_bn_mean[40] = {
    5.376706719e-01f, 5.371301770e-01f, 5.302714109e-01f, 5.068238974e-01f, 5.433604717e-01f, 7.331245542e-01f, 3.218816221e-01f, 4.887095392e-01f,
    3.793797493e-01f, 3.529366255e-01f, 3.585173488e-01f, 2.358052135e-01f, 5.159672499e-01f, 4.165930152e-01f, 3.313086033e-01f, 3.766531944e-01f,
    4.539193809e-01f, 3.916387856e-01f, 3.970032036e-01f, 4.326761663e-01f, 3.215478659e-01f, 4.817031622e-01f, 4.241245091e-01f, 5.552105904e-01f,
    3.156518340e-01f, 2.697673142e-01f, 4.555124342e-01f, 4.573843479e-01f, 4.417525530e-01f, 3.384711742e-01f, 3.103975058e-01f, 5.116663575e-01f,
    3.654306233e-01f, 3.524721265e-01f, 4.693861306e-01f, 3.310195506e-01f, 6.312711835e-01f, 2.334906608e-01f, 3.708223999e-01f, 3.859345317e-01f
};

const float stage0_block1_expand_bn_var[40] = {
    2.481443435e-01f, 2.769259810e-01f, 2.822091579e-01f, 2.846169174e-01f, 2.766670883e-01f, 1.826601028e+00f, 4.937269092e-01f, 8.645153642e-01f,
    8.505933881e-01f, 8.891670704e-01f, 5.939170718e-01f, 3.777229786e-01f, 1.182540774e+00f, 8.895902038e-01f, 4.912868440e-01f, 5.645835027e-02f,
    4.179642349e-02f, 5.203329772e-02f, 5.112951621e-02f, 4.395703599e-02f, 2.337260097e-01f, 3.083593845e-01f, 3.045806587e-01f, 3.482216001e-01f,
    2.020932436e-01f, 5.905745029e-01f, 8.765942454e-01f, 9.058572054e-01f, 9.773659706e-01f, 7.319059372e-01f, 9.676660597e-02f, 9.656205773e-02f,
    1.119464561e-01f, 1.012881696e-01f, 1.237202883e-01f, 7.306519747e-01f, 1.563679457e+00f, 3.546520770e-01f, 6.267036796e-01f, 7.478412390e-01f
};

const float stage0_block1_br_dwconv_w[24] = {
    -8.489371091e-02f, -5.151774883e-01f, -4.481709749e-02f, -3.962654173e-01f, 4.927006960e-01f, -7.874490321e-02f, 8.381513506e-02f, -2.290398777e-01f,
    -4.707591534e-01f, -3.421553597e-02f, 2.827060819e-01f, 1.186877638e-01f, -8.463863730e-01f, 7.606955618e-02f, 1.668792814e-01f, -2.928582728e-01f,
    6.282816827e-02f, -3.973309323e-02f, -2.021753639e-01f, -1.412696391e-01f, -2.860235870e-01f, 1.183729526e-02f, -3.728536069e-01f, -8.958574384e-02f
};

const float stage0_block1_br_bn_w[8] = {
    1.042074084e+00f, 9.402339458e-01f, 1.048393965e+00f, 8.125459552e-01f, 1.295156121e+00f, 6.923280954e-01f, 6.737412810e-01f, 8.901624680e-01f
};

const float stage0_block1_br_bn_b[8] = {
    4.152502865e-03f, 7.573989034e-02f, -3.780879825e-02f, 1.514871418e-01f, 4.133817554e-02f, 2.178204358e-01f, -2.649664879e-01f, -1.374117881e-01f
};

const float stage0_block1_br_bn_mean[8] = {
    -2.660869658e-01f, 7.927765138e-03f, -1.483217031e-01f, 9.527955204e-02f, -1.912737787e-01f, -9.449801594e-02f, -2.365172058e-01f, -1.724208593e-01f
};

const float stage0_block1_br_bn_var[8] = {
    5.203945935e-02f, 3.972404171e-03f, 7.617315650e-02f, 1.760850311e-03f, 1.274678707e-01f, 4.625510797e-02f, 1.880055480e-02f, 5.509970710e-02f
};

const float stage0_block1_br_proj_w[64] = {
    3.497363031e-01f, -7.684528232e-01f, 4.281540513e-01f, 5.129216239e-02f, 2.325932868e-02f, -2.044204026e-01f, 3.582114577e-01f, -2.350779176e-01f,
    1.812588051e-02f, 1.345106363e-01f, -1.889167875e-01f, 1.110846102e-01f, -5.434987321e-02f, 1.074547648e+00f, -4.000571668e-01f, -1.114709258e+00f,
    9.024022818e-01f, -4.214641452e-01f, 2.417736202e-01f, 5.843482018e-01f, -3.230265379e-01f, 1.361703314e-02f, -5.136690661e-02f, 6.125573516e-01f,
    -3.249835670e-01f, 1.460577548e-01f, 2.981685996e-01f, -3.823550940e-01f, -1.672417521e-01f, 1.832324713e-01f, -5.235441327e-01f, 5.310248211e-02f,
    -1.368450467e-02f, -7.866929173e-01f, 3.718986511e-01f, 3.136167824e-01f, 1.635516763e+00f, -1.154119521e-01f, 4.720830023e-01f, -1.010971427e+00f,
    -6.024616957e-01f, 2.388813049e-01f, -8.825173378e-01f, -2.431090772e-01f, 4.127910435e-01f, 1.336192191e-01f, 3.681406379e-01f, 6.980795860e-01f,
    2.133590430e-01f, 3.571274923e-03f, 5.364798903e-01f, -3.344356418e-01f, -3.325375915e-01f, -8.857128024e-02f, 4.287725389e-01f, -1.934436560e-01f,
    7.534384131e-01f, -4.207330942e-01f, -2.779784203e-01f, 7.479124069e-01f, 5.698238015e-01f, -1.884048879e-01f, 1.594348252e-01f, 1.366718113e-01f
};

const float stage1_block0_main_conv1x1_w[96] = {
    -7.869361043e-01f, -6.042081118e-01f, 6.219823360e-01f, 2.057610154e-01f, -1.024009660e-01f, -2.381893694e-01f, 7.077326775e-01f, -5.992464423e-01f,
    -9.515263885e-02f, -5.669290423e-01f, 2.004754096e-01f, -2.997992635e-01f, 2.024231255e-01f, 4.228326380e-01f, 3.323223814e-02f, 7.190506458e-01f,
    6.991133094e-01f, -2.576529384e-01f, -1.031592935e-01f, -3.956708908e-01f, 3.865205348e-01f, 6.274675727e-01f, 3.162142634e-01f, 2.740323544e-01f,
    8.436051011e-01f, -7.039055973e-02f, 7.543635368e-01f, -5.580558777e-01f, 6.175116077e-02f, 7.823601365e-01f, 3.160059750e-01f, 2.823340297e-01f,
    -2.756012678e-01f, 8.630619198e-02f, -2.058920562e-01f, 4.756971300e-01f, -3.531840146e-01f, -5.034249276e-02f, 1.316507906e-01f, 7.718969584e-01f,
    4.447405338e-01f, 5.479921401e-02f, 1.910829172e-02f, -1.563425958e-01f, -3.057549596e-01f, 2.675464153e-01f, -5.457334518e-01f, 6.717344522e-01f,
    -1.687587202e-01f, -6.610524654e-01f, -6.022810936e-01f, 6.049200892e-01f, -4.113207161e-01f, 4.312992394e-01f, 1.327440143e-01f, -1.590082794e-02f,
    -3.821156323e-01f, 5.511542559e-01f, -2.723347843e-01f, 4.108145833e-01f, -3.771077693e-01f, 5.596833304e-02f, 5.444537401e-01f, 8.073502779e-01f,
    8.463945240e-02f, 1.098638058e+00f, 8.688600361e-02f, -3.930706382e-01f, -2.326177806e-01f, 8.685035259e-02f, 1.595268101e-01f, -1.334447861e-01f,
    1.227210090e-01f, 9.565370083e-01f, -7.068457454e-02f, 3.378782272e-01f, -3.895820677e-02f, 4.905042052e-01f, 2.028476298e-01f, -4.763700664e-01f,
    1.376688778e-01f, -2.948813736e-01f, 3.639964163e-01f, -8.045732975e-01f, 4.154133201e-01f, -2.315222323e-01f, 1.136520803e-01f, -4.949463904e-01f,
    9.267228246e-01f, -4.286846220e-01f, 1.783896983e-01f, 1.432803720e-01f, -1.135282442e-01f, 7.045273185e-01f, 4.536628351e-02f, 3.361404240e-01f
};

const float stage1_block0_main_bn1_w[12] = {
    9.500043392e-01f, 6.999045610e-01f, 1.085276008e+00f, 7.291123867e-01f, 8.762496114e-01f, 1.147611260e+00f, 3.138346672e-01f, 4.919801056e-01f,
    4.884584248e-01f, 8.867835402e-01f, 6.108425260e-01f, 1.073159218e+00f
};

const float stage1_block0_main_bn1_b[12] = {
    1.541182399e-01f, 2.732880712e-01f, -4.560440406e-02f, 2.485771477e-01f, -1.625517011e-01f, 1.136963144e-01f, 4.365640283e-01f, 3.907906413e-01f,
    3.118312061e-01f, 2.026731223e-01f, 3.255204856e-01f, 1.565784812e-01f
};

const float stage1_block0_main_bn1_mean[12] = {
    -1.269469142e+00f, 8.676366210e-01f, 1.887587547e+00f, 2.722565413e+00f, 4.351952374e-01f, 5.417982936e-01f, -1.687885642e+00f, 1.013211846e+00f,
    4.664227068e-01f, 1.127363801e+00f, -4.064327180e-01f, 1.910609126e+00f
};

const float stage1_block0_main_bn1_var[12] = {
    4.890832901e+00f, 1.617041707e+00f, 1.980997324e+00f, 5.074000835e+00f, 1.286608100e+00f, 2.266997337e+00f, 1.703790784e+00f, 3.790285349e+00f,
    4.012415886e+00f, 3.954585075e+00f, 2.735047817e+00f, 3.304664850e+00f
};

const float stage1_block0_main_dwconv_w[36] = {
    4.565749317e-03f, -7.352475524e-01f, -7.250096183e-03f, 4.000105858e-01f, -4.302154481e-02f, 7.093834132e-02f, 2.001684308e-01f, 7.590264082e-02f,
    6.189032793e-01f, 3.866866231e-01f, 1.467984617e-01f, 4.267282318e-03f, 7.321433723e-02f, 2.821208239e-01f, -2.476758808e-01f, 9.343300015e-02f,
    -4.992896914e-01f, -3.963974118e-02f, -5.246411636e-02f, -6.487177312e-02f, 3.957907856e-01f, 1.223908812e-01f, 1.738425493e-01f, 4.125016928e-01f,
    -1.796197444e-01f, 3.173237443e-01f, 3.820224106e-01f, 1.343149245e-01f, -3.165225685e-01f, 3.857398629e-01f, 3.340754509e-01f, 3.989267945e-01f,
    6.166592240e-02f, 4.889779985e-01f, 3.986296356e-01f, -4.057770222e-02f
};

const float stage1_block0_main_bn2_w[12] = {
    6.985695958e-01f, 8.225679994e-01f, 9.373517632e-01f, 7.576131225e-01f, 9.471960068e-01f, 5.473062992e-01f, 3.158085644e-01f, 4.601341486e-01f,
    4.974944890e-01f, 8.174446225e-01f, 7.166309357e-01f, 1.089206815e+00f
};

const float stage1_block0_main_bn2_b[12] = {
    2.636806071e-01f, 2.168317735e-01f, 1.486076415e-01f, 2.264260352e-01f, 1.462392062e-01f, 3.952817321e-01f, 4.955434501e-01f, 4.050752521e-01f,
    4.355880916e-01f, 1.872296482e-01f, 2.745189667e-01f, 1.467620283e-01f
};

const float stage1_block0_main_bn2_mean[12] = {
    -3.262101710e-01f, 1.575949937e-01f, 2.597504258e-01f, 1.705401242e-01f, 1.747499593e-02f, -1.801499277e-01f, 1.307496578e-01f, 2.856180966e-01f,
    1.698605865e-01f, 9.509843588e-02f, 3.480483592e-01f, 2.920368314e-01f
};

const float stage1_block0_main_bn2_var[12] = {
    6.812240928e-02f, 3.718067706e-02f, 5.499466658e-01f, 1.149502099e-01f, 3.364385664e-02f, 1.837488562e-01f, 1.018464938e-02f, 9.719949961e-02f,
    6.784263998e-02f, 4.526007548e-02f, 7.617138326e-02f, 6.026887298e-01f
};

const float stage1_block0_expand_bn_w[60] = {
    1.062506318e+00f, 8.109107614e-01f, 7.248835564e-01f, 7.907955647e-01f, 1.025565147e+00f, 8.887307048e-01f, 8.288922310e-01f, 9.822432995e-01f,
    9.577630758e-01f, 1.008405805e+00f, 1.024799705e+00f, 1.502257109e+00f, 9.866280556e-01f, 1.073813438e+00f, 6.367424726e-01f, 9.635360241e-01f,
    9.064260721e-01f, 1.300061941e+00f, 1.144047379e+00f, 1.417295814e+00f, 7.467614412e-01f, 8.238211870e-01f, 1.028794289e+00f, 8.215804100e-01f,
    1.142688751e+00f, 1.136464715e+00f, 6.829912663e-01f, 7.731328011e-01f, 1.002363205e+00f, 8.976637721e-01f, 1.093304634e+00f, 8.186157346e-01f,
    1.010310769e+00f, 1.188815117e+00f, 1.398652554e+00f, 1.022140265e+00f, 1.123102188e+00f, 9.768925905e-01f, 1.535081744e+00f, 1.137880802e+00f,
    1.117935061e+00f, 1.011132240e+00f, 1.616902828e+00f, 8.078944683e-01f, 7.824423909e-01f, 6.392054558e-01f, 1.275428057e+00f, 7.936905026e-01f,
    7.814319134e-01f, 1.183912635e+00f, 9.349093437e-01f, 6.917434931e-01f, 1.045132518e+00f, 8.351114988e-01f, 1.212887168e+00f, 1.115850568e+00f,
    1.339001179e+00f, 9.687891006e-01f, 1.094985485e+00f, 5.897656083e-01f
};

const float stage1_block0_expand_bn_b[60] = {
    8.250511251e-03f, -3.141380474e-02f, -2.562144399e-01f, -1.499844044e-01f, 6.912463903e-02f, 4.325714707e-02f, -2.891857922e-02f, -8.335064352e-02f,
    -8.630148321e-02f, 1.421965212e-01f, -1.863644458e-02f, 1.225867495e-01f, 1.273252815e-01f, 7.337392867e-02f, 1.273284554e-01f, -2.007143795e-01f,
    -8.249212056e-03f, -8.173640072e-02f, 3.708977103e-01f, 4.954266846e-01f, -1.747019440e-01f, -3.013148531e-02f, 4.142165929e-02f, 2.272542268e-01f,
    1.566782892e-01f, 3.359453976e-01f, -5.647948384e-02f, -1.265142411e-01f, -1.764447093e-01f, -1.044046953e-01f, 2.503889501e-01f, 2.401478589e-01f,
    3.979573846e-01f, 7.775750477e-03f, 8.458098769e-01f, 6.327678561e-01f, 4.876971245e-01f, 4.631945789e-01f, 3.576057851e-01f, 2.855758555e-02f,
    5.417262316e-01f, 5.975672007e-01f, 5.694595575e-01f, 1.705280691e-01f, -1.707221866e-01f, 3.915930390e-01f, 1.601200849e-01f, 1.178483292e-02f,
    -2.756323814e-01f, 2.222574782e-03f, -2.622271888e-02f, -9.595585614e-02f, 1.976977885e-01f, -4.603999201e-03f, 1.399141550e-01f, -8.234359324e-02f,
    4.718912244e-01f, 7.337044924e-02f, 2.077438682e-01f, -4.482520521e-01f
};

const float stage1_block0_expand_bn_mean[60] = {
    3.996087909e-01f, 5.637156963e-01f, 4.678792953e-01f, 3.895418942e-01f, 3.609607816e-01f, 2.379935384e-01f, 2.454262525e-01f, 4.104503393e-01f,
    4.981963038e-01f, 5.756906867e-01f, 1.756051034e-01f, 2.456846982e-01f, 3.066986799e-01f, 3.490546346e-01f, 2.320410460e-01f, 1.557159871e-01f,
    2.808396816e-01f, 3.238918781e-01f, 3.410295248e-01f, 3.212271631e-01f, 2.177238166e-01f, 3.594852686e-01f, 2.093137056e-01f, 5.302938819e-01f,
    2.550135553e-01f, 4.972688556e-01f, 4.451535940e-01f, 4.595905542e-01f, 5.094799399e-01f, 5.236273408e-01f, 5.464991927e-01f, 4.550199807e-01f,
    5.353364348e-01f, 4.506399632e-01f, 5.018345714e-01f, 4.434282184e-01f, 4.532832205e-01f, 4.396757483e-01f, 3.687635958e-01f, 3.216390908e-01f,
    4.920266867e-01f, 5.222859383e-01f, 4.369735420e-01f, 4.197685719e-01f, 3.093391955e-01f, 5.540482998e-01f, 4.420449436e-01f, 1.969519705e-01f,
    1.717510968e-01f, 2.996200919e-01f, 2.747998536e-01f, 4.780061841e-01f, 5.961976647e-01f, 3.941190243e-01f, 5.695986152e-01f, 1.727242619e-01f,
    3.361499012e-01f, 3.022229373e-01f, 3.730980754e-01f, 3.285765946e-01f
};

const float stage1_block0_expand_bn_var[60] = {
    1.986683160e-01f, 2.377888113e-01f, 2.602134347e-01f, 2.445983142e-01f, 2.116279155e-01f, 2.758427262e-01f, 1.889529526e-01f, 5.020135045e-01f,
    6.646954417e-01f, 7.370169759e-01f, 4.492190480e-01f, 7.518092394e-01f, 9.803780317e-01f, 1.118517876e+00f, 7.465938926e-01f, 2.932058275e-01f,
    4.245940447e-01f, 6.621715426e-01f, 6.329707503e-01f, 6.450994611e-01f, 2.805140913e-01f, 6.112868190e-01f, 3.370667696e-01f, 7.772158980e-01f,
    3.821169138e-01f, 3.805267438e-02f, 5.543199554e-02f, 5.159916729e-02f, 4.665591940e-02f, 3.787819669e-02f, 1.127871946e-01f, 7.428682595e-02f,
    8.483995497e-02f, 6.381962448e-02f, 1.423063576e-01f, 1.780421734e-01f, 2.614886463e-01f, 2.775055170e-01f, 1.842073649e-01f, 1.429041773e-01f,
    2.934111357e-01f, 3.787997961e-01f, 2.396661192e-01f, 1.807745844e-01f, 1.154819652e-01f, 8.198410869e-01f, 8.176302314e-01f, 2.360630780e-01f,
    2.546902597e-01f, 4.462884963e-01f, 1.993995756e-01f, 2.671875358e-01f, 3.625416160e-01f, 1.939752102e-01f, 2.764612138e-01f, 6.145933270e-01f,
    1.044276476e+00f, 1.211091876e+00f, 1.206633449e+00f, 1.293038011e+00f
};

const float stage1_block0_br_dwconv_w[36] = {
    -1.586944461e-01f, -1.337580532e-01f, 2.193924189e-01f, -5.462444425e-01f, 1.083781421e-01f, -2.478298843e-01f, -3.371753991e-01f, 4.444906712e-01f,
    3.155697510e-02f, 1.266615093e-01f, 2.181589752e-01f, -7.107815146e-01f, -4.765526950e-02f, 4.071138799e-02f, 1.802573651e-01f, 7.292083502e-01f,
    1.187483817e-01f, -8.613205701e-02f, 8.306824416e-02f, -1.091967374e-01f, -6.235308051e-01f, -4.762344956e-01f, -2.797721140e-02f, 4.654912651e-02f,
    -2.554157972e-01f, 3.439197540e-01f, 1.559837610e-01f, -3.227654696e-01f, -7.844915986e-02f, -1.369481683e-01f, 1.469560117e-01f, -4.167386889e-02f,
    -3.790482581e-01f, 6.281900406e-02f, 1.950884759e-01f, 4.375435412e-01f
};

const float stage1_block0_br_bn_w[12] = {
    6.589629054e-01f, 8.744871020e-01f, 6.806176901e-01f, 1.202473044e+00f, 6.214592457e-01f, 8.276041746e-01f, 8.336498737e-01f, 1.317045927e+00f,
    8.071738482e-01f, 7.326748371e-01f, 1.215186000e+00f, 8.223538399e-01f
};

const float stage1_block0_br_bn_b[12] = {
    1.358787268e-01f, 4.734080750e-03f, 1.735499501e-01f, -5.394396558e-02f, -1.987273395e-01f, 1.826678962e-01f, -7.942109555e-02f, -5.268110335e-02f,
    -7.250369340e-02f, 3.192484379e-01f, -5.854492635e-02f, -2.995786369e-01f
};

const float stage1_block0_br_bn_mean[12] = {
    -2.979891002e-02f, -1.825385839e-01f, 3.479127213e-02f, -7.947342098e-02f, 4.733351618e-02f, 2.525808215e-01f, -3.941779137e-01f, -2.821726501e-01f,
    1.197492555e-01f, -1.801632345e-01f, -1.182609126e-01f, 1.623876989e-01f
};

const float stage1_block0_br_bn_var[12] = {
    2.946678782e-03f, 1.202055812e-01f, 1.341365129e-01f, 1.635298878e-01f, 4.711881746e-03f, 1.626327820e-02f, 5.267202854e-02f, 1.208366528e-01f,
    3.156378120e-02f, 6.623090059e-02f, 1.941231824e-02f, 1.490390748e-01f
};

const float stage1_block0_br_proj_w[144] = {
    -1.320323497e-01f, -1.040629625e+00f, -4.675012827e-01f, 1.341954246e-02f, -3.260393068e-02f, 4.715356529e-01f, -1.020330340e-01f, -2.455355823e-01f,
    -6.020219252e-02f, -9.130798578e-01f, -1.769475341e-01f, -1.421635598e-01f, 3.354914784e-01f, 4.086357951e-01f, -2.193750590e-01f, -2.473368645e-01f,
    -4.231801033e-01f, 3.824832141e-01f, 1.187516600e-01f, -5.522965193e-01f, -3.381846547e-01f, 9.582215548e-02f, 3.004885316e-01f, 3.527321219e-01f,
    -5.219161510e-01f, 1.274770219e-02f, -8.225790411e-02f, 3.793005943e-01f, -2.658036649e-01f, 6.688063145e-01f, -3.093996551e-03f, -3.998205662e-01f,
    3.281333745e-01f, 2.230160087e-01f, 2.885733545e-01f, 4.829397500e-01f, 4.153101742e-01f, 5.309740901e-01f, 2.177297324e-01f, 3.019674718e-01f,
    -3.328267857e-02f, 1.052872241e-01f, -3.359426856e-01f, 4.073772132e-01f, -4.600734115e-01f, 3.031809926e-01f, -5.117430091e-01f, -2.145435363e-01f,
    1.559239440e-02f, 3.621908128e-01f, -1.519774497e-01f, 1.162939817e-01f, -4.675575495e-01f, 4.966690540e-01f, 7.829011083e-01f, 1.700155139e-01f,
    -6.934508085e-01f, 4.268558025e-01f, 3.602366745e-01f, -3.693636060e-01f, 6.903497875e-02f, -2.088583708e-01f, 4.784091413e-01f, 6.039857864e-01f,
    1.556445956e-01f, 1.623664647e-01f, 1.228913367e-01f, 4.780156612e-01f, 5.452488661e-01f, -4.733408615e-02f, -9.782978892e-02f, 3.001751602e-01f,
    6.403001547e-01f, 2.446855158e-01f, -1.225940809e-01f, 5.168791413e-01f, -9.952384233e-02f, 4.278982878e-01f, -2.057584524e-01f, 1.280175000e-01f,
    2.703651786e-01f, -4.246803001e-02f, 1.336355060e-01f, 2.055729032e-01f, -3.482128382e-01f, -4.972878695e-01f, -4.479167461e-01f, -3.176385909e-02f,
    1.253314614e-01f, -1.079316959e-01f, 3.815310895e-01f, 2.834089696e-01f, 4.999748468e-01f, 1.995420009e-01f, 5.704714060e-01f, 6.514495015e-01f,
    1.596504450e-01f, 8.907335810e-03f, 1.048935205e-01f, 6.116442848e-03f, 1.047856584e-01f, 8.412999511e-01f, -7.633047700e-01f, 4.750989974e-01f,
    -2.090696096e-01f, 6.645113230e-01f, 6.512497663e-01f, -4.820708036e-01f, 4.404976368e-01f, 3.040148914e-01f, 3.397133574e-02f, -4.803735614e-01f,
    4.099453986e-01f, 1.444116794e-02f, -1.919514984e-01f, 1.931931973e-01f, 6.496506333e-01f, -2.896106802e-02f, 2.668575943e-01f, 4.396038353e-01f,
    1.049265638e-01f, 2.524163425e-01f, 2.561283410e-01f, 5.949276686e-02f, -2.926340997e-01f, -6.891267747e-02f, 4.457280040e-01f, -3.633973897e-01f,
    2.404771894e-01f, 4.127451181e-01f, -1.284301281e-01f, -4.667868018e-01f, 1.836282760e-01f, 9.565813094e-02f, -1.606504172e-01f, -6.638442874e-01f,
    -9.628720284e-01f, 1.635396928e-01f, 7.295519114e-01f, -5.091678351e-02f, -1.834999323e-01f, 3.783624172e-01f, 6.331016868e-02f, 1.145027019e-02f
};

const float stage1_block1_main_conv1x1_w[144] = {
    3.204963729e-02f, 3.375711665e-02f, -6.471924782e-01f, -3.569307029e-01f, 3.601700068e-01f, 2.602295578e-01f, -5.164656639e-01f, -2.492546141e-01f,
    -3.112998903e-01f, -3.412732482e-01f, -5.887921527e-02f, 9.128193557e-02f, 9.462806582e-02f, 2.624840140e-01f, -1.178143080e-02f, 9.269991517e-02f,
    -4.923776090e-01f, -3.021090031e-01f, 1.649230719e-01f, -2.191688120e-01f, -1.000244617e+00f, 9.831810594e-01f, -2.172652259e-02f, 3.859463334e-01f,
    4.278768003e-01f, 9.122014046e-03f, -7.862301916e-02f, 5.357963443e-01f, 7.884489894e-01f, 1.355652958e-01f, 4.446777105e-01f, 1.443089172e-02f,
    2.415667027e-01f, -2.886970937e-01f, 9.308104962e-02f, 4.573873580e-01f, 3.447816968e-01f, -3.597837687e-02f, 2.283895575e-02f, -4.674012363e-01f,
    -4.251581728e-01f, 1.417780817e-01f, 1.633209437e-01f, -1.160616130e-01f, 6.993134618e-01f, 4.339597821e-01f, -9.933208823e-01f, -8.463227004e-02f,
    -8.750244230e-02f, 1.320850611e+00f, -1.738993526e-01f, 2.299827337e-01f, 2.789123654e-01f, 5.395622924e-02f, -4.331040382e-01f, 9.432318062e-02f,
    8.891064674e-02f, -7.814739347e-01f, 2.188262790e-01f, -8.854304254e-02f, -1.645589322e-01f, -4.063890502e-02f, -6.743004918e-01f, -2.618536353e-01f,
    2.058825493e-01f, 3.177632689e-01f, -2.940436304e-01f, -1.699651182e-01f, 8.902670741e-01f, 3.211480677e-01f, 2.252731770e-01f, 5.823930725e-02f,
    1.199902967e-01f, 3.778287768e-01f, 4.328317344e-01f, 2.058777064e-01f, 1.924024969e-01f, 1.296708640e-02f, 3.704900146e-01f, 3.440613449e-01f,
    -1.202789098e-01f, -3.870506585e-01f, -6.737782806e-02f, 1.098578453e+00f, 2.042864412e-01f, -3.469395936e-01f, 5.816818476e-01f, 7.207790017e-01f,
    -5.409764647e-01f, -3.586056456e-02f, -3.065419197e-01f, -2.862201035e-01f, 2.173830569e-01f, 4.591466188e-01f, 4.273802042e-02f, 7.659766674e-01f,
    1.959146857e-01f, -1.698127836e-01f, -6.009252667e-01f, 4.751415253e-01f, -2.724123374e-02f, -2.237830013e-01f, 2.268895805e-01f, -4.080086052e-01f,
    -1.849935204e-01f, -4.217691123e-01f, 7.312944531e-01f, -3.454287052e-01f, -1.412656158e-02f, 5.487846732e-01f, -1.990633905e-01f, -1.649525911e-01f,
    6.992316842e-01f, -3.459614813e-01f, 2.809742391e-01f, -4.076380730e-01f, 6.754685044e-01f, -3.290469050e-01f, -1.039264910e-02f, 5.604666471e-01f,
    4.940040708e-01f, -6.981619168e-03f, -1.822444797e-01f, 4.445326030e-01f, -1.011376008e-01f, -4.715530872e-01f, -4.851693511e-01f, -8.558189869e-02f,
    -4.703404605e-01f, -5.007245541e-01f, 4.452084303e-01f, -4.185109437e-01f, 3.001516759e-01f, 1.865017414e-01f, -2.508945167e-01f, -4.034610391e-01f,
    -2.223815918e-01f, -1.453619152e-01f, 1.064620018e+00f, 7.388497144e-02f, -2.932499945e-01f, 2.681139708e-01f, -1.064610295e-02f, -2.522737086e-01f
};

const float stage1_block1_main_bn1_w[12] = {
    1.028394461e+00f, 1.244786978e+00f, 9.247571826e-01f, 1.056365252e+00f, 1.002092600e+00f, 3.432851732e-01f, 9.271536469e-01f, 4.353754520e-01f,
    8.613016009e-01f, 1.181835294e+00f, 1.156715512e+00f, 6.694538593e-01f
};

const float stage1_block1_main_bn1_b[12] = {
    4.206640273e-02f, -5.800411850e-02f, 4.143911973e-02f, 9.243986011e-02f, 9.823345393e-02f, 4.839522541e-01f, 2.019232363e-01f, 3.753055930e-01f,
    2.013509423e-01f, 9.445872158e-02f, -4.506491497e-02f, 2.805110216e-01f
};

const float stage1_block1_main_bn1_mean[12] = {
    -2.107802153e+00f, -7.820975780e-01f, 2.253876448e+00f, 4.359627366e-01f, -4.438957274e-01f, 1.125258684e+00f, 1.470203280e+00f, 6.613606215e-01f,
    -1.015785575e+00f, 7.229738832e-01f, -2.662886143e+00f, 8.581252098e-01f
};

const float stage1_block1_main_bn1_var[12] = {
    2.246003866e+00f, 1.517440557e+00f, 1.444996357e+00f, 2.452106476e+00f, 2.064548016e+00f, 1.634769917e+00f, 3.861856699e+00f, 3.780737877e+00f,
    2.550429821e+00f, 6.737715602e-01f, 1.976456285e+00f, 1.717392445e+00f
};

const float stage1_block1_main_dwconv_w[36] = {
    9.291789681e-02f, 1.543642431e-01f, 2.164174914e-01f, 4.188438654e-01f, 2.516249120e-01f, -7.561466843e-02f, 2.757955194e-01f, -2.606497109e-01f,
    2.841328084e-01f, -1.200680435e-02f, -4.612808302e-02f, -3.428494930e-01f, 2.710147500e-01f, 1.052858010e-01f, -1.186586916e-02f, 4.037826061e-01f,
    4.687346891e-02f, -3.785254955e-01f, 2.726878524e-01f, -1.001709625e-01f, -4.383055866e-01f, 3.184063733e-01f, -8.083562553e-02f, -8.552649058e-03f,
    7.802429199e-01f, 4.683586955e-02f, -1.039763689e-01f, 2.656505406e-01f, 3.539269790e-02f, 3.778880090e-02f, -1.581885666e-01f, -2.527979016e-01f,
    2.473034328e-05f, -9.907674044e-02f, -6.547141820e-02f, 2.320342213e-01f
};

const float stage1_block1_main_bn2_w[12] = {
    6.423024535e-01f, 1.148524642e+00f, 8.721794486e-01f, 5.953568220e-01f, 1.175947428e+00f, 4.519765973e-01f, 6.008639932e-01f, 3.571666479e-01f,
    1.197407365e+00f, 1.016461611e+00f, 1.026522160e+00f, 9.662777185e-01f
};

const float stage1_block1_main_bn2_b[12] = {
    2.244264185e-01f, -4.977802187e-02f, 2.334506214e-01f, 3.174256086e-01f, -9.781432338e-03f, 4.241200686e-01f, 3.195444643e-01f, 4.496790767e-01f,
    9.481514245e-02f, 6.879892945e-02f, 1.358349025e-01f, 8.597762883e-02f
};

const float stage1_block1_main_bn2_mean[12] = {
    1.667237133e-01f, 1.581798792e-01f, 7.005665451e-02f, -1.493743062e-01f, 1.215464920e-01f, 4.461858422e-02f, -7.416075468e-02f, 7.692901045e-02f,
    2.747280300e-01f, 1.272828877e-01f, -1.674914956e-01f, 2.215839736e-02f
};

const float stage1_block1_main_bn2_var[12] = {
    2.142243087e-02f, 1.746003032e-01f, 8.396235108e-02f, 5.991337821e-02f, 5.908418447e-02f, 2.265867963e-02f, 1.348255724e-01f, 1.263714861e-02f,
    9.850268066e-02f, 7.787625492e-02f, 4.268459603e-02f, 1.545749325e-02f
};

const float stage1_block1_expand_bn_w[60] = {
    8.204413652e-01f, 7.480741739e-01f, 8.287791014e-01f, 8.323755860e-01f, 8.861224651e-01f, 6.188141108e-01f, 1.078216314e+00f, 1.209174991e+00f,
    1.041442275e+00f, 1.134642243e+00f, 1.243892670e+00f, 9.672423601e-01f, 7.235525250e-01f, 1.079689384e+00f, 1.684777737e-01f, 7.397701144e-01f,
    5.652284026e-01f, 1.206835389e+00f, 8.386989236e-01f, 8.789938092e-01f, 1.090876102e+00f, 9.637095928e-01f, 5.829556584e-01f, 7.514952421e-01f,
    1.281048894e+00f, 7.539580464e-01f, 1.050232649e+00f, 1.051758051e+00f, 8.391636610e-01f, 1.194161057e+00f, 5.696991682e-01f, 1.004310489e+00f,
    6.245399117e-01f, 1.070949674e+00f, 1.054184556e+00f, 1.188689470e+00f, 7.387886047e-01f, 1.334290266e+00f, 1.131818891e+00f, 1.133316159e+00f,
    9.004024267e-01f, 9.139955640e-01f, 8.245219588e-01f, 4.914928079e-01f, 1.124999404e+00f, 7.597489357e-01f, 8.059905767e-01f, 7.633329630e-01f,
    1.019064903e+00f, 1.043393254e+00f, 9.341560006e-01f, 1.127178192e+00f, 5.207973123e-01f, 1.315989494e+00f, 8.013750911e-01f, 6.519553661e-01f,
    8.114587665e-01f, 8.967998028e-01f, 1.102884889e+00f, 9.657544494e-01f
};

const float stage1_block1_expand_bn_b[60] = {
    -1.382814795e-01f, -1.505322903e-01f, -1.171892285e-01f, -1.648198366e-01f, 9.513965994e-02f, -1.352816373e-01f, -2.743288577e-01f, 2.298331708e-01f,
    -7.756657153e-02f, 5.416586250e-02f, 3.934324384e-01f, -1.286032647e-01f, 5.712639913e-02f, 4.763112217e-02f, -4.547095895e-01f, -2.809664309e-01f,
    -3.823668659e-01f, 2.197760642e-01f, -1.720260270e-02f, 6.408224814e-03f, 1.735923886e-01f, -2.650184743e-02f, -1.770907342e-01f, -1.911248863e-01f,
    -1.694981754e-02f, -3.308623433e-01f, 4.736738205e-01f, 7.382562160e-01f, 2.702826858e-01f, 3.355056047e-01f, -2.937121391e-01f, -3.419787884e-01f,
    2.969371974e-01f, 8.664407581e-02f, 1.373772025e-01f, 5.239455700e-01f, -4.547648504e-02f, 9.381798655e-02f, 3.517460525e-01f, 5.298979282e-01f,
    -7.255734503e-02f, -1.356210262e-01f, -1.967101917e-02f, -3.805403709e-01f, 7.461691648e-02f, -2.392722368e-01f, -2.080298513e-01f, -2.765861154e-01f,
    2.654756308e-01f, 2.497421950e-01f, -1.332191080e-01f, 1.857912391e-01f, -3.532290459e-01f, 3.133074939e-01f, -1.301415116e-01f, -1.564551145e-01f,
    6.349495798e-02f, -9.862265736e-02f, 3.297310472e-01f, -2.496383339e-01f
};

const float stage1_block1_expand_bn_mean[60] = {
    3.638147414e-01f, 4.237642288e-01f, 4.545721114e-01f, 4.237366319e-01f, 3.151170313e-01f, 1.466604620e-01f, 2.557353079e-01f, 3.374799192e-01f,
    2.368195355e-01f, 4.348505139e-01f, 3.164343536e-01f, 3.219340444e-01f, 3.177837133e-01f, 4.066264331e-01f, 2.390911281e-01f, 3.875421584e-01f,
    4.062518775e-01f, 4.448376596e-01f, 4.439390004e-01f, 5.407480001e-01f, 3.130543232e-01f, 3.793704510e-01f, 2.793585360e-01f, 3.109642863e-01f,
    3.466913402e-01f, 2.026566565e-01f, 4.415232241e-01f, 5.056977868e-01f, 5.577971339e-01f, 6.139165163e-01f, 3.681355119e-01f, 4.091377556e-01f,
    4.035190344e-01f, 3.772077858e-01f, 4.787190557e-01f, 2.863596082e-01f, 4.427655637e-01f, 5.386976600e-01f, 4.858414531e-01f, 4.981448352e-01f,
    4.960907698e-01f, 4.588961303e-01f, 3.850065172e-01f, 7.288161516e-01f, 6.933913231e-01f, 2.237305939e-01f, 2.049966753e-01f, 3.024825752e-01f,
    4.671612680e-01f, 2.223214358e-01f, 6.344892979e-01f, 5.666278601e-01f, 5.064013004e-01f, 4.711812139e-01f, 4.564816952e-01f, 2.536559999e-01f,
    3.233509660e-01f, 2.288455665e-01f, 7.569528222e-01f, 9.204275906e-02f
};

const float stage1_block1_expand_bn_var[60] = {
    2.118052691e-01f, 2.504051626e-01f, 2.522270679e-01f, 2.328876108e-01f, 1.869058162e-01f, 7.001063824e-01f, 1.205748439e+00f, 1.296177864e+00f,
    7.247197628e-01f, 1.372105241e+00f, 5.749332309e-01f, 5.686358213e-01f, 4.717034996e-01f, 8.297017217e-01f, 5.270001888e-01f, 8.604888618e-02f,
    8.830370754e-02f, 7.176843286e-02f, 8.102098852e-02f, 4.886287823e-02f, 1.065078616e+00f, 9.736154079e-01f, 6.543994546e-01f, 1.428744555e+00f,
    1.330377221e+00f, 6.449910998e-02f, 1.081776097e-01f, 1.375153810e-01f, 1.588681936e-01f, 1.387524754e-01f, 3.706806526e-02f, 4.761160910e-02f,
    6.796845794e-02f, 5.023571476e-02f, 8.662395924e-02f, 7.052440196e-02f, 1.051594019e-01f, 1.813150644e-01f, 1.151012927e-01f, 1.234765798e-01f,
    8.928611279e-01f, 5.624427795e-01f, 2.870120704e-01f, 8.690271378e-01f, 8.730304241e-01f, 6.898443699e-01f, 8.304178119e-01f, 8.358549476e-01f,
    1.389800549e+00f, 6.202703714e-01f, 1.794880629e-01f, 1.895627379e-01f, 2.013052255e-01f, 1.985201091e-01f, 2.003151476e-01f, 2.573066950e-01f,
    5.829831362e-01f, 4.308376610e-01f, 1.495252609e+00f, 1.238958985e-01f
};

const float stage1_block1_br_dwconv_w[36] = {
    -2.761694789e-01f, 4.328218997e-01f, 2.872364819e-01f, -2.205408961e-01f, -5.069076419e-01f, -7.804583013e-02f, 5.484417453e-02f, 3.234863579e-01f,
    4.465721175e-02f, -5.567851663e-01f, -1.569337249e-01f, 3.881606162e-01f, -1.083990335e-01f, 4.048937857e-01f, -1.466023095e-04f, -2.930047512e-01f,
    -3.862526119e-01f, -2.455796301e-01f, 4.882767797e-01f, -6.017312407e-02f, 2.977515943e-02f, 1.786522567e-02f, 3.447572887e-01f, 1.496344507e-01f,
    2.496877462e-01f, 1.239147484e-01f, -4.359474778e-02f, 2.687435448e-01f, -2.245464027e-01f, -9.202740341e-02f, 3.386380374e-01f, -1.402010322e-01f,
    1.924869865e-01f, -3.897067010e-01f, 1.358407736e-01f, -3.172809482e-01f
};

const float stage1_block1_br_bn_w[12] = {
    8.972869515e-01f, 9.418767095e-01f, 1.094348311e+00f, 8.158985376e-01f, 1.154621363e+00f, 1.244902015e+00f, 8.641552329e-01f, 7.191342711e-01f,
    9.073832631e-01f, 9.333279133e-01f, 5.996360183e-01f, 9.293465018e-01f
};

const float stage1_block1_br_bn_b[12] = {
    -4.619392157e-01f, 8.392214775e-02f, -1.183640137e-01f, -3.205022216e-01f, -3.936767578e-01f, -2.134845555e-01f, 1.552838832e-01f, -1.646790206e-01f,
    -5.200129747e-02f, 1.950092018e-01f, -7.856900245e-02f, -2.394600064e-01f
};

const float stage1_block1_br_bn_mean[12] = {
    1.446341276e-01f, -1.799051613e-01f, 1.043818220e-01f, -1.059189886e-01f, 6.370479614e-02f, -4.864034653e-01f, 1.153070331e-01f, 2.171496302e-01f,
    1.034564227e-01f, -7.865547203e-03f, 1.687828302e-01f, -1.561203152e-01f
};

const float stage1_block1_br_bn_var[12] = {
    4.685948044e-02f, 2.394697070e-01f, 3.366847709e-02f, 1.320868079e-02f, 5.851022527e-02f, 7.432392985e-02f, 1.154977549e-02f, 9.153258801e-02f,
    1.741365716e-02f, 2.766253240e-02f, 2.060665376e-02f, 2.405956946e-02f
};

const float stage1_block1_br_proj_w[144] = {
    1.874032468e-01f, -4.930977821e-01f, -1.658158749e-01f, 4.770528376e-01f, 6.765623391e-02f, 6.305711865e-01f, -4.040408432e-01f, 2.185934037e-01f,
    1.382247210e-01f, -1.263049543e-01f, 2.429659814e-01f, 5.956161022e-01f, -9.849547595e-02f, 3.445087373e-01f, 9.019408226e-01f, -3.297823966e-01f,
    -4.884949028e-01f, 5.520328879e-01f, 6.691334844e-01f, -1.981588751e-01f, -1.288900822e-01f, -9.919693694e-03f, -2.795637399e-02f, -4.394342303e-01f,
    -1.202230453e-01f, 4.309149384e-01f, -4.385647178e-01f, 6.730381846e-01f, 6.259539723e-01f, -1.079616696e-01f, 9.910070300e-01f, -3.224594891e-01f,
    -1.234138250e+00f, -2.557389438e-01f, -8.562148362e-02f, 7.005659342e-01f, 6.679075956e-01f, 2.122856975e-01f, 2.325688303e-01f, 2.962924838e-01f,
    3.735066652e-01f, 2.758507133e-01f, 4.038417637e-01f, 1.664562672e-01f, -4.766544402e-01f, 4.200249910e-01f, 5.196501687e-02f, 3.655094206e-01f,
    -2.229565009e-02f, -5.425343513e-01f, -7.134809494e-01f, -5.821477175e-01f, 2.956166863e-02f, 2.463134937e-02f, 5.621396899e-01f, -5.999677777e-01f,
    4.120683074e-01f, -8.017703146e-02f, -2.949905396e-01f, -4.255560637e-01f, -6.770246625e-01f, 1.549278051e-01f, -9.329436719e-02f, -3.744259775e-01f,
    -5.783448815e-01f, -5.481806993e-01f, 3.766508996e-01f, -5.955310464e-01f, 2.664640248e-01f, 7.408457994e-01f, 3.412609398e-01f, -2.998138368e-01f,
    -2.788552344e-01f, -4.314927757e-01f, -1.527246684e-01f, 6.316352636e-02f, 7.072168589e-01f, 8.151819557e-02f, 7.294083387e-02f, 5.501956344e-01f,
    2.223838121e-01f, -8.990152925e-02f, -3.099304065e-02f, 1.879819036e-01f, -8.269959688e-01f, 6.600466371e-01f, 3.692789376e-01f, 1.329758018e-01f,
    -2.485267967e-01f, 1.503558159e-01f, 2.799987197e-01f, 1.906094253e-01f, -3.115175478e-02f, 1.230271235e-01f, -2.200977802e-01f, -2.248108536e-01f,
    2.697801888e-01f, 6.005748361e-02f, 2.943655252e-01f, 6.664433330e-02f, 2.476214767e-01f, -4.309325814e-01f, 1.389008760e-01f, -1.506770402e-01f,
    -4.615411162e-01f, 8.478332162e-01f, -9.799106419e-02f, -1.812603474e-01f, -6.759662032e-01f, 3.411367536e-02f, -2.174348086e-01f, -2.592961490e-01f,
    4.959374368e-01f, -4.674768746e-01f, -3.500158489e-01f, 1.658818275e-01f, 1.661295742e-01f, 7.636212707e-01f, -1.683595628e-01f, 2.622417510e-01f,
    1.178675741e-01f, 6.976234317e-01f, -4.003588855e-01f, 3.748311475e-02f, -3.557473794e-02f, -1.563033164e-01f, 1.326184906e-02f, 1.966909319e-02f,
    -7.673286200e-01f, 2.575735450e-01f, 4.299884196e-03f, -2.583751380e-01f, 6.988710761e-01f, 1.853099763e-01f, -4.465620518e-01f, -2.028580606e-01f,
    -2.719156444e-01f, -1.427406967e-01f, -1.424816251e-01f, -3.118107021e-01f, 1.591151059e-01f, 1.673567146e-01f, -7.460368276e-01f, 2.803238332e-01f
};

const float stage2_block0_main_conv1x1_w[192] = {
    8.007933944e-02f, -9.889608622e-02f, 4.209108651e-01f, 2.165028602e-01f, -1.098700464e-01f, -6.143676117e-02f, -4.456824958e-01f, 7.186691761e-01f,
    5.327676535e-01f, -3.858957291e-01f, -1.382846832e-01f, -1.468521059e-01f, -1.415080875e-01f, -1.407716721e-01f, 1.527931392e-01f, 1.734574735e-01f,
    -1.621531397e-01f, 5.949290991e-01f, -5.942783952e-01f, -4.368201643e-02f, 1.626378944e-04f, 5.512636900e-01f, -4.963037074e-01f, 4.760130048e-01f,
    -4.814081267e-02f, -1.276773661e-01f, -3.397694230e-02f, 7.849947214e-01f, -4.981570691e-02f, -4.468257427e-01f, 2.652855217e-01f, 4.201746583e-01f,
    1.895048320e-01f, 3.012302518e-01f, 4.188069701e-01f, -5.950839520e-01f, -3.607806191e-02f, -4.770188034e-01f, -3.057121933e-01f, 2.233647853e-01f,
    2.996391356e-01f, 2.518030405e-01f, 5.852267146e-02f, 5.146635771e-01f, 6.264792681e-01f, 7.559450343e-03f, -2.696633041e-01f, -1.939541996e-01f,
    -1.711081415e-01f, -4.761413112e-02f, -3.674551845e-01f, 8.237180859e-02f, -3.052523136e-01f, -3.038431704e-01f, -2.373681962e-01f, -5.890873075e-01f,
    4.976518452e-01f, 9.568160027e-02f, -3.935194910e-01f, -2.016826421e-01f, 3.874037415e-02f, -2.999916375e-01f, -5.894561484e-02f, -9.697061777e-02f,
    -5.225670934e-01f, 5.622964501e-01f, 4.209230095e-02f, 6.492800713e-01f, -5.949202776e-01f, 2.644991875e-01f, 5.318766460e-02f, -6.802842021e-02f,
    1.996814460e-02f, -9.328594804e-02f, -1.546087712e-01f, -2.061327919e-02f, 3.870013729e-02f, -1.823872179e-01f, 3.958882093e-01f, 6.379120350e-01f,
    3.109227419e-01f, -5.312696472e-02f, -9.786168486e-02f, -3.630371988e-01f, -6.233171746e-02f, -5.227374285e-02f, 5.378552675e-01f, 7.447001934e-01f,
    5.057598352e-01f, 8.973596245e-02f, 5.150780082e-01f, -4.952196479e-01f, -6.699026227e-01f, -1.330805272e-01f, -6.159831285e-01f, 2.428139299e-01f,
    2.235734370e-03f, -4.576032981e-03f, 4.044209048e-02f, 6.626626253e-01f, -4.928757548e-01f, 1.445802748e-01f, -5.276967287e-01f, -1.566419899e-01f,
    3.729118407e-01f, 6.886764765e-01f, 4.572604299e-01f, 2.584885359e-01f, 1.783295423e-01f, -6.372125149e-01f, -1.420875937e-01f, 7.564646602e-01f,
    7.295428962e-02f, -2.720353752e-02f, -3.001210392e-01f, 6.371551156e-01f, -4.075383842e-01f, 1.440088749e-01f, 9.903066158e-01f, 3.473375738e-01f,
    -4.153112695e-02f, 1.490702331e-01f, -7.201510947e-03f, 1.070657745e-01f, 8.731701970e-02f, 1.976656616e-01f, 1.747577190e-01f, 5.956162214e-01f,
    -5.547075272e-01f, -1.899201870e-01f, 1.777832508e-01f, -5.931516364e-02f, 1.931423098e-01f, 4.886332750e-01f, -3.714893386e-02f, -2.125262469e-01f,
    -3.048169017e-01f, 5.082520843e-01f, 5.497444868e-01f, 3.982241154e-01f, -9.551531821e-02f, -2.439031564e-02f, 4.280717671e-01f, -2.227689922e-01f,
    -3.917967081e-01f, 5.109788179e-01f, 2.308035940e-01f, -3.884016871e-01f, 1.362078041e-01f, 1.439987719e-01f, -1.705008447e-01f, 1.729103178e-01f,
    3.998827934e-01f, 7.389688492e-01f, 1.953348964e-01f, 2.285289019e-01f, -2.563215196e-01f, -4.493449330e-01f, -1.948339194e-01f, -2.526301146e-01f,
    1.566192508e-01f, 2.436706275e-01f, 7.207446694e-01f, -3.737662435e-01f, -3.007645607e-01f, -3.139084876e-01f, -5.027353764e-02f, -2.491758019e-01f,
    4.241818786e-01f, 1.599835902e-01f, 4.007521272e-01f, -2.086610943e-01f, -2.351110727e-01f, 2.173187733e-01f, -6.359400749e-01f, -3.695345223e-01f,
    3.348677233e-02f, 7.282646000e-02f, 1.697824597e-01f, -7.722737640e-02f, 6.780220866e-01f, 2.022476196e-01f, -4.201130942e-03f, -3.558267839e-03f,
    1.150024608e-01f, -1.889325231e-01f, 3.505765200e-01f, 1.559233516e-01f, -5.223995447e-01f, -8.955426812e-01f, -1.562980860e-01f, -4.047490358e-01f
};

const float stage2_block0_main_bn1_w[16] = {
    7.935782671e-01f, 1.190685034e+00f, 8.255834579e-01f, 9.692519903e-01f, 6.745806336e-01f, 6.520320773e-01f, 4.761779606e-01f, 8.051950336e-01f,
    6.526963711e-01f, 3.486730456e-01f, 7.886031270e-01f, 7.079266310e-01f, 1.011812091e+00f, 6.380606890e-01f, 8.656443954e-01f, 9.586579800e-01f
};

const float stage2_block0_main_bn1_b[16] = {
    2.212337404e-01f, 7.786044478e-02f, 2.628193200e-01f, 1.877566874e-01f, 3.116959631e-01f, 3.577196896e-01f, 4.408117533e-01f, 1.891098768e-01f,
    3.209668696e-01f, 4.465016425e-01f, 2.554109097e-01f, 2.989446521e-01f, 1.789019704e-01f, 3.082944751e-01f, 2.286788821e-01f, 1.316182315e-01f
};

const float stage2_block0_main_bn1_mean[16] = {
    1.633091569e+00f, 4.007144570e-01f, 3.343893290e+00f, 2.162674189e+00f, -2.154820442e+00f, 6.678096056e-01f, 1.766296148e+00f, 9.900923371e-01f,
    2.619841576e+00f, 2.173530102e+00f, 1.029590368e+00f, 3.020798683e+00f, 2.020424366e+00f, -1.459239364e+00f, -9.328830838e-01f, -1.084782839e+00f
};

const float stage2_block0_main_bn1_var[16] = {
    2.803050518e+00f, 1.823529243e+00f, 1.995346189e+00f, 1.872473240e+00f, 3.158848524e+00f, 1.534385324e+00f, 1.351014137e+00f, 4.869915485e+00f,
    2.222420216e+00f, 1.714011788e+00f, 1.478559613e+00f, 2.068353176e+00f, 5.896759033e+00f, 4.530428886e+00f, 1.244230986e+00f, 2.868196487e+00f
};

const float stage2_block0_main_dwconv_w[48] = {
    3.391670883e-01f, -1.407682449e-01f, -8.782426268e-02f, -4.557950497e-01f, -2.412762642e-01f, -2.024966478e-02f, 4.102158919e-02f, -2.250387818e-01f,
    2.768820226e-01f, -3.944477811e-02f, 3.349360526e-01f, 3.297863305e-01f, -1.782803237e-01f, -3.376471698e-01f, -1.700977385e-01f, -2.436594367e-01f,
    -2.361092567e-01f, 8.519562334e-02f, 3.609727323e-02f, 1.831995100e-01f, -1.416753381e-01f, -6.950031966e-02f, -1.534649879e-01f, -3.632405400e-01f,
    4.451042414e-02f, -1.193651780e-01f, 3.280929923e-01f, 3.813782334e-01f, -5.303613469e-02f, -9.615454823e-02f, 1.589724272e-01f, -1.453106850e-01f,
    1.341030896e-01f, -2.971895412e-02f, -1.188400090e-01f, -2.773551643e-01f, -1.253024787e-01f, -5.642282963e-01f, 7.561114430e-02f, -2.188279480e-02f,
    4.328035414e-01f, 5.371336639e-02f, 3.337180316e-01f, -9.350235760e-02f, -2.930898368e-01f, -2.516275346e-01f, -1.449414790e-01f, -7.113087177e-02f
};

const float stage2_block0_main_bn2_w[16] = {
    7.916176319e-01f, 4.295734167e-01f, 7.670892030e-02f, 4.334313273e-01f, 7.397001386e-01f, 4.600063562e-01f, 9.174589813e-02f, 5.186644793e-01f,
    4.741880298e-01f, 6.010757685e-01f, 1.760140806e-01f, 4.985631704e-01f, 1.285256505e+00f, 3.152967691e-01f, 4.467295706e-01f, 4.344475269e-01f
};

const float stage2_block0_main_bn2_b[16] = {
    1.017660126e-01f, 4.178631604e-01f, 4.576845467e-01f, 3.621712923e-01f, 3.133398592e-01f, 3.632946014e-01f, 3.853209317e-01f, 4.039249122e-01f,
    3.669193387e-01f, 2.477867007e-01f, 4.891476929e-01f, 4.598764479e-01f, -2.444300801e-02f, 5.040102005e-01f, 3.893100023e-01f, 4.706458747e-01f
};

const float stage2_block0_main_bn2_mean[16] = {
    3.703946248e-02f, -2.782719135e-01f, 5.161008611e-02f, 2.535052299e-01f, -2.913964391e-01f, -1.361121535e-01f, 2.354231663e-02f, -2.007745355e-01f,
    1.004073024e-01f, 8.676875383e-02f, 6.758087128e-02f, -1.805341691e-01f, -2.403521240e-01f, 1.962396801e-01f, -4.504655674e-02f, -1.791069657e-01f
};

const float stage2_block0_main_bn2_var[16] = {
    4.510128498e-02f, 3.492881954e-01f, 3.426903114e-02f, 2.003982216e-01f, 2.717738599e-02f, 3.574813530e-02f, 6.989737973e-03f, 1.154214069e-01f,
    2.896519005e-02f, 1.951337792e-02f, 1.829732209e-02f, 5.578600988e-02f, 2.622504830e-01f, 1.597288810e-02f, 4.179408401e-02f, 2.707574330e-02f
};

const float stage2_block0_expand_bn_w[80] = {
    9.607893825e-01f, 1.136711597e+00f, 1.092794895e+00f, 1.116783023e+00f, 7.765448689e-01f, 1.106148124e+00f, 1.169460177e+00f, 9.880539775e-01f,
    9.056916237e-01f, 8.213096261e-01f, 8.914375305e-01f, 1.156477213e+00f, 6.376003027e-01f, 5.653051138e-01f, 1.883397102e+00f, 1.331432104e+00f,
    1.387370110e+00f, 6.864354610e-01f, 6.514585018e-01f, 1.632411957e+00f, 1.003548503e+00f, 1.170671940e+00f, 1.009153247e+00f, 8.219791055e-01f,
    1.003450155e+00f, 9.321017265e-01f, 8.324328661e-01f, 8.608973026e-01f, 6.611556411e-01f, 1.203271389e+00f, 6.019707918e-01f, 1.340779185e+00f,
    1.395359635e+00f, 8.248717785e-01f, 4.219152331e-01f, 1.329869747e+00f, 9.834145904e-01f, 9.317287803e-01f, 4.076296687e-01f, 1.025870919e+00f,
    1.383555532e+00f, 5.042347312e-01f, 2.977014780e-01f, 5.572829843e-01f, 1.142425299e+00f, 1.019326091e+00f, 7.892948389e-01f, 1.253819942e+00f,
    9.169062376e-01f, 4.495768547e-01f, 1.132294536e+00f, 9.795543551e-01f, 1.314508319e+00f, 6.571504474e-01f, 4.918055534e-01f, 1.083366394e+00f,
    9.775133133e-01f, 8.961955309e-01f, 1.279768229e+00f, 1.279718757e+00f, 1.306070447e+00f, 9.553278089e-01f, 7.682272196e-01f, 1.213963628e+00f,
    8.451709747e-01f, 4.472941458e-01f, 1.222581506e+00f, 1.241650462e+00f, 7.518078685e-01f, 3.563582897e-01f, 8.253045678e-01f, 1.199426889e+00f,
    1.038981676e+00f, 4.764389098e-01f, 7.473797798e-01f, 8.405885100e-01f, 1.033859015e+00f, 9.389358163e-01f, 1.193305731e+00f, 4.798340797e-01f
};

const float stage2_block0_expand_bn_b[80] = {
    -4.903453961e-02f, 4.809424281e-01f, 3.506967723e-01f, 1.074961573e-01f, -2.231078893e-01f, 1.834930480e-01f, 2.251491845e-01f, 2.634074390e-01f,
    -2.702280320e-02f, -2.119292021e-01f, 5.416287780e-01f, 3.340619802e-01f, 1.387730986e-02f, -2.248446643e-01f, 6.697753668e-01f, 6.044982672e-01f,
    7.611008286e-01f, 6.397991776e-01f, 2.758416831e-01f, 1.260618120e-01f, -1.975790709e-01f, 4.345801473e-01f, -5.065584555e-02f, 1.088660881e-01f,
    -1.102417707e-01f, 9.224113822e-02f, 1.944911331e-01f, 2.155676037e-01f, -2.237177342e-01f, 2.391911149e-01f, -6.247594953e-02f, 5.351423025e-01f,
    3.059937656e-01f, 1.866483688e-01f, -1.971100457e-02f, 2.567820847e-01f, 1.764952242e-01f, 2.180832028e-01f, -3.809186220e-01f, 1.426239908e-01f,
    4.279051423e-01f, -1.851296276e-01f, -4.419596791e-01f, -1.511851996e-01f, 2.376323640e-01f, -1.759519614e-02f, 3.717959821e-01f, -1.229460835e-01f,
    4.625605643e-01f, -3.736402690e-01f, 6.047945619e-01f, 1.183738187e-01f, 4.791652560e-01f, 2.534541786e-01f, -6.306530535e-02f, 2.138683200e-01f,
    -7.558634877e-02f, 2.322941460e-02f, 6.437605023e-01f, 4.678991139e-01f, 1.618171483e-01f, 1.975181047e-03f, -2.417918891e-01f, 2.524402142e-01f,
    -9.400361776e-02f, -5.950001478e-01f, 1.651466787e-01f, 2.057059109e-01f, 6.037254930e-01f, -4.438594878e-01f, -6.812292337e-02f, 5.909169465e-02f,
    1.402540654e-01f, -2.580087483e-01f, 1.618615091e-01f, -1.364763379e-01f, 3.430458903e-01f, 3.762843320e-03f, 3.058347404e-01f, -4.624066055e-01f
};

const float stage2_block0_expand_bn_mean[80] = {
    5.605193857e-45f, 2.061022371e-01f, 3.247549832e-01f, 6.264997125e-01f, 2.093043625e-01f, 5.298147798e-01f, 4.109427929e-01f, 4.905568659e-01f,
    4.719911218e-01f, 5.048163533e-01f, 4.446325004e-01f, 4.670134783e-01f, 4.321950376e-01f, 4.715131819e-01f, 4.734390378e-01f, 4.214050472e-01f,
    4.568256736e-01f, 4.115669429e-01f, 2.664220333e-01f, 2.544873655e-01f, 5.152983069e-01f, 4.534438550e-01f, 5.705111623e-01f, 4.026323855e-01f,
    4.797576964e-01f, 5.429189205e-01f, 4.144633412e-01f, 4.312905073e-01f, 3.503969610e-01f, 4.747102261e-01f, 3.956585228e-01f, 4.028876126e-01f,
    3.955754936e-01f, 3.805235028e-01f, 3.529628515e-01f, 4.994704425e-01f, 3.982441723e-01f, 5.319162011e-01f, 4.635271132e-01f, 4.508096576e-01f,
    4.172449410e-01f, 4.106695056e-01f, 3.476050198e-01f, 3.946326077e-01f, 3.361476064e-01f, 5.605193857e-45f, 2.879634202e-01f, 6.625546813e-01f,
    5.979551077e-01f, 2.718477249e-01f, 4.097387791e-01f, 4.836933911e-01f, 5.396111012e-01f, 5.246833563e-01f, 4.882640839e-01f, 6.107845902e-01f,
    5.207008719e-01f, 4.966937006e-01f, 6.024886370e-01f, 4.266074598e-01f, 3.734627366e-01f, 3.634061813e-01f, 3.943274915e-01f, 3.451946676e-01f,
    3.720155358e-01f, 5.731241107e-01f, 5.001504421e-01f, 4.153786600e-01f, 5.196996331e-01f, 5.120661855e-01f, 1.587288678e-01f, 5.811014175e-01f,
    3.862682283e-01f, 5.557575226e-01f, 4.414744079e-01f, 7.048561573e-01f, 4.937608540e-01f, 4.166592360e-01f, 4.997574985e-01f, 4.702460170e-01f
};

const float stage2_block0_expand_bn_var[80] = {
    5.605193857e-45f, 3.441991806e-01f, 7.792390585e-01f, 4.172961712e-01f, 3.189961314e-01f, 1.479522046e-02f, 6.851868331e-02f, 4.756373540e-02f,
    4.746948183e-02f, 3.407419100e-02f, 2.446584171e-03f, 6.485037506e-03f, 4.238275345e-03f, 4.607140552e-03f, 1.005992014e-02f, 2.594721913e-01f,
    3.923755288e-01f, 1.379584968e-01f, 6.172661856e-02f, 5.240179226e-02f, 1.757879406e-01f, 3.343290389e-01f, 3.735447526e-01f, 2.978035212e-01f,
    3.001555800e-01f, 2.752845176e-02f, 7.548659295e-02f, 7.658521831e-02f, 7.866090536e-02f, 6.328585744e-02f, 3.692542436e-03f, 7.251411211e-03f,
    1.538957562e-02f, 5.509842653e-03f, 7.202997338e-03f, 4.127159342e-02f, 5.303965509e-02f, 4.490872100e-02f, 3.869002685e-02f, 3.235312179e-02f,
    3.230132163e-01f, 2.983552814e-01f, 1.415355057e-01f, 1.718939096e-01f, 1.056197807e-01f, 5.605193857e-45f, 1.311967075e-01f, 4.525920153e-01f,
    2.459082305e-01f, 1.083937660e-01f, 6.725914776e-03f, 2.688411810e-02f, 4.586700350e-02f, 3.263994306e-02f, 3.216164932e-02f, 5.785698816e-02f,
    1.135534197e-01f, 7.427011430e-02f, 7.950872183e-02f, 1.067496911e-01f, 7.320445776e-02f, 7.112497091e-02f, 6.970822811e-02f, 6.442132592e-02f,
    6.459519267e-02f, 1.520781517e-01f, 1.028947011e-01f, 1.022856236e-01f, 6.318819523e-02f, 6.269171089e-02f, 2.474286966e-02f, 1.821998656e-01f,
    1.194882467e-01f, 1.589742750e-01f, 9.095758945e-02f, 5.456730351e-02f, 1.325441152e-01f, 1.209928691e-01f, 1.136361733e-01f, 1.118297577e-01f
};

const float stage2_block0_br_dwconv_w[48] = {
    -4.364356101e-01f, -2.203180920e-03f, 2.015298754e-01f, 7.081618905e-02f, -1.966075003e-01f, -4.152579010e-01f, 2.499813884e-01f, 3.229713142e-01f,
    1.906157583e-01f, -3.304054737e-01f, 2.642343342e-01f, 2.277940512e-01f, 1.116121560e-01f, 1.943485737e-01f, -4.174882770e-01f, -2.476476431e-01f,
    2.058331966e-01f, 4.879534245e-02f, 2.087662518e-01f, 5.701858401e-01f, -4.123120569e-03f, -3.635445535e-01f, 1.302059591e-01f, -4.289425910e-02f,
    1.392045915e-01f, 7.486759424e-01f, -6.122003309e-03f, -5.190635324e-01f, -1.271189898e-01f, -1.230930630e-02f, 1.622782797e-01f, -2.224668562e-01f,
    -2.684460878e-01f, -2.342423946e-01f, 1.002846882e-01f, 2.879535854e-01f, 2.975154817e-01f, 1.418714132e-02f, 1.316539496e-01f, -1.147359796e-02f,
    -4.140186310e-01f, -1.861556172e-01f, -1.449037790e-01f, -1.482743174e-01f, -5.160949379e-02f, -2.659832500e-02f, -1.277431250e-01f, -1.714525968e-01f
};

const float stage2_block0_br_bn_w[16] = {
    1.168470621e+00f, 1.195514321e+00f, 1.003093004e+00f, 8.670905828e-01f, 8.991646767e-01f, 1.041396499e+00f, 1.005963326e+00f, 8.249013424e-01f,
    8.744502068e-01f, 8.949076533e-01f, 1.102059364e+00f, 9.585118294e-01f, 1.347375274e+00f, 9.660432339e-01f, 5.540559888e-01f, 6.755687594e-01f
};

const float stage2_block0_br_bn_b[16] = {
    5.716515183e-01f, -4.292055219e-02f, 5.718513951e-02f, -1.673927456e-01f, -9.609560668e-02f, 1.768378019e-01f, -1.107968763e-01f, -4.239103198e-01f,
    1.829771549e-01f, 2.798818983e-02f, -1.122507676e-01f, -5.025135726e-02f, -1.780983955e-01f, -2.036331594e-01f, -2.650022507e-01f, -1.027969345e-01f
};

const float stage2_block0_br_bn_mean[16] = {
    -7.019702345e-02f, -2.534004152e-01f, 3.385405242e-01f, 9.599032998e-02f, -3.984544054e-02f, 5.590296816e-03f, 3.174602091e-01f, -1.225335747e-01f,
    2.682987452e-01f, -1.976694912e-01f, -1.415276080e-01f, 9.967234731e-02f, 2.088843137e-01f, -2.326948643e-01f, -1.128229052e-01f, -1.362163723e-01f
};

const float stage2_block0_br_bn_var[16] = {
    2.988756634e-02f, 2.228318714e-02f, 9.515520930e-02f, 3.478299081e-02f, 1.949867420e-02f, 3.840174060e-03f, 8.771371841e-02f, 1.041837130e-02f,
    7.907846570e-02f, 3.136131540e-02f, 3.967373446e-02f, 1.599228941e-02f, 1.940735057e-02f, 2.495071292e-02f, 5.640199874e-03f, 1.391843893e-02f
};

const float stage2_block0_br_proj_w[256] = {
    -1.298783123e-01f, -3.322908282e-01f, -1.860557050e-01f, 7.232461572e-01f, 3.673005700e-01f, 3.781843185e-01f, 2.336167246e-01f, 2.117453068e-01f,
    -1.560021937e-01f, -2.046509385e-01f, 1.271776110e-01f, -3.090879619e-01f, 5.206016302e-01f, -1.483307183e-01f, -1.734050512e-01f, 3.966926336e-01f,
    3.097940981e-01f, 1.579806209e-01f, 1.679570526e-01f, -1.177363694e-01f, -7.769135237e-01f, -3.606106341e-01f, 7.006764412e-02f, 3.019000292e-01f,
    -5.289961100e-01f, -5.076776743e-01f, -6.708063930e-02f, -3.461447954e-01f, 6.694323421e-01f, 2.930460870e-01f, 1.260799170e-01f, -2.573457658e-01f,
    -1.368992925e-01f, 6.221668124e-01f, 6.510089636e-01f, 8.719951659e-02f, -6.743253767e-02f, -6.764916331e-02f, 4.217064381e-01f, -9.791494906e-02f,
    5.889042616e-01f, 5.261719227e-01f, 3.652045429e-01f, -2.699251175e-01f, -3.752851784e-01f, -8.663271368e-02f, -7.588250935e-02f, 1.103551220e-02f,
    -3.110406995e-01f, 8.207029104e-01f, -4.054010212e-01f, 9.644324332e-02f, 4.802571237e-01f, -8.729157597e-02f, 4.906183481e-01f, 5.162920952e-01f,
    4.542500973e-01f, 8.038337342e-03f, 5.023541744e-04f, -1.675043255e-01f, 2.676059604e-01f, 6.085262448e-02f, -2.348193824e-01f, 1.487606615e-01f,
    -5.494439602e-01f, 7.056744695e-01f, 1.605916023e-01f, -9.441057444e-01f, 3.546676934e-01f, 8.933090419e-02f, -5.078862607e-02f, -2.023542225e-01f,
    4.380866587e-01f, 2.731897831e-01f, -1.998293698e-01f, 5.143837929e-01f, -6.780855358e-02f, -6.187127233e-01f, -4.733485729e-02f, -3.220594227e-01f,
    -2.241389602e-01f, -1.443305053e-03f, -3.386055306e-02f, -1.468280405e-01f, -3.536598012e-02f, -9.348014742e-02f, -3.690878749e-01f, -1.839962453e-01f,
    -5.380796269e-02f, -1.922394335e-01f, 2.090363652e-01f, -1.001520082e-01f, 4.430598393e-02f, -5.074797869e-01f, 1.280497611e-01f, -3.362767100e-01f,
    3.639244288e-02f, 5.130342245e-01f, 4.737548232e-01f, 3.035148680e-01f, 2.288438613e-03f, 2.461215854e-01f, 5.551505685e-01f, 4.457548261e-01f,
    -7.757124305e-02f, -5.254798532e-01f, 7.267892361e-02f, -5.905807391e-02f, -3.054421842e-01f, 1.018480659e-01f, -8.715191856e-03f, -4.300297797e-01f,
    6.105759144e-01f, 5.311353803e-01f, -3.282358125e-02f, 7.816568017e-01f, -1.085873041e-02f, 1.258669794e-02f, -4.035604000e-01f, -2.721868455e-01f,
    1.688095778e-01f, 1.078163505e+00f, -1.936873943e-01f, -7.882279754e-01f, 1.234367639e-01f, -6.074466556e-02f, 3.254714310e-01f, -2.434436679e-01f,
    9.561833739e-02f, -3.939191699e-01f, -1.451994032e-01f, 5.523447394e-01f, 2.013021260e-01f, -1.342064440e-01f, -7.160297036e-02f, 1.029872075e-01f,
    -2.811170816e-01f, 8.195260167e-01f, -2.108968645e-01f, -5.124211907e-01f, 2.362133563e-01f, 7.030109409e-03f, -2.964650989e-01f, -2.256671935e-01f,
    6.375950575e-02f, -5.560378432e-01f, -6.084970385e-02f, 4.249774814e-01f, -1.813853383e-01f, 6.456066966e-01f, 1.723907590e-01f, -7.461742312e-02f,
    2.963845134e-01f, 4.767125845e-01f, -2.380293161e-01f, -1.354032606e-01f, -1.567191929e-01f, -9.075487852e-01f, -1.432605833e-01f, -2.749591768e-01f,
    4.175810516e-01f, 2.676673532e-01f, -4.921332896e-01f, -6.469020247e-01f, 6.355626136e-02f, -4.890188575e-01f, 4.490547478e-01f, 1.836036146e-01f,
    2.545039654e-01f, -3.680681288e-01f, 4.436210096e-01f, 3.370552063e-01f, -4.382431805e-01f, 3.366122544e-01f, 3.162015080e-01f, -1.591025889e-01f,
    -6.757839322e-01f, -5.897494778e-02f, 7.099628914e-03f, -6.013805866e-01f, 4.789483845e-01f, 7.892495394e-01f, 3.780213892e-01f, -1.171541288e-01f,
    4.534052014e-01f, 2.089238614e-01f, 4.045259058e-01f, 5.319617987e-01f, 2.828328609e-01f, 2.925218642e-01f, -2.289335877e-01f, 3.412821293e-01f,
    1.495340466e-01f, 4.397189915e-01f, 4.219827950e-01f, -6.246552244e-02f, -3.338789344e-01f, 2.019253559e-02f, -2.349302769e-01f, 3.062289655e-01f,
    -2.083874494e-02f, -1.432745755e-01f, -3.680019975e-01f, 7.941961288e-01f, -1.592413336e-01f, 1.863158941e-01f, -1.411639452e-01f, 1.077927500e-01f,
    3.611393571e-01f, -1.023780555e-01f, -1.882618368e-01f, -2.311274111e-01f, -3.856617212e-01f, 2.659191191e-01f, -3.738956749e-01f, -3.424869478e-01f,
    -1.374000907e-01f, 2.447157800e-01f, 2.101973593e-01f, -3.250836954e-02f, 3.142346144e-01f, 7.805168629e-02f, -1.713739932e-01f, -3.611653447e-01f,
    -3.279824555e-02f, -5.722515583e-01f, -2.547726631e-01f, -4.694474339e-01f, -2.879866362e-01f, -1.184167191e-01f, -1.103452295e-01f, 2.167511284e-01f,
    2.889287770e-01f, 1.821947843e-01f, 5.222737789e-01f, -2.429689467e-01f, 4.104155898e-01f, -1.544723213e-01f, -2.241127044e-01f, 1.969070137e-01f,
    7.586023957e-02f, -3.789603710e-02f, -3.713611364e-01f, 9.302215278e-02f, -8.204912394e-02f, -3.926715851e-01f, 4.830843806e-01f, 5.625601411e-01f,
    4.132167697e-01f, 8.097077161e-02f, 3.744897246e-01f, 1.718964055e-02f, -6.845698953e-01f, -4.049979746e-01f, -3.149656057e-01f, 1.079442576e-01f
};

const float stage2_block1_main_conv1x1_w[256] = {
    6.029989105e-03f, -1.003832370e-01f, 1.849148422e-01f, 2.791747749e-01f, -2.284458876e-01f, -1.978090852e-01f, -5.928830504e-01f, 1.982913464e-01f,
    4.025639892e-01f, -3.516355902e-02f, -3.931208849e-01f, -7.036011219e-01f, -1.865335703e-01f, -2.170270830e-01f, 1.799916625e-01f, 8.114010841e-02f,
    -2.608332932e-01f, -2.111532539e-01f, 4.024098217e-01f, -6.790617704e-01f, -2.006715685e-01f, 3.062058389e-01f, -3.057929873e-01f, -4.267158806e-01f,
    -2.684607357e-02f, -3.286283463e-02f, -5.789687485e-02f, 1.868115664e-01f, 1.274221092e-01f, -4.144017398e-01f, -1.164719239e-01f, -1.699247360e-01f,
    1.016995668e+00f, 2.910663486e-01f, 4.685141519e-02f, 5.879748464e-01f, 2.365691215e-01f, 1.249372736e-01f, 2.500985377e-02f, -5.556766987e-01f,
    -3.972748220e-01f, 6.165068150e-01f, -7.670066357e-01f, -4.158098102e-01f, -4.186674580e-02f, 2.622994781e-01f, 3.019090295e-01f, 8.239448816e-02f,
    8.089817315e-02f, -4.813667238e-01f, 7.266715765e-01f, -5.894053355e-02f, 4.716866612e-01f, 2.850411832e-01f, 5.463131666e-01f, -5.816997886e-01f,
    3.843448162e-01f, 1.757426262e-01f, -1.847372353e-01f, -5.307916999e-01f, -4.892999232e-01f, 1.768185943e-01f, 2.022863477e-01f, 4.248305559e-01f,
    -1.614121795e-01f, -1.219589114e-01f, -3.989808857e-01f, 1.825142354e-01f, -1.165881231e-01f, 1.352433115e-01f, -7.302058488e-02f, 3.658639789e-01f,
    8.490642905e-01f, 2.303320020e-01f, -4.806663394e-01f, -4.613293707e-01f, -3.290641904e-01f, 7.882159948e-01f, -4.987790883e-01f, 1.918023825e-01f,
    5.192701221e-01f, -7.831649482e-02f, 1.997591555e-01f, -2.202923894e-01f, 9.150240421e-01f, -6.094530225e-01f, -1.601627171e-01f, -5.179747939e-01f,
    -1.509852409e-01f, 6.369294971e-02f, 1.853469014e-01f, -3.952484727e-01f, -3.871361958e-03f, 4.934132099e-01f, -7.182481140e-02f, 1.537243873e-01f,
    4.731017351e-01f, 4.984501302e-01f, -7.125641704e-01f, -1.089307666e-02f, -3.536919951e-01f, 5.317285061e-01f, -1.509905905e-01f, 3.780436516e-01f,
    8.841193281e-03f, -2.366617322e-02f, 1.014638662e+00f, 1.769431233e-01f, 3.943808973e-01f, -4.282753766e-01f, -7.886126637e-03f, 7.672813535e-01f,
    -7.304092050e-01f, -4.798137844e-01f, -7.516290247e-02f, 6.782239079e-01f, -3.050037026e-01f, -2.825342715e-01f, -1.355913281e-01f, 3.151039481e-01f,
    1.073109135e-01f, -3.568340093e-02f, 2.620929480e-01f, -1.700977683e-01f, -2.699919641e-01f, -2.418171018e-01f, 7.102447003e-02f, -8.931893855e-02f,
    -1.490314156e-01f, -5.303855538e-01f, 1.551185697e-01f, -6.852106005e-02f, 2.652356029e-01f, 1.541175693e-01f, -1.701906770e-01f, -2.092048675e-01f,
    -5.526203513e-01f, -4.816801846e-01f, 1.009862065e+00f, -1.704957634e-01f, -6.739434004e-01f, -2.699573524e-02f, 4.180727601e-01f, -2.427396327e-01f,
    -2.645565867e-01f, -5.111859441e-01f, -2.830653451e-02f, -1.033956185e-01f, -6.495141387e-01f, -3.833686113e-01f, 1.056678966e-01f, 3.247421682e-01f,
    -5.039124936e-02f, 8.414242417e-03f, 7.462559640e-02f, -3.254464865e-01f, 6.068808436e-01f, -4.516709447e-01f, 4.492007792e-01f, 7.022805810e-01f,
    6.374549121e-02f, -2.464523166e-01f, 7.854356766e-01f, 5.961507559e-01f, 3.835178912e-01f, 1.551145762e-01f, 3.250937462e-01f, -2.946618795e-01f,
    -2.100813687e-01f, -4.103394747e-01f, 3.431650400e-01f, -4.886093363e-02f, -4.430307820e-02f, 2.930787504e-01f, 5.964893103e-01f, 3.869938850e-01f,
    -6.703478843e-02f, -2.688631415e-01f, -2.970836759e-01f, -1.612962186e-01f, 3.331409395e-01f, -2.533604801e-01f, -1.513849944e-01f, 1.440836638e-01f,
    1.854340546e-02f, 9.387680888e-01f, -2.969978563e-02f, 1.137526147e-02f, -3.878036737e-01f, 2.948014438e-01f, 4.455636442e-01f, -8.443981409e-02f,
    -7.831121683e-01f, -3.999001682e-01f, -5.082004070e-01f, 4.900355935e-01f, -2.697906494e-01f, -1.607063860e-01f, 4.784891307e-01f, -3.416690975e-02f,
    4.138398767e-01f, -5.173202157e-01f, 2.961229682e-01f, 1.874653064e-02f, 5.292479396e-01f, -2.083258182e-01f, -5.982108414e-02f, -3.275676668e-01f,
    -6.489773281e-03f, 1.448561549e-01f, -1.476495564e-01f, 4.580234289e-01f, 1.718743294e-01f, 3.684400022e-01f, -2.295085043e-01f, -9.726326168e-02f,
    -5.549212098e-01f, -6.752260774e-02f, 3.399621546e-01f, -5.670797229e-01f, 3.604473174e-01f, -1.683808714e-01f, 2.115928754e-02f, 4.627949297e-01f,
    6.020278335e-01f, -1.602342874e-01f, 1.174491420e-01f, 3.596227765e-01f, -2.214942276e-01f, 1.576967537e-01f, 3.533816040e-01f, -6.796978712e-01f,
    -2.066950947e-01f, -3.579325080e-01f, -5.380145833e-02f, 8.827578425e-01f, 7.324994802e-01f, 4.041249454e-01f, 6.370511651e-02f, -1.807934605e-02f,
    -3.857336342e-01f, 4.861321449e-01f, 1.652559042e-01f, -1.045573223e-02f, -7.296419740e-01f, -4.442999065e-01f, -7.631805539e-01f, 2.605164647e-01f,
    4.339093268e-01f, 4.584060237e-02f, -7.157956362e-01f, 6.190757155e-01f, -1.431847513e-01f, 2.834700346e-01f, 2.215531282e-02f, 5.584480166e-01f
};

const float stage2_block1_main_bn1_w[16] = {
    8.645929694e-01f, 9.470880628e-01f, 8.504217863e-01f, 4.910402596e-01f, 8.259090185e-01f, 5.081396699e-01f, 1.070407867e+00f, 1.223119020e+00f,
    9.780387878e-01f, 1.172410488e+00f, 8.489654064e-01f, 9.022458792e-01f, 9.595902562e-01f, 1.322240114e+00f, 1.106337428e+00f, 8.533458710e-01f
};

const float stage2_block1_main_bn1_b[16] = {
    1.105058268e-01f, -1.567219645e-01f, 2.651333511e-01f, 4.397259951e-01f, 2.309188396e-01f, 3.709200323e-01f, 5.227437988e-02f, 6.237651780e-02f,
    2.151769102e-01f, -6.832621526e-03f, 1.978463233e-01f, 2.660559714e-01f, 9.781321138e-02f, 1.986986957e-02f, -9.860220365e-03f, 2.293615043e-01f
};

const float stage2_block1_main_bn1_mean[16] = {
    -1.349285722e+00f, -1.503602386e+00f, 1.931527406e-01f, -1.635950357e-01f, -1.084484935e+00f, -5.493910909e-01f, 1.313808084e+00f, -1.152309254e-01f,
    -1.008706450e+00f, 3.807909042e-02f, 2.556159258e+00f, -5.926342607e-01f, 5.119046196e-02f, -2.265019417e-01f, 2.800168991e+00f, 2.199875563e-01f
};

const float stage2_block1_main_bn1_var[16] = {
    1.256554484e+00f, 1.793377042e+00f, 2.884274721e+00f, 3.885570049e+00f, 1.507700205e+00f, 1.914003730e+00f, 1.387246013e+00f, 1.757791281e+00f,
    1.529399157e+00f, 6.253709793e-01f, 4.250490665e+00f, 6.885679364e-01f, 1.507178903e+00f, 1.132866621e+00f, 1.956598878e+00f, 3.398578405e+00f
};

const float stage2_block1_main_dwconv_w[48] = {
    4.058798850e-01f, -5.159918219e-02f, 7.134288549e-02f, 4.437938333e-01f, 1.508689970e-01f, 1.297191828e-01f, 9.951066226e-02f, -3.124145567e-01f,
    1.993590742e-01f, -1.517277509e-01f, 2.143144011e-01f, 2.555042803e-01f, 1.126011088e-01f, 2.641041875e-01f, -2.061426193e-01f, -1.489247531e-01f,
    2.418272197e-01f, 1.642755568e-01f, 1.030058041e-01f, -3.279880583e-01f, 1.763791293e-01f, 2.127861679e-01f, 2.285674065e-01f, 5.985970050e-02f,
    5.967150331e-01f, 9.157103300e-02f, -1.383196712e-01f, -6.782351434e-02f, -2.314482033e-01f, -1.733112335e-01f, -2.033736259e-01f, 1.133178994e-01f,
    -3.482900858e-01f, 2.138336599e-01f, -1.173188835e-01f, 9.854883701e-02f, -1.196592003e-01f, 4.354664981e-01f, 6.808497477e-03f, 9.776122868e-02f,
    5.869458318e-01f, -2.797217108e-02f, -7.779489458e-02f, -6.938388105e-04f, 2.683684230e-01f, 6.822361797e-02f, -1.091604307e-01f, -1.127847955e-01f
};

const float stage2_block1_main_bn2_w[16] = {
    7.857424021e-01f, 8.081383109e-01f, 4.321122766e-01f, 6.198602319e-01f, 1.019919753e+00f, 3.166559637e-01f, 1.690065265e-01f, 6.250277758e-01f,
    6.453883648e-01f, 4.182511568e-01f, 7.107777596e-01f, 3.596144021e-01f, 6.183990836e-01f, 6.707937717e-01f, 1.124279857e+00f, 4.540309906e-01f
};

const float stage2_block1_main_bn2_b[16] = {
    2.306906581e-01f, 1.624637693e-01f, 4.888387322e-01f, 4.253604412e-01f, -9.106464684e-02f, 4.875695705e-01f, 5.175499320e-01f, 4.035196602e-01f,
    3.418214917e-01f, 3.549840748e-01f, 2.838249803e-01f, 4.921057820e-01f, 3.340560496e-01f, 3.700363338e-01f, -2.171563916e-02f, 3.269865811e-01f
};

const float stage2_block1_main_bn2_mean[16] = {
    1.074173227e-01f, 1.406162083e-01f, -1.432741992e-02f, 1.396338344e-01f, 8.098442852e-02f, 1.037115455e-01f, -4.241516441e-02f, 1.888948083e-01f,
    2.017071694e-01f, -1.762158722e-01f, -1.328494549e-01f, 6.999223679e-02f, 1.232737601e-01f, 3.133327961e-01f, 7.137259096e-02f, -7.079787552e-02f
};

const float stage2_block1_main_bn2_var[16] = {
    4.303087294e-02f, 2.565554902e-02f, 7.105087489e-02f, 3.047212772e-02f, 2.670715004e-02f, 2.391802147e-02f, 4.982875660e-02f, 9.173440188e-02f,
    2.196263373e-01f, 6.010261178e-02f, 6.715460122e-02f, 3.366246074e-02f, 5.551697314e-02f, 3.297699988e-01f, 3.127101436e-02f, 4.470053129e-03f
};

const float stage2_block1_expand_bn_w[80] = {
    2.344908118e-01f, 8.346320987e-01f, 1.273695469e+00f, 6.635890603e-01f, 9.250128865e-01f, 9.069185853e-01f, 8.287748694e-01f, 8.417689800e-01f,
    9.635205269e-01f, 8.580124974e-01f, 6.997022629e-01f, 7.400603890e-01f, 1.203761816e+00f, 1.015606523e+00f, 5.401630402e-01f, 1.053593159e+00f,
    8.906624317e-01f, 6.424332857e-01f, 1.124384999e+00f, 1.261816621e+00f, 8.982419372e-01f, 1.036223888e+00f, 6.560351253e-01f, 4.856711328e-01f,
    1.071630716e+00f, 9.829769135e-01f, 1.054158092e+00f, 1.083279729e+00f, 1.178653717e+00f, 6.866472363e-01f, 1.130366564e+00f, 7.130581737e-01f,
    4.853756130e-01f, 6.502890587e-01f, 5.571199059e-01f, 1.844420791e+00f, 1.055531383e+00f, 8.113043904e-01f, 4.520588517e-01f, 4.765790999e-01f,
    1.242418528e+00f, 1.278879285e+00f, 1.477191091e+00f, 1.086753488e+00f, 6.034757495e-01f, 8.928685784e-01f, 9.280501008e-01f, 1.044008493e+00f,
    8.451761603e-01f, 8.638808131e-01f, 1.294105887e+00f, 1.824522763e-01f, 4.021984041e-01f, 7.120521665e-01f, 1.699026704e+00f, 1.157459140e+00f,
    9.488208890e-01f, 7.606809735e-01f, 3.099406958e-01f, 1.235592604e+00f, 7.758191824e-01f, 5.873540044e-01f, 6.643344760e-01f, 5.999554396e-01f,
    2.838506699e-01f, 1.427556038e+00f, 7.427466512e-01f, 5.456250310e-01f, 6.345493197e-01f, 1.474094033e+00f, 1.215201616e+00f, 7.878949046e-01f,
    6.624495983e-01f, 7.156531215e-01f, 6.518606544e-01f, 6.520459056e-01f, 1.263112545e+00f, 1.035132766e+00f, 9.809957743e-01f, 6.288075447e-01f
};

const float stage2_block1_expand_bn_b[80] = {
    -7.992482185e-01f, 2.746382654e-01f, 3.750794232e-01f, -7.911016047e-02f, -1.652980149e-01f, -1.459581684e-02f, 6.794578861e-03f, -1.024806648e-01f,
    -1.208715513e-01f, -4.839181155e-02f, 2.238805592e-01f, 1.065392643e-01f, 1.401541829e-01f, 6.416089535e-01f, -6.091618538e-01f, 2.499733418e-01f,
    3.490403295e-01f, 4.077748954e-01f, 2.993091941e-01f, 2.516974807e-01f, 6.318862736e-02f, -2.366346270e-01f, -3.096113354e-02f, -1.796476096e-01f,
    3.842005739e-03f, 2.355904728e-01f, 3.079417944e-01f, 3.015791774e-01f, 5.026943684e-01f, -3.539860621e-02f, 4.048433304e-01f, 1.599774063e-01f,
    -3.677852750e-01f, -2.322660983e-01f, -1.361807734e-01f, 7.111927271e-01f, 8.538918942e-02f, -1.001873836e-01f, 2.791584432e-01f, -3.578739464e-01f,
    3.686529994e-01f, 5.539936423e-01f, 5.087813139e-01f, 7.718284614e-03f, -6.800775975e-02f, -5.855635554e-02f, -2.353079244e-02f, 2.337015867e-01f,
    -1.302921474e-01f, -4.636495560e-02f, 2.307897806e-01f, -3.664700389e-01f, -3.157100081e-01f, -9.382912889e-03f, 1.522921026e-01f, 3.640182018e-01f,
    3.802376986e-01f, -3.879957646e-02f, -4.662603736e-01f, 6.261243671e-02f, -5.647598580e-02f, -2.209986448e-01f, 3.951962665e-02f, -2.440445125e-01f,
    -2.988221049e-01f, 7.108541131e-01f, -4.553059489e-02f, 1.729002595e-01f, -2.434762567e-01f, 2.305018753e-01f, 3.512962535e-02f, -1.378700584e-01f,
    -1.370813102e-01f, 3.706365125e-03f, -1.979528219e-01f, 9.209596366e-02f, 1.590333283e-01f, 5.727851391e-01f, 1.867464185e-01f, -5.166662335e-01f
};

const float stage2_block1_expand_bn_mean[80] = {
    2.311953111e-03f, 7.600543499e-01f, 3.655996621e-01f, 5.302937627e-01f, 1.259332299e-01f, 9.794521332e-02f, 6.217350364e-01f, 3.455419540e-01f,
    3.710945249e-01f, 5.433144569e-01f, 6.899451613e-01f, 4.319811165e-01f, 5.671129227e-01f, 5.025184155e-01f, 4.689296186e-01f, 7.270495892e-01f,
    6.137204170e-01f, 3.821386695e-01f, 4.259972572e-01f, 1.070288047e-01f, 2.623933554e-01f, 3.235082626e-01f, 2.848078907e-01f, 3.323281705e-01f,
    5.631523132e-01f, 5.644621849e-01f, 6.333324313e-01f, 4.921175838e-01f, 4.769890904e-01f, 2.750518918e-01f, 4.522668123e-01f, 5.884714127e-01f,
    5.176247358e-01f, 5.102635622e-01f, 5.463641286e-01f, 4.355888665e-01f, 6.062282324e-01f, 4.045216143e-01f, 3.032874465e-01f, 2.679716647e-01f,
    9.546985477e-02f, 4.560223520e-01f, 4.147660136e-01f, 5.187546611e-01f, 3.071157634e-01f, 3.571068048e-01f, 3.893609941e-01f, 4.125974774e-01f,
    4.453672469e-01f, 5.344948173e-01f, 4.401197135e-01f, 4.088005722e-01f, 4.233561158e-01f, 4.005800784e-01f, 6.264196038e-01f, 4.424301386e-01f,
    4.207489192e-01f, 5.605120063e-01f, 5.888873339e-01f, 4.960341454e-01f, 7.037042975e-01f, 1.941323131e-01f, 2.493015081e-01f, 3.011189997e-01f,
    4.282245040e-01f, 3.553466499e-01f, 5.177577138e-01f, 4.401287138e-01f, 3.390432596e-01f, 2.075074613e-01f, 4.141232073e-01f, 2.672145367e-01f,
    9.104678035e-01f, 4.145053029e-01f, 5.605193857e-45f, 2.651789188e-01f, 4.332553446e-01f, 3.198868930e-01f, 3.064981699e-01f, 6.305566430e-01f
};

const float stage2_block1_expand_bn_var[80] = {
    2.579006541e-04f, 1.179306626e+00f, 4.550536275e-01f, 4.360498786e-01f, 1.144437566e-01f, 3.388224915e-02f, 6.146107316e-01f, 3.489158452e-01f,
    3.929032683e-01f, 4.864707887e-01f, 9.450299293e-02f, 9.767450392e-02f, 1.154929101e-01f, 7.488486171e-02f, 3.593666479e-02f, 5.976845622e-01f,
    4.245351851e-01f, 1.965981871e-01f, 2.869053483e-01f, 5.602239072e-02f, 5.685245395e-01f, 4.701145291e-01f, 2.802848816e-01f, 3.375126123e-01f,
    6.136211157e-01f, 6.077505276e-02f, 1.436892897e-01f, 1.114338189e-01f, 8.030882478e-02f, 2.794639580e-02f, 2.567047998e-02f, 2.476665564e-02f,
    2.205236629e-02f, 1.039213408e-02f, 4.013568163e-03f, 3.996589184e-01f, 7.752012610e-01f, 3.355233967e-01f, 1.470873356e-01f, 2.251457721e-01f,
    1.200603507e-02f, 6.414961219e-01f, 4.737065136e-01f, 5.517701507e-01f, 2.038187683e-01f, 7.477991283e-02f, 7.321570814e-02f, 6.943479925e-02f,
    6.117672473e-02f, 3.297124803e-02f, 9.207906574e-02f, 8.264737576e-02f, 8.638630062e-02f, 7.624375075e-02f, 7.191184163e-02f, 3.322489560e-02f,
    5.819089338e-02f, 2.116308808e-01f, 1.528007239e-01f, 9.957943857e-02f, 6.589892507e-01f, 2.654489577e-01f, 2.407831103e-01f, 1.145055890e-01f,
    2.245360464e-01f, 5.385364890e-01f, 6.228507161e-01f, 4.649984241e-01f, 2.894473374e-01f, 2.733854651e-01f, 8.299201131e-01f, 8.201940656e-01f,
    9.779286385e-01f, 7.670327425e-01f, 5.605193857e-45f, 9.964753687e-02f, 1.890586019e-01f, 1.153271198e-01f, 1.070876718e-01f, 9.064362943e-02f
};

const float stage2_block1_br_dwconv_w[48] = {
    4.417342544e-01f, 6.024789810e-02f, -1.697850525e-01f, -1.686161906e-01f, -8.996431530e-02f, -1.639637053e-01f, -9.651982039e-02f, 6.266483665e-01f,
    4.236947373e-02f, -3.961052001e-02f, -1.686024070e-01f, -3.421096802e-01f, 3.204029799e-01f, -4.968609661e-02f, -1.824937463e-01f, -1.582461293e-03f,
    4.242433906e-01f, -2.302043885e-01f, -5.602320191e-03f, 7.277671248e-02f, 6.927707791e-01f, 2.180866450e-01f, 2.397202402e-01f, -1.773224445e-03f,
    -3.666059673e-01f, -1.703508794e-01f, -9.169954062e-02f, 1.898352355e-01f, 3.304211497e-01f, 2.232130989e-02f, -2.636511028e-01f, -1.352015287e-01f,
    -1.928630173e-01f, 2.758613825e-01f, -2.905747890e-01f, 3.342191456e-03f, -2.283476144e-01f, -3.779599965e-01f, -2.778139412e-01f, -2.817586958e-01f,
    4.525192380e-01f, 9.963369928e-03f, -3.982502520e-01f, -6.748339534e-02f, 2.321396470e-01f, 2.261216491e-01f, 1.613143235e-01f, 1.525330096e-01f
};

const float stage2_block1_br_bn_w[16] = {
    1.080955148e+00f, 1.184559107e+00f, 7.861456275e-01f, 1.066859365e+00f, 9.628419876e-01f, 1.100849628e+00f, 1.128593683e+00f, 8.863210082e-01f,
    1.281747818e+00f, 1.068810940e+00f, 1.363704324e+00f, 7.504980564e-01f, 9.328401089e-01f, 8.522163033e-01f, 9.954430461e-01f, 7.600909472e-01f
};

const float stage2_block1_br_bn_b[16] = {
    6.599876285e-01f, 1.221255283e-03f, 6.816261262e-02f, 3.491837531e-02f, -1.464798450e-01f, -1.133606061e-01f, -1.719908863e-01f, 1.198013946e-01f,
    -1.958126575e-01f, 1.834317744e-01f, 1.548175514e-01f, -1.652577147e-02f, -2.405410111e-01f, -6.478087902e-01f, 2.501081824e-01f, 2.119072378e-01f
};

const float stage2_block1_br_bn_mean[16] = {
    9.993264824e-02f, -1.341274530e-01f, 2.101905346e-01f, -2.638643682e-01f, 2.423075400e-02f, 9.605653584e-02f, 1.782567501e-01f, 1.888836771e-01f,
    -2.896171808e-01f, 2.142728418e-01f, -1.883407086e-01f, -4.468713421e-03f, -1.389205903e-01f, 6.860451400e-02f, -4.784198478e-02f, 2.414578050e-01f
};

const float stage2_block1_br_bn_var[16] = {
    3.929317370e-02f, 3.081705421e-02f, 3.962388635e-02f, 8.427029103e-02f, 1.537133660e-02f, 3.621200472e-02f, 2.280346490e-02f, 8.151211590e-02f,
    1.326316595e-01f, 2.476511151e-02f, 2.174022421e-02f, 1.615031995e-02f, 3.330446780e-02f, 2.780482918e-02f, 2.345309220e-02f, 5.952144787e-02f
};

const float stage2_block1_br_proj_w[256] = {
    -5.268362164e-01f, -1.515440922e-02f, 3.216813505e-01f, 2.631959617e-01f, 3.584157676e-02f, 2.564717531e-01f, -6.351011246e-02f, 5.659706146e-02f,
    1.028198600e-01f, 2.676935494e-01f, 5.788132548e-01f, -2.142465413e-01f, 1.412037313e-01f, 2.575166523e-01f, -1.678216606e-01f, -5.718042254e-01f,
    9.105349332e-02f, -1.353989244e-01f, 2.390979528e-01f, -1.246597990e-01f, 1.648185104e-01f, -1.607459635e-01f, -2.109120786e-02f, 3.127652407e-01f,
    5.566352606e-02f, 3.225084841e-01f, -8.280875683e-01f, 1.434738040e-01f, -6.597626805e-01f, 5.253585577e-01f, 6.051976085e-01f, 7.095867991e-01f,
    7.673818469e-01f, 6.584371328e-01f, 1.085027754e-01f, -9.249125123e-01f, -1.479011029e-01f, 2.556871772e-01f, 2.674650550e-01f, 7.427045144e-03f,
    -3.933006823e-01f, -6.418516040e-01f, 3.777309060e-01f, -7.289069295e-01f, 3.843061030e-01f, 5.997474790e-01f, 4.521571696e-01f, 1.092411801e-01f,
    4.741612971e-01f, 3.652507365e-01f, 3.060806096e-01f, -9.468327463e-02f, -2.195003778e-01f, -4.578136802e-01f, 2.079150826e-01f, 1.510560960e-01f,
    2.523921728e-01f, -7.099173218e-02f, -3.231493831e-01f, 2.399778813e-01f, -2.263845354e-01f, -1.985472590e-01f, -3.467736766e-02f, -2.676954269e-01f,
    6.052783877e-02f, -4.475965351e-02f, 4.483653605e-01f, -1.908432692e-01f, 9.376344085e-02f, 3.700416982e-01f, -6.097412854e-02f, 1.621295698e-02f,
    -2.232975066e-01f, 2.951054871e-01f, 3.256479502e-01f, -4.227439761e-01f, 7.046695799e-02f, -4.019315243e-01f, -9.813107848e-01f, -6.458781958e-01f,
    7.982978970e-02f, 1.536542624e-01f, -1.061378941e-01f, 5.645921230e-01f, 3.520803750e-01f, -9.602171928e-02f, 2.109993696e-01f, 3.754361570e-01f,
    -5.527056456e-01f, 1.826692075e-01f, 7.673746943e-01f, -1.121849418e-01f, -2.116594762e-01f, -6.875822544e-01f, -3.098469973e-01f, 2.518137097e-01f,
    5.346821621e-02f, -1.034361869e-01f, -2.041782886e-01f, 4.323685542e-02f, -3.297049403e-01f, -1.506757835e-04f, 2.669143081e-01f, 7.323174924e-02f,
    -4.056288004e-01f, -2.101004869e-01f, -1.016981006e-01f, -4.267134964e-01f, -3.686107993e-01f, -5.801423453e-03f, 4.253599644e-01f, 2.030548304e-01f,
    3.759971857e-01f, 8.870505691e-01f, 3.466500938e-01f, 1.307583600e-01f, 2.703472078e-01f, -2.591810189e-02f, -3.756045401e-01f, -3.433434069e-01f,
    6.164641380e-01f, -3.150699735e-01f, 2.875408828e-01f, -2.489729971e-01f, 6.482627988e-02f, -6.503012776e-01f, 9.945525229e-02f, 2.377934456e-01f,
    5.143878609e-02f, -5.572235212e-02f, 2.236672193e-01f, 3.602235317e-01f, -4.183546007e-01f, -4.234705269e-01f, -2.010106593e-01f, 8.763793111e-02f,
    -4.578397274e-01f, 1.427462697e-01f, 6.262255311e-01f, 2.045971453e-01f, 5.876068473e-01f, -2.408995479e-02f, 3.692950681e-02f, -1.303338408e-01f,
    -4.056642652e-01f, 1.644972712e-01f, 2.901114523e-01f, 5.329651386e-02f, 5.272465944e-02f, 1.960710855e-03f, -1.771895140e-01f, -6.585158110e-01f,
    -1.390901953e-01f, -6.372223049e-02f, -1.832371950e-01f, -6.133949161e-01f, -2.441412956e-01f, -1.629199684e-01f, -1.821508706e-01f, -2.570865750e-01f,
    7.073685527e-01f, -2.376834303e-01f, 2.696499228e-01f, 4.296461940e-01f, 5.364972949e-01f, 1.893793643e-01f, -1.554665808e-02f, 3.174456954e-01f,
    -2.378991097e-01f, 8.102288842e-01f, 7.535507083e-01f, -6.368681788e-02f, -4.740046263e-01f, -9.145940542e-01f, 4.333081543e-01f, 1.099972650e-01f,
    -1.079252064e-01f, -1.728745699e-01f, -7.506451607e-01f, 2.115641534e-01f, 9.516452551e-01f, -1.013938636e-01f, -2.653268874e-01f, 2.325466424e-01f,
    -2.409018129e-01f, -1.773661226e-01f, -9.617310762e-02f, -8.614501916e-03f, 4.068533480e-01f, 2.248608917e-01f, -3.846236467e-01f, 3.375071287e-01f,
    6.320328116e-01f, -2.976155877e-01f, 4.463092685e-01f, 2.661880255e-01f, -5.971322209e-02f, 7.050198913e-01f, 7.199396491e-01f, 3.086993992e-01f,
    3.081230521e-01f, -3.592213392e-01f, 6.958001256e-01f, 2.408189178e-01f, 5.499019623e-01f, -2.264175117e-01f, -1.192605216e-02f, -7.583951950e-02f,
    -7.101197243e-01f, -4.916245639e-01f, -1.677083820e-01f, 4.001305103e-01f, 2.921128571e-01f, 3.988264799e-01f, -6.632464007e-03f, 2.923541963e-01f,
    2.719896380e-03f, 4.457432926e-01f, -5.991802737e-02f, 7.556591928e-02f, 5.119226500e-02f, 3.749208450e-01f, 4.032908678e-01f, 1.759998202e-01f,
    4.301359653e-01f, 3.186643124e-01f, -9.705115110e-02f, -6.354320049e-01f, 3.421321511e-01f, 7.997574806e-01f, -4.755842090e-01f, -2.265162170e-01f,
